been 0.0214532557874918 -0.40293148159980774 -0.35847142338752747 -0.373844712972641 0.11622008681297302 0.03392525389790535 -0.1556800901889801 -0.3744351267814636 0.06493411958217621 -0.0037374955136328936 0.15967628359794617 -0.1167827695608139 0.1786753237247467 0.5176664590835571 0.07951229810714722 0.24467384815216064 0.27848267555236816 -0.25696489214897156 -0.08023170381784439 -0.5800976157188416 -0.3089436888694763 0.5536784529685974 0.21140898764133453 -0.19003090262413025 0.13992702960968018 -0.14744585752487183 -0.23506134748458862 0.012410399504005909 -0.017660336568951607 -0.09894893318414688 0.11132712662220001 -0.3042927086353302 0.5123265981674194 -0.04415940120816231 0.010433338582515717 0.2137334942817688 -0.25220736861228943 -0.18406975269317627 -0.2300565093755722 0.07080334424972534 -0.4276541769504547 0.4226694703102112 0.3557884097099304 0.48559802770614624 0.05368437618017197 0.24602387845516205 -0.13876450061798096 0.3541896939277649 -0.02779780514538288 0.3614386022090912 0.41948989033699036 -0.38031816482543945 -0.009173017926514149 0.3184838593006134 -0.25421199202537537 -0.10118062049150467 -0.027188610285520554 0.3240872323513031 0.10929065942764282 0.04894666001200676 -0.08051475882530212 0.04021038860082626 0.371651828289032 0.4081377685070038 -0.05403568223118782 -0.2065180391073227 0.018078235909342766 -0.37904253602027893 0.19455751776695251 -0.3155047595500946 0.23180906474590302 -0.06411002576351166 0.3371712565422058 0.08327271044254303 -0.12061764299869537 0.38190314173698425 0.3008147180080414 -0.1573651134967804 -0.09040302783250809 0.2984943687915802 -0.24201899766921997 0.4146459400653839 -0.06406047195196152 -0.08210992068052292 0.19572566449642181 -0.03240303695201874 0.38508617877960205 0.16926680505275726 0.3745134174823761 -0.14409276843070984 -0.41788363456726074 -0.8337171077728271 -0.21504226326942444 -0.3012837767601013 0.11556723713874817 -0.5665478110313416 0.23002196848392487 0.4043930768966675 0.27087634801864624 -0.16697822511196136
year -0.027352984994649887 0.16894273459911346 -0.18365122377872467 0.033821288496255875 -0.21298368275165558 0.10341813415288925 0.308350145816803 -0.06879077106714249 -0.06490658223628998 -0.008405005559325218 -0.10902447253465652 -0.06146032735705376 0.2674848139286041 0.2974114418029785 -0.46443575620651245 0.07636816799640656 0.25621145963668823 0.2551770508289337 -0.14300675690174103 -0.1082821935415268 0.00947065744549036 -0.40806326270103455 0.1504497230052948 -0.03475440293550491 0.03492587059736252 0.4179924726486206 0.024538351222872734 0.3349902629852295 0.07366717606782913 0.00377537845633924 0.4593270421028137 -0.4561188817024231 0.1865161806344986 0.08521555364131927 0.351610004901886 -0.04044986516237259 -0.2427278757095337 -0.1816714107990265 -0.02995995618402958 -0.25097620487213135 -0.043497808277606964 -0.05808721482753754 -0.18278419971466064 0.11934061348438263 0.0035012238658964634 -0.38138484954833984 -0.6069537997245789 0.2273172289133072 0.2020847201347351 0.2684512436389923 0.050100114196538925 -0.19570276141166687 0.1461612731218338 0.25869396328926086 0.1312960386276245 0.22745683789253235 -0.08575623482465744 -0.010860558599233627 -0.2722698450088501 -0.261353999376297 -0.0788101777434349 -0.2675037682056427 0.18619754910469055 0.2909452021121979 -0.15153706073760986 -0.24769526720046997 -0.3071579337120056 -0.2512265145778656 -0.01931815966963768 -0.1621973067522049 0.14358672499656677 -0.5131585597991943 -0.4157941937446594 0.1351679265499115 0.15175177156925201 0.13828280568122864 0.14866240322589874 -0.00717052910476923 -0.11321468651294708 -0.44779178500175476 -0.26889076828956604 -0.21620462834835052 -0.38844677805900574 0.2744397819042206 0.42725417017936707 0.09542537480592728 -0.33823826909065247 0.11230544000864029 -0.3499777615070343 0.07498952001333237 -0.1772230714559555 -0.24945244193077087 -0.010483299382030964 0.4785138666629791 0.11790092289447784 -0.002595704048871994 0.14955595135688782 0.20419767498970032 -0.09295274317264557 0.409531831741333
about 0.34947729110717773 0.11787300556898117 0.00862145982682705 0.0468156635761261 0.1386135220527649 0.3337911367416382 -0.2750510573387146 -0.05411157384514809 0.38226544857025146 0.13250043988227844 0.06656654179096222 0.36052751541137695 0.21159498393535614 -0.03505721688270569 0.10783829540014267 7.779555162414908E-4 -0.2541789412498474 0.05446020886301994 -0.10360393673181534 0.19752874970436096 -0.19521206617355347 0.4680793881416321 0.12418151646852493 -0.034293025732040405 0.07845821231603622 -0.07251419126987457 0.06905552744865417 0.21539747714996338 0.014989802613854408 0.049255840480327606 -0.14345936477184296 -0.4359130561351776 0.04306420683860779 -0.03712931275367737 -0.18952520191669464 -0.1774161159992218 -0.14861470460891724 0.07288279384374619 0.24503648281097412 -0.14491114020347595 -0.34469476342201233 0.2618352174758911 -0.5051885843276978 0.039358362555503845 0.005285410676151514 0.0549967959523201 -0.28984078764915466 -0.008042394183576107 0.5098978877067566 0.06901214271783829 -0.22860455513000488 0.08220470696687698 0.3439430892467499 0.11062365025281906 -0.30886149406433105 -0.03139519318938255 -0.11881496012210846 -0.2688084840774536 -0.01284894160926342 -0.2973068952560425 -0.08365713804960251 0.1579107940196991 -0.009003029204905033 -0.13930732011795044 -0.0256230179220438 -0.23450008034706116 -0.16525600850582123 0.06692618876695633 0.46155548095703125 -0.0251406691968441 -0.05379665642976761 0.09602473676204681 -0.35782405734062195 -0.048058297485113144 -0.06363074481487274 -0.04340727999806404 0.10373949259519577 0.12054446339607239 0.0054274979047477245 -0.3759874999523163 -0.2012181133031845 0.013463297858834267 0.3078784644603729 -0.15153373777866364 0.1845409870147705 -0.14747567474842072 -0.34299686551094055 0.3715321123600006 0.0254991315305233 -0.2455216944217682 -0.315613329410553 -0.11915060877799988 -0.0649871677160263 0.23656900227069855 -0.232090562582016 0.0011225490598008037 -0.20601612329483032 -0.059164173901081085 0.07199884206056595 -0.08695797622203827
your -0.0964457169175148 -0.04888198524713516 0.194157674908638 -0.11433424055576324 -0.049000173807144165 0.2700645625591278 -0.07058414816856384 -0.32586705684661865 0.22028827667236328 -0.12891283631324768 0.20454715192317963 0.8072450160980225 -0.25679558515548706 -0.09114500880241394 0.20648011565208435 0.03257857635617256 0.16190609335899353 0.13112062215805054 -0.19765156507492065 0.20464402437210083 0.07025968283414841 -0.11382623016834259 0.25794893503189087 0.3242109715938568 0.413298636674881 0.3539659380912781 -0.1485125720500946 0.10097163915634155 0.25654369592666626 0.04435821250081062 0.1124676838517189 -0.009774107486009598 0.0438220389187336 -0.36973628401756287 -0.09408790618181229 -0.09233488887548447 0.027162106707692146 -0.28073403239250183 -0.10388317704200745 -0.10919777303934097 -0.5163838863372803 0.12740668654441833 -0.565453290939331 -0.10889039188623428 -0.10879416018724442 0.54383385181427 0.20537351071834564 3.5917310742661357E-4 -0.08583454042673111 -0.16289527714252472 8.43906425870955E-4 0.19040557742118835 -0.29177340865135193 0.171086385846138 0.16744722425937653 -0.1617683619260788 -0.06188496574759483 -0.19353945553302765 -0.2549918591976166 0.019682979211211205 -0.1472729742527008 -0.2069661021232605 -0.2068367302417755 -0.11237116158008575 -0.06996992230415344 0.027912605553865433 0.04947388172149658 0.27061811089515686 -0.26988112926483154 -0.043723464012145996 0.007588502019643784 -0.3437638580799103 0.316435307264328 0.0031548303086310625 -0.14778895676136017 -0.3293347954750061 -0.17559078335762024 0.2917388081550598 -0.046567484736442566 -0.07200241088867188 0.0870022103190422 -0.20854051411151886 0.16201139986515045 0.1725964993238449 -0.2638443410396576 0.03211021423339844 -0.010781325399875641 0.10999512672424316 -0.04069683700799942 -0.21395312249660492 0.24599888920783997 -0.08818107843399048 -0.007800675928592682 0.15094047784805298 0.024538835510611534 0.02986830845475197 0.27448770403862 0.09816578030586243 -0.13010472059249878 -0.11591771245002747
without -0.12285938113927841 -0.015274541452527046 0.17206650972366333 -0.11365695297718048 0.18467305600643158 0.05760320648550987 -0.13226409256458282 0.001608030404895544 0.13846667110919952 -0.06899121403694153 0.014924564398825169 0.08333523571491241 0.1782170534133911 -0.06159545108675957 -0.019440870732069016 0.17431852221488953 0.07742581516504288 0.15023088455200195 0.033623937517404556 0.047606341540813446 -0.05896799638867378 0.015921354293823242 0.05451267585158348 0.22382880747318268 0.03170314431190491 0.46657517552375793 -0.08701205253601074 0.11696141213178635 -0.09427959471940994 -0.27006641030311584 0.06251678615808487 -0.35917019844055176 -0.2530457079410553 -0.08197381347417831 0.16966316103935242 -0.04546636343002319 0.12132350355386734 0.0073828245513141155 -0.21921415627002716 -0.2756138741970062 -0.10224944353103638 0.2095830738544464 0.08642309159040451 -0.040838103741407394 -0.1404435932636261 0.05440985783934593 0.03213726356625557 -0.04068935662508011 0.09326046705245972 -0.1289309561252594 0.30343952775001526 -0.14235733449459076 0.10877479612827301 0.09392265975475311 -0.24995483458042145 0.38673797249794006 -0.09640943259000778 0.008960401639342308 0.020373988896608353 -0.22782738506793976 -0.03271622955799103 0.06960920244455338 -0.11675610393285751 0.2477671355009079 -0.3709619641304016 0.07916423678398132 -0.03848063200712204 -0.08685807883739471 0.09047255665063858 -0.2540021538734436 -0.27413734793663025 -0.15107958018779755 0.12399259954690933 -0.09760734438896179 0.3182729482650757 0.09129222482442856 -0.16587021946907043 0.09260688722133636 -0.11009372025728226 -0.15580159425735474 0.003638274036347866 -0.0892709270119667 0.05552351474761963 -0.1035541445016861 0.13387802243232727 -0.2969832718372345 0.28800198435783386 0.17516259849071503 -0.05807890370488167 -0.20259402692317963 -0.00741402804851532 0.069167360663414 -0.053183428943157196 0.1588401049375534 0.05673332139849663 -0.10612961649894714 -0.09109928458929062 0.3699830174446106 0.2771711051464081 -0.4408939480781555
these -0.16413083672523499 0.047261010855436325 0.06908309459686279 -0.06277012079954147 -0.4096558392047882 -0.06979252398014069 -0.09940757602453232 0.4331612288951874 0.5086235404014587 0.12205059081315994 -0.06955315172672272 0.20985618233680725 0.08934061974287033 0.06908121705055237 0.1312183290719986 0.1789131611585617 0.14538508653640747 -0.20021936297416687 -0.06182840093970299 0.12535400688648224 -0.0452943816781044 0.11049436777830124 -0.00738935824483633 -0.09496140480041504 -0.04349764809012413 0.2787177264690399 -0.1381315290927887 -0.025249041616916656 -0.04928816482424736 0.19253355264663696 -0.39658570289611816 0.1351572871208191 0.24124836921691895 0.11321918666362762 -0.02882428839802742 0.1783195585012436 0.2482801377773285 0.23281142115592957 0.08891603350639343 -0.06612465530633926 0.3796530067920685 -0.20408520102500916 -0.2882520258426666 0.3162873685359955 0.12148093432188034 0.28073281049728394 0.09292706102132797 -0.22559405863285065 0.23367014527320862 0.22366274893283844 -0.12584231793880463 -0.07313624024391174 0.09149149805307388 -0.16608387231826782 -0.1552908569574356 -0.04078066349029541 -0.2756788432598114 -0.10387319326400757 0.10989094525575638 0.023005586117506027 0.0013706553727388382 -0.08471990376710892 0.01795373484492302 -0.3296336233615875 0.16276441514492035 0.33236122131347656 0.5171633362770081 -0.0852188840508461 -0.11547675728797913 -0.11738192290067673 -0.3522154986858368 -0.1729990392923355 0.12877842783927917 0.4852508008480072 -0.020601429045200348 -0.4000563323497772 -0.15519601106643677 0.026504047214984894 -0.13747790455818176 -0.28253671526908875 -0.2517850697040558 -0.4521584212779999 -0.42017197608947754 0.1627054363489151 -0.23322097957134247 -0.40113627910614014 0.17104490101337433 0.12720707058906555 0.38879722356796265 0.17799758911132812 -0.13987012207508087 0.09681501984596252 0.06904685497283936 -0.4079900085926056 0.10019531846046448 0.22405336797237396 0.225640207529068 0.1921173334121704 0.3022470474243164 0.002519866917282343
companies -0.03242688626050949 0.04172389581799507 -0.05012460798025131 0.007795585319399834 -0.10568877309560776 -0.004487333819270134 0.02520768530666828 0.07568731904029846 -0.13787315785884857 0.09423597902059555 0.15696990489959717 0.10930820554494858 -0.09420228004455566 0.10332074016332626 -0.2537385821342468 0.01757088117301464 -0.21312685310840607 0.15074920654296875 0.05231441557407379 0.08219823241233826 0.12296728789806366 -0.06603939086198807 -0.017039988189935684 -0.16667260229587555 0.0910189151763916 0.050378307700157166 0.06113960221409798 0.08528535068035126 0.11919336766004562 0.12664420902729034 -0.15978047251701355 -0.07098416984081268 -0.029554761946201324 0.0591253861784935 -0.033122897148132324 0.19069676101207733 -0.1548670083284378 -0.0920126661658287 -0.12056642770767212 -0.25597476959228516 0.17330847680568695 0.16826072335243225 0.035407811403274536 0.1169525608420372 0.13945989310741425 0.11812904477119446 0.02290613204240799 -0.06999479979276657 -0.05269660800695419 -0.0356711708009243 0.04586012661457062 0.12375831604003906 0.023939643055200577 -0.06596619635820389 -0.028277231380343437 -0.020493296906352043 -0.24583259224891663 0.03004975989460945 0.1714935600757599 0.22584955394268036 -0.07938501238822937 -0.11955555528402328 -0.09977193921804428 -0.190082386136055 0.047469791024923325 0.2785133719444275 0.23213936388492584 0.11306878924369812 -0.22062650322914124 -0.2440568506717682 -0.1502271592617035 -0.041671693325042725 -0.14868921041488647 0.23754817247390747 0.14616242051124573 0.14196866750717163 -0.004282224457710981 -0.14918874204158783 -0.25687122344970703 -0.05072629451751709 -0.12179555743932724 -0.3973343074321747 -0.030381856486201286 -0.10219573229551315 0.010244925506412983 -0.1606098860502243 0.08203307539224625 -0.07922503352165222 0.1909499168395996 -0.08650888502597809 -0.048914164304733276 0.01448119431734085 0.044907014816999435 -0.22649197280406952 0.14549528062343597 0.07847930490970612 0.13524724543094635 0.05660278722643852 0.22165074944496155 -0.0767272338271141
music 0.28699323534965515 0.12328032404184341 0.029586130753159523 0.19813472032546997 0.18109701573848724 0.10164853930473328 0.0807659700512886 -0.1453573852777481 0.029040515422821045 -0.04333808273077011 -0.03908674791455269 0.1078498438000679 0.18692515790462494 0.022339945659041405 -0.10289694368839264 -0.20458200573921204 0.01996755041182041 0.037012435495853424 0.07124917954206467 0.07733307033777237 -0.14626756310462952 -0.18498098850250244 -0.1794644594192505 0.06588170677423477 0.2926318645477295 -0.12449875473976135 0.08627444505691528 -0.04127361625432968 0.03511083498597145 -0.07852048426866531 -0.18871410191059113 -0.10311664640903473 0.05760124325752258 -0.08261573314666748 -0.06454788893461227 0.05543795973062515 -0.17466360330581665 -0.13487796485424042 -0.12631729245185852 0.14011803269386292 -0.0955546647310257 0.11256599426269531 -0.002768665086477995 0.0778103917837143 -0.02210185118019581 -0.13741908967494965 -0.06400292366743088 -0.017769768834114075 0.09831128269433975 -5.097609828226268E-4 0.286708265542984 0.20895247161388397 -0.09467218816280365 -0.024557482451200485 -0.08693981915712357 0.0026050489395856857 0.2984088659286499 0.094260573387146 0.2829991579055786 -0.06558755785226822 0.16375179588794708 -0.2863290011882782 -0.13488584756851196 -0.31961339712142944 0.06908886879682541 -0.007542087696492672 -0.08550048619508743 0.11493759602308273 0.01298658736050129 0.2941737473011017 -0.19235952198505402 0.16005189716815948 0.036772552877664566 0.06035237014293671 0.04666632041335106 0.19494087994098663 -0.015380850993096828 -0.031602535396814346 -0.0018022044096142054 -0.020239390432834625 0.11559344083070755 -0.11043097078800201 -0.02484670653939247 0.003910219296813011 0.18873853981494904 0.33338668942451477 -0.10856089740991592 -0.06032703444361687 -0.1613987535238266 0.00139386928640306 0.04858943074941635 -0.11892321705818176 0.1359340101480484 -0.1809316873550415 -0.06569164991378784 0.35939455032348633 -0.08989930152893066 0.07476969063282013 -0.15047721564769745 0.1852724701166153
would -0.12057216465473175 0.38796353340148926 0.16289687156677246 -0.024583306163549423 0.08684532344341278 0.21634720265865326 -0.06494613736867905 0.2744819223880768 0.1520993858575821 -0.18198181688785553 -0.17431633174419403 -0.01842019520699978 0.41582149267196655 -0.02251863107085228 -0.17145100235939026 0.059692952781915665 -0.005972567945718765 -0.07632005959749222 0.1930125653743744 -0.37204158306121826 0.020671069622039795 0.30452603101730347 -0.38943755626678467 0.1287548840045929 -0.11695527285337448 0.05835285037755966 0.08822216838598251 -0.1714736372232437 -0.22338463366031647 0.0250397901982069 -0.04164814576506615 0.22241024672985077 -0.14160721004009247 0.1810307502746582 -0.043267082422971725 -0.04722638800740242 0.2592617869377136 -0.15038703382015228 0.09572091698646545 0.02396002970635891 -0.08105780929327011 0.17475010454654694 0.1599980592727661 -0.04639014974236488 0.10501861572265625 -0.18363186717033386 0.19309690594673157 0.2785959541797638 -0.039007242769002914 -0.30097559094429016 0.18440964818000793 -0.04016660153865814 -0.3630276918411255 0.1784435212612152 0.13103002309799194 -0.01629309356212616 0.016261916607618332 0.11154931038618088 0.3006736934185028 0.07600405812263489 -0.18395967781543732 -0.2130148857831955 0.04160101339221001 -0.0340765081346035 -0.08883342146873474 0.06546875834465027 -0.0408041849732399 0.07931791990995407 -0.26858335733413696 -0.3765370845794678 -0.06798478215932846 -0.2053278088569641 0.13667786121368408 -0.17860525846481323 0.06988795846700668 0.09859813004732132 0.061937473714351654 -0.12431435286998749 0.07477632910013199 -0.08383810520172119 0.11998479813337326 -0.04763367027044296 -0.07086314260959625 0.17120903730392456 0.15363767743110657 -0.17211434245109558 -0.008411874994635582 -0.13396625220775604 -0.398959219455719 0.019098151475191116 -0.0036959422286599874 0.12244009226560593 -0.0625840425491333 0.12675273418426514 -0.039789848029613495 -0.4628670811653137 0.3960671126842499 0.08122547715902328 -0.08906744420528412 -0.23543989658355713
because 0.046245574951171875 0.18970097601413727 -0.046748679131269455 -0.08734101057052612 0.47891905903816223 0.18724440038204193 0.129033163189888 -0.009343504905700684 -0.020324019715189934 -0.15636229515075684 0.01652197167277336 0.013003844767808914 -0.08897589147090912 0.21003912389278412 -0.028105027973651886 0.07545775175094604 0.0778530091047287 0.03718920052051544 -0.0731884092092514 -0.33910244703292847 -0.017401553690433502 0.03384655341506004 0.013852312229573727 0.13996779918670654 -0.12182699888944626 0.11337622255086899 -0.11172620207071304 -0.10234352946281433 0.13299447298049927 -0.10568171739578247 -0.15344060957431793 -0.059878021478652954 -0.09889858216047287 -0.007551071234047413 -0.0031432060059159994 0.12294349074363708 -0.04642751067876816 -0.034897495061159134 0.10214227437973022 0.09673502296209335 0.09901811182498932 0.03479612246155739 0.027675407007336617 -0.09442244470119476 0.13906149566173553 -0.1443357765674591 -0.12437795102596283 -0.22407279908657074 -0.007394079118967056 0.15849997103214264 0.11463740468025208 -0.016628235578536987 -0.009609092958271503 0.08462643623352051 -0.07206320762634277 0.23037442564964294 0.20475193858146667 0.005485123489052057 0.12536627054214478 -0.03999147191643715 0.07150044292211533 -0.07485885918140411 0.13957539200782776 0.06406883895397186 0.022766824811697006 -0.12315152585506439 0.08498550951480865 -0.06097458302974701 0.19020195305347443 0.16517147421836853 -0.15374478697776794 0.07857374101877213 0.06010046228766441 0.23735642433166504 0.11845121532678604 0.04481441155076027 -0.06502055376768112 0.3552384376525879 0.14885783195495605 -0.06008918210864067 -0.038728080689907074 -0.09449411183595657 -0.017744723707437515 -0.010607199743390083 0.1913265883922577 -0.02973555400967598 -0.043000999838113785 0.1613328754901886 0.07719025015830994 0.0455867163836956 0.0190909281373024 0.11626321077346802 -0.15457794070243835 -0.18940380215644836 -0.09973449259996414 0.20734968781471252 0.03840591758489609 0.1743343621492386 0.25172194838523865 -0.21842247247695923
state 0.04183245822787285 0.004190204665064812 -0.08011971414089203 0.009919615462422371 -0.09498412907123566 0.09359276294708252 0.007982783019542694 -0.013418378308415413 -0.07720071822404861 0.06103842332959175 0.025876956060528755 0.11142100393772125 0.14355652034282684 0.0781976655125618 -0.24637573957443237 -0.16165250539779663 0.12522770464420319 0.05241377279162407 0.09841296821832657 0.05872690677642822 -0.020450681447982788 -0.25309884548187256 0.17980144917964935 0.1569014936685562 0.05857827886939049 0.0048668598756194115 -0.09728637337684631 -0.0703442245721817 -0.171798974275589 -0.1513931155204773 0.04567893594503403 -0.158771350979805 -0.05585302785038948 -0.07144355773925781 0.2499624639749527 0.2993127107620239 0.1403103768825531 0.058837033808231354 -0.3451389670372009 0.005360145587474108 0.22618913650512695 -0.042079467326402664 -0.10265512019395828 0.09136776626110077 -0.05946590006351471 0.18432725965976715 -0.11380892992019653 0.09019863605499268 0.26699864864349365 -0.12038534134626389 0.25749918818473816 0.20388983190059662 0.03153231739997864 0.13694977760314941 0.17145057022571564 0.07480999082326889 0.07072042673826218 -0.05962956324219704 0.11560316383838654 0.06228350102901459 0.3235831558704376 -0.21636268496513367 -0.25940194725990295 -0.1934666931629181 -0.13393133878707886 -0.13261231780052185 0.11164206266403198 0.059003256261348724 -0.08041597157716751 -0.09361899644136429 0.028937634080648422 -0.029296550899744034 -0.22542515397071838 0.09820215404033661 0.35368356108665466 0.08481951802968979 -0.01697762869298458 -7.707856129854918E-4 -0.3771182596683502 -0.16450795531272888 -0.2554243803024292 -0.16195519268512726 -0.125014990568161 -0.16281838715076447 0.2772591710090637 0.21550226211547852 -0.1308976709842682 -0.02565917745232582 0.21382901072502136 -0.15673185884952545 -0.24784758687019348 -0.23917192220687866 0.11606444418430328 0.013895083218812943 0.029258687049150467 0.23020456731319427 -0.009921615943312645 0.0930800512433052 -0.010352709330618382 0.0551295205950737
they -0.0704033300280571 -0.020236928015947342 0.18807239830493927 0.17479079961776733 -0.19605915248394012 -0.01402192935347557 -0.17787636816501617 0.154656320810318 -0.02558061294257641 -0.08453761041164398 -0.09015298634767532 0.2065446674823761 0.08404222130775452 -0.06490392237901688 0.028790241107344627 0.03832152485847473 0.2122088372707367 -0.06673982739448547 -0.22651734948158264 0.023318570107221603 0.24575816094875336 0.11128701269626617 -0.013270284980535507 -4.2887323070317507E-4 0.31415343284606934 -0.3542473316192627 0.1192096695303917 0.16233494877815247 -0.06642044335603714 0.08030588924884796 -0.3330554664134979 -0.08608008921146393 0.05698518082499504 -0.4180690348148346 0.03818078339099884 -0.07602975517511368 -0.04292801395058632 0.053144343197345734 0.07842019200325012 -0.16312436759471893 0.2928682565689087 -0.19803369045257568 -0.013739760965108871 0.23268036544322968 -0.12314295023679733 -0.059193894267082214 -0.14069978892803192 0.014421334490180016 -0.401430606842041 0.06779221445322037 -0.26999354362487793 0.013548380695283413 0.11955585330724716 -0.34183770418167114 -0.03317270427942276 -0.19116093218326569 -0.002256844425573945 -0.24024903774261475 0.21540260314941406 0.239652618765831 -0.19562362134456635 0.0857001319527626 -0.056245289742946625 0.06998942792415619 0.1825547069311142 0.27026286721229553 0.14401255548000336 -0.13690918684005737 -0.2816735804080963 -0.49958160519599915 0.07588735222816467 -0.19763000309467316 -0.2514641582965851 -0.16328206658363342 -0.10135091841220856 -0.1012561246752739 -0.01420518010854721 0.14441370964050293 -0.14506562054157257 -0.16714823246002197 0.24045191705226898 -0.16382469236850739 -0.001072965795174241 -0.08797406405210495 0.030043447390198708 -0.20783346891403198 0.18169568479061127 0.13513405621051788 0.016950590535998344 -0.12452562898397446 -0.036001477390527725 0.30453503131866455 -0.06307739019393921 0.1536528468132019 -0.0672609880566597 -0.029492907226085663 0.1272284835577011 -0.02399287559092045 0.10425274074077606 0.03903690353035927
you 0.2553950846195221 -0.07704447209835052 -0.06054101884365082 0.3308515250682831 0.15363553166389465 0.1510740965604782 -0.2012125849723816 -0.10951867699623108 -0.2671515643596649 0.21899071335792542 -0.14369072020053864 0.12046277523040771 -0.28124260902404785 -0.107683464884758 0.10780425369739532 -0.009039055556058884 0.04425022006034851 -0.2365666627883911 0.16283775866031647 0.059286367148160934 0.2767810523509979 0.16563992202281952 0.002369645284488797 -0.05774757266044617 0.2041049599647522 -0.36435940861701965 0.1297570765018463 -0.3608953058719635 -0.028294643387198448 0.1687954068183899 -0.10081503540277481 0.10772953927516937 -0.05702682211995125 -0.1440344601869583 -0.13103973865509033 0.1994364708662033 -0.1087263822555542 -0.0982053130865097 -0.08998983353376389 0.03789043053984642 0.05259259045124054 -0.21260303258895874 -0.04112302511930466 -0.11627287417650223 0.17323321104049683 0.09279719740152359 -0.16789212822914124 0.03156592696905136 -0.4239151179790497 0.04793563112616539 -0.06249576434493065 0.201109379529953 0.25204092264175415 0.16261973977088928 0.049486637115478516 -0.04809659346938133 -0.2873155474662781 -0.1437412053346634 0.169217050075531 -0.17851509153842926 -0.19893696904182434 0.04537052661180496 0.09222180396318436 -0.18734902143478394 0.09032215923070908 0.16838626563549042 -0.08960143476724625 -0.30590924620628357 -0.5465545058250427 -0.34687119722366333 0.007748214993625879 0.14109937846660614 0.024194717407226562 0.008112728595733643 -0.2968308925628662 -0.01984928920865059 -0.3791634440422058 -0.03937750309705734 -0.1390908807516098 -0.02675313875079155 -0.07381953299045563 -0.14301639795303345 -0.017690712586045265 0.20452331006526947 0.11886387318372726 -0.0831451416015625 0.05827809125185013 0.07959316670894623 -0.16581010818481445 0.07242284715175629 0.18183724582195282 0.2555287182331085 -0.06207548826932907 0.41959148645401 -0.19711275398731232 -0.22117091715335846 0.18100790679454803 0.059304337948560715 0.12503400444984436 -0.06612279266119003
$ -0.006198613904416561 0.015139622613787651 -0.02047506347298622 -0.01226462610065937 0.004532444290816784 0.0013353927060961723 0.04740732163190842 -0.012656777165830135 -0.04440958797931671 -0.011056989431381226 0.010653326287865639 0.0183517225086689 -0.01741364225745201 0.007922535762190819 -0.03142090514302254 -0.009839968755841255 9.15047712624073E-4 0.02003687247633934 0.007134916726499796 -0.0011390545405447483 0.004656619392335415 -0.03262011334300041 -0.013258074410259724 -0.005432390607893467 0.007918056100606918 0.04400409758090973 -0.008810669183731079 0.011898990720510483 0.009046901017427444 0.017054222524166107 -0.017076585441827774 0.011179684661328793 -0.0068240235559642315 0.005837385542690754 -0.019173771142959595 0.012824436649680138 0.007816184312105179 0.013795794919133186 -0.017639100551605225 -0.013957154005765915 -0.0023600012063980103 0.008064517751336098 -0.012134391814470291 -0.0012839059345424175 0.0136359091848135 0.020085325464606285 0.022333970293402672 -0.006173208821564913 -0.008766901679337025 -9.361605625599623E-4 0.029935844242572784 0.03528250753879547 -0.04360732436180115 0.03053775429725647 -0.006375815719366074 0.01117192953824997 -0.020092902705073357 0.029757365584373474 -0.00605909526348114 0.011766122654080391 -0.03557014465332031 -0.014426039531826973 -0.023579740896821022 -0.04636787250638008 -0.0028366653714329004 0.033809270709753036 -0.00541758444160223 -0.004416092298924923 -0.027925506234169006 -0.01257629320025444 -0.02175717242062092 -0.023145031183958054 0.0019183325348421931 0.0126210767775774 0.022724520415067673 0.02622397243976593 -0.007615183480083942 -0.026860404759645462 -0.008745602332055569 0.00481604365631938 -0.003617882030084729 -0.05077259987592697 -0.02072140946984291 0.02317015267908573 -2.9647862538695335E-4 -0.0054045249707996845 0.024474650621414185 -0.008264798671007156 0.01133191678673029 -0.02824091911315918 0.04133643954992294 -0.0033456780947744846 0.0074806842021644115 -0.017957869917154312 0.010145118460059166 0.008115083910524845 0.02774195931851864 0.019888324663043022 0.004377594217658043 0.0063401092775166035
going -6.689783185720444E-5 -0.015100828371942043 0.06266065686941147 -0.03264855593442917 0.21821704506874084 -0.13475415110588074 0.10136059671640396 0.32655051350593567 0.2947838008403778 -0.19526070356369019 -0.05044000968337059 0.32260993123054504 -0.3787049353122711 0.058700963854789734 -0.0432746522128582 -0.26504024863243103 -0.05765270069241524 0.009427905082702637 0.02535717561841011 -0.14282213151454926 -0.06360416859388351 -0.42112457752227783 0.15828195214271545 0.2738715708255768 -0.1141725406050682 0.007780312094837427 0.0021928471978753805 -0.08837862312793732 0.06379431486129761 0.09367117285728455 0.2015213817358017 -0.03683618828654289 -5.883268313482404E-4 0.04557545855641365 -0.33724167943000793 0.11191791296005249 0.3080921471118927 -0.09972498565912247 0.3679361045360565 0.019410597160458565 -0.3626755177974701 -0.28914523124694824 -0.28638988733291626 0.048558805137872696 -0.03276391327381134 -0.02018967643380165 -0.059087686240673065 0.2345474362373352 -0.05128973349928856 0.004780982621014118 -0.29319655895233154 0.012116915546357632 -0.05348965525627136 0.4344961941242218 0.07601617276668549 -0.3159460723400116 -0.16243495047092438 -0.13045567274093628 0.077686607837677 0.15798503160476685 -0.18931324779987335 0.08281667530536652 0.2514231503009796 0.047456372529268265 0.1815575510263443 0.05347750335931778 -0.04403912276029587 0.12062095105648041 -0.12259925156831741 -0.2201625108718872 0.1981945037841797 -0.21389390528202057 -0.01799178123474121 0.28180012106895447 -0.12914593517780304 0.073996901512146 -0.08447716385126114 0.4653860926628113 0.14729662239551544 0.4788390100002289 -0.12345714122056961 -0.1589956134557724 0.1146908551454544 0.3810734450817108 -0.05996133014559746 -0.17111757397651672 -0.12732788920402527 0.1682654768228531 -0.8713834881782532 0.08273253589868546 0.4248225688934326 0.33710893988609314 -0.2596745789051056 -0.22184400260448456 -0.16147583723068237 -0.028862960636615753 0.16759257018566132 0.2822551131248474 0.0011489040916785598 -0.313448041677475
old -0.15704067051410675 0.2114059329032898 -0.010669117793440819 -0.31476128101348877 -0.004501636605709791 -0.18752561509609222 -0.14578813314437866 -0.053161077201366425 0.3011936545372009 0.3599051535129547 0.044230710715055466 0.21644391119480133 -0.020249193534255028 -0.12493859231472015 0.05162309110164642 0.022577859461307526 -0.020382458344101906 -0.016787821426987648 -0.19341176748275757 -0.16637654602527618 -0.3171686828136444 0.028594207018613815 -0.17968499660491943 0.08518866449594498 -0.3414970338344574 0.0851849690079689 -0.20310112833976746 0.08625040203332901 0.09845475107431412 -0.08838057518005371 -0.07557398825883865 0.017103487625718117 0.21175794303417206 0.24160413444042206 0.2539198696613312 0.24266065657138824 -0.21910499036312103 -0.08794744312763214 -0.1513594090938568 -0.16892653703689575 0.26791149377822876 0.029110539704561234 -0.3786751329898834 0.3475918769836426 -0.049604836851358414 0.090082548558712 0.1291407197713852 -0.12360095232725143 -0.09817813336849213 -0.2157488912343979 0.233229398727417 0.25263410806655884 0.1005825474858284 -0.11754337698221207 0.1014910340309143 0.09658443927764893 -0.2767552435398102 -0.048318468034267426 0.3043387830257416 0.11915943026542664 0.4123390316963196 -0.10504256933927536 -0.09113199263811111 -0.3391745090484619 -0.11420193314552307 0.06627548485994339 0.08332954347133636 0.1889740228652954 0.12834195792675018 -0.035692743957042694 0.08695109933614731 -0.00460747629404068 -0.013503791764378548 0.09802081435918808 0.11980313807725906 0.23011238873004913 -0.06159370020031929 0.042227864265441895 -0.29999110102653503 0.15027183294296265 0.06473404169082642 -0.21444171667099 -0.2834235429763794 -0.007042252458631992 -0.3743932843208313 -7.322498131543398E-4 -0.005037578288465738 0.0355025976896286 -0.30452921986579895 0.5944074988365173 0.06200540438294411 -0.2581215798854828 -0.19565410912036896 -0.1950460821390152 -0.21360060572624207 0.312827467918396 0.07963427901268005 0.14088435471057892 0.032911330461502075 -0.17590579390525818
want 0.14701636135578156 0.23785164952278137 0.40609094500541687 -0.10580261796712875 0.11803554743528366 0.1803721934556961 -0.1227017268538475 0.5009141564369202 0.334319144487381 -0.2274392694234848 0.19533658027648926 0.397396057844162 0.004504846408963203 -0.011034074239432812 -0.014144772663712502 -0.01826324686408043 -0.1008104532957077 -0.021574242040514946 0.2227349430322647 0.23482131958007812 -0.1549104005098343 -0.11815882474184036 -0.025527969002723694 0.1846921592950821 -0.15854503214359283 0.31938064098358154 0.05055888742208481 -0.23770515620708466 0.12203958630561829 -0.07658727467060089 0.08372550457715988 0.2444281131029129 -0.1216200664639473 0.2468787431716919 -0.45773616433143616 0.03192861005663872 0.5828415751457214 0.21151062846183777 -0.07917363941669464 0.061597760766744614 0.1963369995355606 0.1601424217224121 -0.07698202133178711 -0.19088883697986603 -0.13141106069087982 -0.248550146818161 0.34831705689430237 -0.04126838222146034 -0.09319563955068588 -0.15514492988586426 -0.011927385814487934 0.34684157371520996 -0.026855383068323135 0.23059388995170593 -0.05995728448033333 -0.13781516253948212 0.11127510666847229 0.2869085967540741 -0.014595690183341503 -0.41713640093803406 -0.4484255313873291 0.2226531207561493 -0.25699639320373535 -0.14422765374183655 -0.050714801996946335 0.017673958092927933 -0.07267870008945465 0.053167376667261124 -0.17933687567710876 -0.1957840621471405 -0.23244965076446533 0.21070995926856995 0.2829447388648987 -0.2799871563911438 0.12323246896266937 0.01324528455734253 -0.1896500587463379 0.02301359549164772 0.1299169510602951 -0.10348261147737503 -0.0461999885737896 0.15892894566059113 0.29917314648628235 0.25584182143211365 0.27563661336898804 -0.38437220454216003 0.018985403701663017 -0.11398929357528687 -0.10689780861139297 -0.348362535238266 0.3937252461910248 0.24566172063350677 -0.019183622673153877 0.10727060586214066 0.047988928854465485 -0.2371913492679596 0.06575573980808258 0.06638453155755997 -0.1730576753616333 -0.096114881336689
night -0.2849816083908081 0.0774276927113533 -0.07328268885612488 -0.10191475600004196 -0.16051499545574188 -0.008901865221560001 0.22770342230796814 0.051060665398836136 0.4316408932209015 0.22985029220581055 -0.1721726506948471 0.20131558179855347 0.28852787613868713 -0.1191868707537651 -0.1938295215368271 -0.13884787261486053 0.3013210892677307 0.18878711760044098 0.13034626841545105 0.024114519357681274 -0.13924795389175415 -0.37881776690483093 -0.09689491987228394 -0.1669214516878128 -0.07734756916761398 0.2131647914648056 0.2863404154777527 0.20446915924549103 0.03368702158331871 -0.015580449253320694 0.3231019079685211 -0.18412034213542938 0.24895748496055603 0.12917765974998474 0.6360194087028503 0.24011486768722534 -0.12215972691774368 -0.397225946187973 -0.22140906751155853 -0.25262296199798584 -0.156352236866951 -0.2043023258447647 -0.2922039031982422 0.18368792533874512 0.2154695689678192 -0.35141441226005554 -0.08805572986602783 -0.08731374144554138 -0.29602184891700745 0.2116873562335968 0.07373759150505066 -0.3060253858566284 -0.030057795345783234 0.2902061939239502 -0.16149061918258667 0.06862853467464447 0.09225775301456451 0.2553638815879822 -0.22271651029586792 -0.292136549949646 -0.11731939762830734 -0.10623399168252945 -0.04108863323926926 0.1255636364221573 0.04632357880473137 -0.06518899649381638 -0.4244168996810913 -0.13845746219158173 0.16490307450294495 0.09324365109205246 0.3164289593696594 -0.09905236214399338 -0.33301302790641785 0.06825296580791473 0.10917086154222488 -0.020406827330589294 0.14037002623081207 0.002905168104916811 0.3615137040615082 0.033662062138319016 0.08383742719888687 -0.16763174533843994 -0.20722131431102753 0.191347137093544 0.25741150975227356 0.41921091079711914 -0.30150097608566284 -0.12666922807693481 -0.2299194484949112 0.001214916235767305 0.08424793183803558 -0.20441517233848572 0.09852031618356705 0.10148950666189194 0.11536136269569397 0.07050859183073044 -0.10267969220876694 0.15127801895141602 -0.07216870784759521 0.3178768754005432
them -0.07742001116275787 0.12056444585323334 -0.18208064138889313 0.048923786729574203 0.12103376537561417 -0.1330222189426422 0.41989678144454956 0.1300157904624939 -0.018719179555773735 -0.2418782114982605 0.22891417145729065 0.1775684356689453 -0.14797534048557281 0.08759020268917084 -0.23472043871879578 0.1329241693019867 0.019582288339734077 -0.1565365195274353 -0.2609555125236511 -0.11110933125019073 0.28835296630859375 -0.16644124686717987 -0.10068992525339127 -0.033195462077856064 0.12490054219961166 0.4111591875553131 0.20203542709350586 -0.053741954267024994 0.12441495060920715 -0.25240349769592285 -0.3342524468898773 0.1960296928882599 -0.12004921585321426 0.1976785957813263 -0.2809813320636749 0.270335853099823 0.06772474199533463 0.24062417447566986 0.11881320178508759 0.1624494194984436 0.2228749394416809 -0.0014729993417859077 -0.01961253397166729 0.20257160067558289 0.318610280752182 -0.009157095104455948 -0.17039275169372559 0.08098985999822617 -0.25343024730682373 0.35950884222984314 -0.05163665860891342 0.09175917506217957 -1.5275110490620136E-4 0.3102532625198364 -0.14748415350914001 0.18822786211967468 0.035425033420324326 0.1625436693429947 0.12511838972568512 -0.14255696535110474 -0.11046797782182693 -0.16003723442554474 0.1312980353832245 -0.3877442181110382 0.08682197332382202 0.4075371026992798 0.22447039186954498 -0.09484543651342392 -0.1429251730442047 0.15327630937099457 -0.032469864934682846 -0.15671516954898834 -0.042100463062524796 0.09061148762702942 -0.1595551073551178 -0.09047827124595642 -0.2459036111831665 -0.032967619597911835 -0.03106660395860672 -0.3207576274871826 0.1340712308883667 -0.19963303208351135 -0.29695019125938416 0.16659654676914215 0.01342963520437479 -0.14242108166217804 0.15693670511245728 0.23068451881408691 0.024025067687034607 -0.10034790635108948 -0.01497125905007124 -0.1864410787820816 0.10096348822116852 -0.28909948468208313 0.2640542685985565 0.009821414016187191 0.17041771113872528 0.03390348702669144 -0.06636533886194229 0.24699436128139496
then -0.05294124037027359 -0.09699390828609467 0.2326386272907257 -0.08874677121639252 -0.11305665224790573 -0.11887974292039871 0.00841363612562418 0.09196479618549347 0.21115584671497345 -0.19967356324195862 0.1681516319513321 0.12005879729986191 0.19025005400180817 0.015093501657247543 -0.2979663908481598 0.12073434144258499 0.14486901462078094 -0.00548938661813736 0.1292925477027893 0.3217839002609253 0.26612985134124756 -0.34805986285209656 0.23645710945129395 -0.15504266321659088 -0.073007732629776 -0.10871988534927368 0.16942238807678223 0.0535283200442791 -0.22552210092544556 -0.21581681072711945 0.11055497080087662 0.11579421907663345 -0.058324869722127914 -0.1699531376361847 0.09646061062812805 -0.07113897055387497 -0.15685588121414185 -0.34405407309532166 -0.11803161352872849 0.2818213999271393 -3.575087757781148E-4 -0.11756013333797455 -0.13278354704380035 -0.03163120150566101 0.2619180679321289 0.05142718553543091 4.532997845672071E-4 -0.15782102942466736 0.16022835671901703 0.1012885794043541 -0.1330384463071823 -0.13869480788707733 -0.24561376869678497 -0.043821610510349274 -0.28709784150123596 0.3688899278640747 0.005438517779111862 -0.16123759746551514 0.0026943886186927557 0.062161270529031754 0.07772797346115112 -0.012141771614551544 -0.1177993044257164 0.20779967308044434 -0.10785599797964096 0.006643135100603104 0.14533421397209167 0.13661806285381317 -0.1404014229774475 0.0132217425853014 0.10293858498334885 -0.11378505080938339 -0.10170828551054001 0.1358664482831955 0.05944095179438591 -0.24015429615974426 -0.2296154648065567 0.042091600596904755 0.057449329644441605 0.20922382175922394 0.22628100216388702 -0.10473103821277618 0.13893330097198486 0.15906201303005219 0.192133367061615 -0.19718846678733826 -0.1473945528268814 0.19583486020565033 -0.017917651683092117 0.11975978314876556 0.2228722721338272 0.13251863420009613 -0.06471969187259674 0.0366632416844368 0.20316623151302338 -0.07977073639631271 0.10168950259685516 0.12215190380811691 0.21470226347446442 0.124321348965168
court 0.03724997118115425 -0.2750096619129181 0.0667765885591507 0.030473146587610245 0.09028391540050507 -0.06435983628034592 0.30065256357192993 -0.12048515677452087 0.0702470988035202 -0.08551712334156036 0.04013174772262573 0.07269848138093948 -0.1455441564321518 -0.09316571056842804 0.019094811752438545 -0.17071212828159332 0.36025509238243103 0.11574562638998032 0.02586609497666359 0.16942134499549866 -0.17961385846138 -0.14716708660125732 0.018726928159594536 0.03409646824002266 -0.006418030709028244 -0.0678439512848854 -0.014996419660747051 -0.16866600513458252 -0.09041506052017212 -0.051292672753334045 0.09862702339887619 -0.07655172049999237 -0.09325384348630905 -0.12280891090631485 0.13702470064163208 0.004092348739504814 0.2822645306587219 -0.03891129046678543 -0.18232248723506927 0.003958059474825859 0.05915440246462822 -0.14786015450954437 0.032348982989788055 0.07855004817247391 -0.046044256538152695 0.06435059756040573 -0.03721652552485466 -0.02236599288880825 -0.12259889394044876 -0.004986837971955538 0.1988980770111084 0.09515312314033508 -0.12851549685001373 0.318520188331604 0.0511150136590004 0.008558616042137146 0.17291046679019928 9.743858827278018E-4 -0.060995783656835556 0.13718488812446594 0.23732250928878784 0.0073546553030610085 -0.20644113421440125 -0.07579690217971802 0.030950378626585007 -0.18137916922569275 -0.10551076382398605 -0.050477661192417145 0.034817684441804886 -0.0834755077958107 0.06879057735204697 -0.0440002977848053 -0.12748487293720245 0.18493235111236572 0.34693384170532227 0.20948411524295807 0.17448747158050537 -0.047953050583601 0.0251748226583004 0.2680807113647461 0.07392803579568863 -0.21177643537521362 0.04058532416820526 0.0874687135219574 0.1621319204568863 0.29048222303390503 -0.2006179243326187 -0.0970187857747078 0.004023483023047447 -0.07904238253831863 0.11041706055402756 -0.04809306561946869 -0.10829197615385056 -0.013444037176668644 0.006699871737509966 0.10606110095977783 0.022693397477269173 0.12510047852993011 -0.24501420557498932 -0.12826596200466156
an -0.2387530505657196 -0.06014950945973396 -0.026777729392051697 -0.23607276380062103 -0.010915901511907578 0.22102364897727966 0.06907396018505096 0.05314148589968681 -0.006108575034886599 -0.10807263851165771 0.4255792796611786 0.1999027281999588 -0.1723993718624115 -0.19927173852920532 -0.07909754663705826 -0.0841076523065567 -0.12442456185817719 0.1928347647190094 0.01033497229218483 0.012621341273188591 -0.09794250130653381 -0.2634432315826416 -0.06570766866207123 0.2069321721792221 0.050478603690862656 0.18362024426460266 -0.2036493718624115 0.07672475278377533 -0.20538245141506195 -0.19429633021354675 0.27035871148109436 0.03612998500466347 -0.23311583697795868 0.0046282014809548855 0.08054237067699432 0.2982545793056488 -0.07391183823347092 -0.20603011548519135 -0.12216956913471222 -0.218981072306633 -0.18494603037834167 0.18240928649902344 -0.20659127831459045 -0.010178808122873306 0.115384042263031 0.06734998524188995 0.15638013184070587 0.12653666734695435 -0.26143351197242737 -0.04001108184456825 -0.027928795665502548 0.10127478837966919 0.3466062843799591 0.17271099984645844 0.04877490550279617 0.06238193437457085 -0.26322078704833984 0.27073466777801514 -0.25696948170661926 -0.12942788004875183 0.13102145493030548 -0.09090165793895721 -0.12405634671449661 -0.1691773533821106 -0.16213834285736084 0.18089157342910767 0.16820982098579407 -0.05599401146173477 -0.025649424642324448 -5.919344257563353E-4 0.24056127667427063 -0.11562228947877884 -0.1312633454799652 -0.046561770141124725 0.25186967849731445 0.11688779294490814 -0.03060988336801529 0.12162651866674423 -0.13203418254852295 0.23746442794799805 -0.10722224414348602 0.14195242524147034 -0.140396848320961 -0.10292188823223114 0.08347360789775848 0.21976527571678162 0.0838923454284668 0.001716047991067171 -0.2994968295097351 0.245158851146698 0.16605015099048615 -0.2607933580875397 0.07932766526937485 0.16391710937023163 0.09848682582378387 0.176065132021904 -0.09175939857959747 0.30863893032073975 0.11478406935930252 -0.11876370012760162
- -0.05194799602031708 0.043859876692295074 -0.013892934657633305 -0.12328007817268372 -0.003632576670497656 0.05165516585111618 -0.018753107637166977 0.053711578249931335 0.025349020957946777 0.028318924829363823 0.06919918954372406 0.027140498161315918 0.03375682979822159 -0.06653080135583878 -0.09090212732553482 0.059694189578294754 0.02835036814212799 0.18309134244918823 -0.02899022027850151 0.12060932070016861 0.0756189227104187 -0.1316058486700058 0.005140986759215593 -0.03410205617547035 0.05205070227384567 0.05592827498912811 0.04144467040896416 0.04023751989006996 -0.01554807834327221 -0.011982619762420654 0.06793969869613647 -0.04060690850019455 0.04080355167388916 0.006768049672245979 0.027233216911554337 -0.042514316737651825 -0.07460880279541016 -0.1176116019487381 0.033138394355773926 0.01966063305735588 0.0611017681658268 -0.012861926108598709 -0.1862419694662094 0.00659784022718668 -0.0036491663195192814 0.07909391075372696 -0.11960333585739136 0.15316073596477509 0.05396616831421852 -0.016723191365599632 -0.042106494307518005 0.012037783861160278 0.05770489573478699 0.006229808554053307 -0.09959668666124344 0.04137825220823288 0.04131109267473221 -0.010221486911177635 -0.023800238966941833 -0.1486099511384964 0.027480432763695717 -0.08468839526176453 0.05310780555009842 0.0024260724894702435 0.014883480966091156 0.019958166405558586 0.029202427715063095 -0.02381320111453533 0.033738307654857635 -0.04263534024357796 0.018468625843524933 0.017302583903074265 -0.06736534833908081 -0.014036277309060097 0.1092911809682846 0.1383933424949646 0.024744806811213493 -0.11418050527572632 -0.01181015931069851 -0.02122848480939865 -0.05449123680591583 -0.012917017564177513 -0.06420029699802399 0.029214369133114815 0.13348858058452606 -0.03996657952666283 0.04509391635656357 0.11291871964931488 0.022088054567575455 -0.0017406875267624855 -0.061233505606651306 -0.07372458279132843 -0.0012321675894781947 -0.014081108383834362 0.004394147079437971 0.14201293885707855 0.04117455333471298 0.02687542885541916 0.002731197513639927 0.08755771815776825
each -0.5015510320663452 -0.04841568320989609 -0.27126720547676086 -0.0334118977189064 -0.3922456204891205 0.07932131737470627 0.24358248710632324 0.14236702024936676 -0.20440199971199036 -0.1373845338821411 0.4374479353427887 0.21989789605140686 -0.43515098094940186 -0.2041863352060318 -0.2923476994037628 -0.01567954383790493 -0.20451577007770538 0.2545219659805298 -0.016342666000127792 -0.21280039846897125 0.18824802339076996 -0.4463820159435272 -0.18478567898273468 -0.18097881972789764 0.10482639074325562 0.40828776359558105 0.3423171937465668 -0.19041521847248077 0.09316986054182053 -0.03145759925246239 -0.03754262626171112 0.03439777344465256 0.11645350605249405 0.18777130544185638 0.09719586372375488 0.1880636066198349 0.19467134773731232 0.2732270061969757 -0.07067728787660599 -0.23903024196624756 0.13904371857643127 0.24642272293567657 0.0620863251388073 0.008731327950954437 0.480315238237381 -0.17413769662380219 0.2907501757144928 -0.015985623002052307 -0.48640382289886475 -0.13410189747810364 -0.13795825839042664 -0.133700430393219 -0.07612930983304977 0.2648354470729828 -0.19799119234085083 0.1577008217573166 0.1306350827217102 0.0982310026884079 0.05507539585232735 0.3466777503490448 -0.19211183488368988 0.0030699120834469795 0.2877265512943268 -0.5057694315910339 0.24932581186294556 0.34835317730903625 0.21456462144851685 -0.024310480803251266 -0.11996415257453918 -0.08144818246364594 0.054093196988105774 -0.04033763334155083 -0.07164786010980606 -0.145451620221138 0.26048561930656433 0.06616504490375519 0.15761955082416534 -0.2376372218132019 0.29903045296669006 0.13826358318328857 -0.37718409299850464 -0.3501702547073364 -0.0011848448775708675 0.4242040514945984 0.2521979510784149 -0.01040696445852518 0.03156518191099167 -0.32224753499031067 0.16729091107845306 -0.18158192932605743 0.3298943340778351 -0.11167130619287491 0.10909503698348999 -0.3159683346748352 0.3444177806377411 0.21159549057483673 0.5243369936943054 -0.03422676771879196 -0.004922215826809406 0.22276388108730316
former -0.009092975407838821 -0.001346116652712226 0.007017080206423998 0.006409851368516684 0.009716741740703583 -0.007113357540220022 -0.044996581971645355 -0.05939731374382973 0.036692503839731216 0.038180481642484665 0.02558550238609314 0.015488425269722939 0.012950661592185497 -0.025267718359827995 -0.020291220396757126 -0.056838955730199814 0.03982318565249443 0.04164249077439308 -0.020589668303728104 0.05370299518108368 -0.021357843652367592 -0.05201065540313721 0.02426699362695217 -0.0469445064663887 0.02210291661322117 0.010770685970783234 -0.012054236605763435 -1.4681112952530384E-4 -0.06304605305194855 0.009119571186602116 0.014611350372433662 -0.055888548493385315 0.06137191504240036 0.017101507633924484 0.04637565463781357 0.02968739904463291 -0.02265373431146145 -0.02238444983959198 -0.025697477161884308 0.014101256616413593 0.00429479731246829 0.02727852202951908 -0.07069548964500427 0.03629592806100845 -0.0229164008051157 0.0012839124538004398 -0.002802998758852482 0.014922036789357662 0.09667900204658508 -0.034125760197639465 0.06444229930639267 0.018749000504612923 0.03520253673195839 0.043272845447063446 0.07620902359485626 0.020750219002366066 -0.005654457025229931 0.007096230983734131 -0.03477831557393074 -0.010126642882823944 0.07709459215402603 -0.034035079181194305 -0.05620978772640228 -0.05252750962972641 -0.01556851714849472 -0.06114256754517555 0.076734259724617 0.03884660452604294 -0.030978020280599594 -0.023131536319851875 0.024361401796340942 0.00775456428527832 -0.06139477342367172 0.019222544506192207 0.12154744565486908 0.0785684883594513 0.04090841859579086 -0.016284091398119926 -0.08370568603277206 -0.030313458293676376 -0.10642681270837784 -0.01885923370718956 -0.06379416584968567 -0.06160132959485054 0.012491261586546898 0.06104431301355362 -0.007949386723339558 -0.05775892361998558 0.057630278170108795 0.04618968069553375 -0.06926226615905762 -0.13356539607048035 0.011331893503665924 -0.09855838865041733 0.040104594081640244 0.06136508658528328 0.024027813225984573 0.02693086862564087 -0.050043169409036636 0.041588861495256424
as -0.09113174676895142 0.2682532072067261 0.1602533608675003 0.07501676678657532 0.1943766325712204 0.33579155802726746 0.1322312206029892 -0.016839565709233284 0.02835908532142639 -0.05292828381061554 -0.1822369396686554 -0.3315475583076477 0.09690066426992416 0.23729205131530762 0.06909296661615372 0.446132093667984 5.4687028750777245E-5 -0.014559111557900906 0.009028754197061062 -0.27273792028427124 0.12967535853385925 0.0028866592328995466 0.30021050572395325 -0.16369502246379852 0.14064930379390717 0.38007688522338867 -0.04042963683605194 -0.1927034854888916 0.21161605417728424 0.08628493547439575 0.06990799307823181 0.08707915991544724 -0.11820296198129654 0.15024951100349426 0.06720171123743057 0.3607262074947357 -0.45874661207199097 0.19114582240581512 0.02193809486925602 -0.09768909960985184 -0.11152063310146332 -0.2836424708366394 -0.33916422724723816 -0.16437417268753052 -0.46063411235809326 -0.18565234541893005 -0.08362695574760437 0.16010846197605133 -0.3216051757335663 -0.004543711431324482 0.34035322070121765 -0.14753182232379913 0.41748812794685364 -0.01955380104482174 -0.25952789187431335 0.07016641646623611 0.37893471121788025 0.2292311042547226 0.13049401342868805 0.11045355349779129 -0.26053109765052795 0.31453433632850647 0.3221684396266937 0.2894429862499237 -0.018743302673101425 0.1120169460773468 -0.20549717545509338 -0.2038932740688324 -0.08750715106725693 -0.12018243223428726 0.3516899049282074 0.06740179657936096 0.19409100711345673 0.02211756259202957 0.07057524472475052 0.1870252937078476 0.04215940460562706 0.25222259759902954 -0.1628096103668213 -0.4000515639781952 -0.1481715738773346 -0.3080108165740967 0.4179605543613434 0.38366004824638367 0.04273959994316101 -0.05094512924551964 0.5236048102378845 -0.2646002173423767 0.314380407333374 0.14586865901947021 0.2745280861854553 -0.2604070007801056 0.2557072043418884 -0.11676125973463058 -0.17558565735816956 0.22398945689201355 -0.1169918105006218 0.0517432875931263 0.20821553468704224 0.05172036588191986
at -0.34769243001937866 0.28802549839019775 -0.13659042119979858 0.12606166303157806 -0.07499352842569351 0.18032699823379517 0.22594612836837769 -0.22048898041248322 0.11161500960588455 -0.27714553475379944 0.05524582415819168 0.3574562668800354 0.06397173553705215 -0.2519267797470093 -0.15400399267673492 -0.04887266084551811 -0.010163861326873302 0.05821555107831955 -0.09524169564247131 -0.34521907567977905 -0.010294953361153603 -0.24835219979286194 -0.04888956993818283 -0.06616371870040894 0.07327911257743835 -0.03757299855351448 0.06492315977811813 -0.06662628799676895 0.1796201467514038 -0.4335675835609436 -0.07721084356307983 0.19573985040187836 0.1904038041830063 0.24781641364097595 -0.017070431262254715 -0.11456570774316788 0.06476256251335144 -0.09670751541852951 0.273610383272171 0.0016738967970013618 0.15115854144096375 -0.30601662397384644 -0.183716282248497 0.355118989944458 -0.11163641512393951 -0.021330740302801132 0.14052842557430267 0.014616316184401512 -0.10746745765209198 0.36856362223625183 0.24627555906772614 -0.3897779881954193 -0.07377592474222183 0.08790667355060577 -0.15908710658550262 0.0062805041670799255 -0.21523632109165192 -0.13267311453819275 -0.2037602812051773 -0.335486501455307 0.182635098695755 0.4942496120929718 -0.058465439826250076 -0.1308567225933075 -0.27287060022354126 0.00647449167445302 0.0510629303753376 0.0908360630273819 0.2501828670501709 -0.4790048599243164 0.26529479026794434 0.20710405707359314 -0.15669554471969604 0.14476221799850464 0.4790589213371277 -0.1575409471988678 -0.08275064826011658 0.02065735124051571 0.3781544864177704 -0.30091336369514465 0.0013177655637264252 -0.03604947775602341 -0.17201323807239532 -0.34519171714782715 -0.09277181327342987 0.3568117916584015 -0.18919044733047485 0.13844861090183258 0.17777930200099945 -0.0616501159965992 -0.06617464125156403 -0.214143767952919 -0.2936288118362427 -0.4688059389591217 -0.13980330526828766 0.10337399691343307 0.09177687764167786 0.25293979048728943 0.02916584722697735 0.18546591699123383
left 0.04081103578209877 0.031163325533270836 -0.13769635558128357 -0.055381085723638535 0.008085589855909348 -0.18249110877513885 0.14005525410175323 -0.1756584346294403 0.06993899494409561 -0.007123364135622978 -0.03770366683602333 0.10797790437936783 -0.06208627298474312 0.0996420830488205 -0.19733227789402008 0.012807433493435383 0.14386798441410065 0.09173095971345901 0.02477199397981167 -0.07745187729597092 -0.12800240516662598 -0.04114225134253502 0.18573586642742157 -0.328316867351532 -0.32949957251548767 -0.08519865572452545 -0.19277283549308777 -0.0406671017408371 -0.21111822128295898 0.07259994745254517 -0.3787955641746521 -0.15432654321193695 0.06264247745275497 -0.02260630391538143 -0.03046242520213127 0.006452282425016165 -0.12124426662921906 -0.38550785183906555 -0.08866174519062042 0.2009120136499405 -0.06820414215326309 0.29930391907691956 -0.0759148970246315 0.32351407408714294 0.0733383297920227 0.19651423394680023 0.1018790528178215 0.15832099318504333 0.1416698396205902 0.19506612420082092 0.07739754021167755 -0.11513511091470718 -0.12407584488391876 0.11588127911090851 -0.25961658358573914 0.20833195745944977 -0.2773941457271576 0.2414858341217041 0.06932371109724045 0.018400488421320915 0.25151312351226807 0.06492312252521515 0.0048700664192438126 0.074207603931427 0.04378299042582512 0.1923568844795227 -0.02038010209798813 -0.07272857427597046 -0.055470071732997894 -0.026930615305900574 0.04065414145588875 -0.017967654392123222 -0.010701277293264866 0.05874968692660332 0.2468104362487793 0.268497109413147 0.17139577865600586 -0.18229612708091736 -0.0641971156001091 0.32454344630241394 0.06802389025688171 -0.10940077155828476 -0.06184019893407822 0.040374305099248886 0.011119401082396507 0.0011091337073594332 0.20276683568954468 0.30682066082954407 0.016662752255797386 0.14711543917655945 -0.20713138580322266 -0.3355369567871094 -0.06137585639953613 -0.4218394458293915 -0.029729552567005157 0.042247939854860306 0.2508324086666107 0.29860392212867737 0.2620909512042999 -0.26170724630355835
much -0.23856261372566223 -0.07455016672611237 0.11093474179506302 -0.10157398134469986 0.0978221595287323 0.131606787443161 0.28871724009513855 -0.31441015005111694 -0.540726363658905 0.30989399552345276 0.23393774032592773 0.2778903543949127 -0.2234312891960144 -0.11062192171812057 0.12152595818042755 0.19877313077449799 0.04102243855595589 -0.050990935415029526 -0.5207993984222412 -0.16009312868118286 -0.18795464932918549 0.305228590965271 -0.29218778014183044 0.20910270512104034 -0.10293756425380707 0.2640274167060852 -0.4645248353481293 0.012357452884316444 0.021165521815419197 -0.4279855191707611 -0.10710010677576065 0.019562579691410065 0.11555790901184082 0.24510514736175537 -0.1838817149400711 -0.12903936207294464 -0.2688088119029999 -0.2424924671649933 -0.17027296125888824 0.16326244175434113 0.10734642297029495 0.5257173180580139 0.26995062828063965 0.149699404835701 0.2865862548351288 -0.4082702398300171 0.12365730106830597 0.154550701379776 -0.30512186884880066 -0.0129352156072855 -0.07993939518928528 0.39318734407424927 0.05420448258519173 -0.3813258409500122 -0.20552502572536469 0.09841113537549973 -0.03524399921298027 -0.050406940281391144 0.4774661362171173 0.007014678791165352 -0.039140962064266205 -0.2108008861541748 0.17619316279888153 -0.13599194586277008 -0.09133793413639069 0.22458761930465698 -0.18643657863140106 0.0716099813580513 0.09389669448137283 0.34167027473449707 -0.3965418040752411 -0.0833328440785408 0.08807335793972015 -0.12573839724063873 -0.5955768823623657 0.22456082701683044 0.07836181670427322 -0.03287876024842262 0.17044861614704132 0.012804105877876282 0.49479278922080994 -0.1288435310125351 0.37164631485939026 -0.02699926123023033 0.008592122234404087 -0.04272083565592766 -0.15838780999183655 0.2901713252067566 -0.25472351908683777 -0.01058254949748516 -0.05604221671819687 -0.08640898019075394 -0.15007498860359192 0.3828939199447632 -0.3129725456237793 0.20677436888217926 0.3740707039833069 0.06402529031038284 0.012188645079731941 0.1808617264032364
be -0.023513484746217728 -0.1901877075433731 -0.1371554285287857 0.006591230630874634 0.21641825139522552 0.03899465501308441 0.1500050276517868 -0.1149044781923294 -0.13936032354831696 -0.4847765266895294 0.034215811640024185 -0.09432388097047806 -0.12475081533193588 0.24022068083286285 0.29989996552467346 0.1689450442790985 0.032301269471645355 0.09087488055229187 0.0775361955165863 -0.2248641699552536 -0.016703017055988312 0.031373653560876846 0.032604895532131195 0.42822954058647156 0.04229782521724701 -0.3327800929546356 -0.09563656151294708 0.03672663867473602 0.3305162787437439 -0.15642201900482178 0.33182695508003235 -0.29864123463630676 -0.1703924983739853 -0.07258276641368866 0.15370690822601318 0.21509918570518494 -0.11369037628173828 0.050629161298274994 0.15643897652626038 -0.15303713083267212 0.042137835174798965 0.2744612693786621 0.3240238428115845 0.2711452841758728 -0.07734408229589462 -0.12496595084667206 -0.15091557800769806 -0.022429805248975754 -0.031439147889614105 0.25266894698143005 0.2297343909740448 -0.060106899589300156 0.2145618051290512 0.26217707991600037 -0.026154903694987297 0.11406877636909485 -0.29954028129577637 0.11169664561748505 0.2518819272518158 0.00396416150033474 -0.21278029680252075 0.23255258798599243 -0.13804861903190613 0.13081946969032288 -0.24419604241847992 -0.15586188435554504 0.26936542987823486 -0.3218603730201721 0.01904376782476902 -0.3060187101364136 0.058203693479299545 -0.37838608026504517 -0.02771267667412758 0.5030778050422668 -0.09790458530187607 -0.06315912306308746 0.20596297085285187 -0.04915918409824371 -0.15670868754386902 -0.05967333912849426 0.03974495455622673 0.4209888279438019 -0.06269700825214386 -0.19799958169460297 0.20195217430591583 -0.06427667289972305 0.14807221293449402 -0.16485218703746796 0.2136463075876236 -0.11093857139348984 -0.09445161372423172 -0.35287171602249146 0.03319334611296654 0.2854810059070587 -0.15925216674804688 -0.1571030616760254 0.14821238815784454 0.34247249364852905 -0.07111622393131256 -0.26334550976753235
another -0.3600374758243561 -0.03799406811594963 -0.04195301607251167 0.267362117767334 0.027813363820314407 -0.09179085493087769 -0.05241735279560089 -0.23673070967197418 -0.1352631002664566 -0.09292271733283997 0.12307869642972946 0.021373428404331207 -0.22978860139846802 -0.08573736995458603 0.03737335652112961 0.003963461611419916 -0.09265832602977753 -0.038123227655887604 0.1485382616519928 -0.005576256662607193 0.2281121164560318 -0.20864126086235046 -0.025673167780041695 -0.07319620251655579 -0.04225833714008331 0.2856978476047516 0.09516532719135284 0.2934170365333557 0.10123676061630249 0.12949161231517792 0.24384796619415283 0.320959210395813 -0.10262645781040192 -0.10300058871507645 0.13614049553871155 0.13798114657402039 -0.24825114011764526 -0.2449522614479065 -0.11014727503061295 0.042469240725040436 0.0031629279255867004 0.15228083729743958 -0.06586333364248276 -0.021089354529976845 0.44292503595352173 0.07181309908628464 -0.09478891640901566 0.009711647406220436 0.05313601717352867 -0.15185177326202393 0.37859174609184265 0.23528419435024261 -0.3469387888908386 -0.013704702258110046 0.21335771679878235 0.26533183455467224 0.24434000253677368 0.16954444348812103 -0.453762024641037 -0.2162923663854599 0.041538678109645844 -0.07628725469112396 -0.23704546689987183 0.29632100462913513 0.11899208277463913 -0.06577828526496887 -0.16517414152622223 -0.40660780668258667 -0.12460894137620926 0.14324770867824554 0.007888726890087128 -0.36920177936553955 -0.20904192328453064 -0.17761775851249695 0.08524401485919952 -0.2692171633243561 0.04810485988855362 -0.009892306290566921 -0.1455245018005371 0.14155849814414978 -0.025119008496403694 0.3690001368522644 -0.2102251946926117 0.051846202462911606 -0.07537593692541122 0.18580642342567444 0.25518280267715454 0.06665919721126556 -0.1843758523464203 0.2759934961795807 0.25945284962654114 -0.3658408224582672 -0.02317550592124462 0.11597257107496262 0.11248022317886353 0.18125173449516296 0.3169845938682556 0.12301749736070633 -0.10459122061729431 -0.21148273348808289
two -0.0037226020358502865 0.07731673121452332 -0.015422627329826355 0.19811074435710907 -0.5253232717514038 -0.22883687913417816 0.029800277203321457 -0.05730993300676346 -0.13007523119449615 0.1011761799454689 -0.06967247277498245 0.07850293070077896 -0.07864738255739212 0.03747589513659477 -0.3381012976169586 0.29203668236732483 0.16303399205207825 0.1860457807779312 -0.012979403138160706 0.08870642632246017 -0.052369311451911926 -0.02877027913928032 0.305929571390152 -0.5602953433990479 -0.2849550247192383 0.3349185585975647 0.1040087565779686 0.15168601274490356 0.13472700119018555 0.09873974323272705 -0.19225899875164032 -0.03708908334374428 -0.07160208374261856 -0.16049888730049133 -0.003072816878557205 -0.2342490255832672 -0.15861451625823975 -0.5592546463012695 0.11028053611516953 -0.3949246108531952 0.06396264582872391 -0.08003699779510498 -0.2043273001909256 0.18350303173065186 0.32891416549682617 0.31743761897087097 -0.32681605219841003 -0.04131079837679863 0.025032898411154747 0.003097671316936612 0.17716319859027863 0.022116607055068016 -0.1772923767566681 0.2832629978656769 -0.1423938274383545 0.4099547863006592 -0.36561375856399536 -0.2755780816078186 -0.37396126985549927 0.027094878256320953 -0.012153140269219875 0.0072523681446909904 0.4043579697608948 0.10336558520793915 -0.011538755148649216 0.1447620838880539 -0.09141126275062561 -0.27919748425483704 -0.090180404484272 -0.2188183069229126 -0.19622696936130524 -0.3349542021751404 -0.287680447101593 -0.03608758747577667 0.4897463023662567 0.26186347007751465 0.4523608982563019 -0.3877120614051819 -0.11135006695985794 0.16589577496051788 -0.06718739122152328 -0.4046976566314697 -0.2768462598323822 0.2883717119693756 0.32583484053611755 0.010415798984467983 0.28438490629196167 0.44254836440086365 0.11124113202095032 0.2780761122703552 -0.2540058493614197 -0.5545169115066528 -0.19418451189994812 -0.38906288146972656 0.18783247470855713 0.15785722434520721 0.5612655878067017 0.23879611492156982 0.06656689941883087 0.10419631749391556
long -0.13026100397109985 -0.1945357620716095 -0.46479058265686035 -0.36460310220718384 0.025224601849913597 -0.17022304236888885 0.3154864013195038 -0.2803909182548523 -0.006058566737920046 0.44594839215278625 0.39684832096099854 0.11390040814876556 0.16950489580631256 -0.001755284727551043 0.10188135504722595 0.18823634088039398 -0.2693602740764618 0.04169661924242973 -0.8484964966773987 -0.364727646112442 0.02603611722588539 0.12184815108776093 0.10541844367980957 0.03574765846133232 -0.08462543785572052 0.03687959909439087 -0.039977844804525375 0.4380813539028168 0.28626278042793274 -0.07429158687591553 0.4797392189502716 0.27228549122810364 0.02981933206319809 0.4561866819858551 0.4774309992790222 -0.24437446892261505 -0.10552465170621872 -0.25269991159439087 -0.3915480673313141 -0.6102393865585327 -0.14076033234596252 0.1625463366508484 -0.01008918322622776 0.2352045476436615 0.0930047333240509 -0.06563147157430649 -0.17208042740821838 0.009029753506183624 -0.6188274621963501 0.040070585906505585 0.17364731431007385 -0.024900086224079132 0.09699001908302307 -0.3528246581554413 0.1351107507944107 -0.10955081880092621 -0.21213413774967194 -0.1520482301712036 -0.15790097415447235 0.2898387610912323 0.029480911791324615 -0.3186796009540558 0.5765219926834106 0.5527554750442505 -0.352581262588501 -0.11150673776865005 -0.1508767455816269 -0.09607907384634018 0.3139439821243286 -0.3679529130458832 0.05479251220822334 -0.2803347706794739 -0.21865709125995636 -0.1611962914466858 -0.30015987157821655 0.2979571223258972 0.1454770863056183 0.3436146676540375 -0.10614669322967529 0.15371938049793243 0.28144505620002747 0.6348903179168701 -0.21184653043746948 0.21280866861343384 -0.024475527927279472 0.056673746556043625 -0.1900416761636734 0.23301532864570618 -0.7118974924087524 -0.03274529427289963 -0.020900908857584 -0.2602101266384125 -0.1748964935541153 0.182669535279274 0.011091574095189571 -0.14552541077136993 0.06692496687173843 0.014754390344023705 -0.26315435767173767 -0.41493234038352966
how -0.1723846197128296 0.10398942977190018 -0.04945793002843857 -0.13880310952663422 -0.10304026305675507 0.3262385129928589 -0.09869840741157532 0.17097006738185883 -0.1569197177886963 0.22455525398254395 0.25623705983161926 -0.14901310205459595 -0.03676467761397362 0.13385039567947388 -0.2347107082605362 0.10918527841567993 -0.010706372559070587 0.2194395363330841 0.1308462917804718 -0.13342443108558655 0.24211148917675018 -0.18517804145812988 0.28374871611595154 0.036494266241788864 0.18017476797103882 0.3777996003627777 -0.23771612346172333 0.033090054988861084 -0.04980633407831192 -0.04309041053056717 0.3528025150299072 0.10187020897865295 -0.10835441946983337 0.09014108031988144 -0.2180955708026886 0.18862229585647583 -0.23018062114715576 0.11098901182413101 -0.21086329221725464 -0.14230410754680634 -0.04686751216650009 -0.09783216565847397 -0.015413004904985428 -0.29839980602264404 -0.03964148461818695 0.1611262559890747 -0.03611289709806442 0.06376013159751892 0.028312908485531807 -0.2571963667869568 -0.08781850337982178 -0.33205822110176086 0.5288010239601135 0.20529815554618835 -0.07802082598209381 0.3310075104236603 0.20796282589435577 -0.04014768823981285 0.1899600327014923 0.13730250298976898 -0.24739734828472137 0.029099218547344208 0.06416967511177063 0.10197243839502335 0.24793189764022827 -0.020511440932750702 -0.19385147094726562 0.07773745059967041 -0.06437908113002777 0.045837704092264175 0.2221800535917282 0.36142978072166443 0.1730978935956955 0.1175241619348526 -0.2184128761291504 -0.15849000215530396 -0.46357300877571106 -0.008886716328561306 -0.05607672780752182 -0.08788048475980759 0.11151803284883499 -0.08711935579776764 0.5440468788146973 0.22117526829242706 0.39309003949165344 -0.29602012038230896 0.011117150075733662 -0.24291588366031647 0.19196423888206482 -0.12988755106925964 0.37727296352386475 -0.030640289187431335 -0.3784126043319702 -0.07750719040632248 0.1619545817375183 0.4101133942604065 -0.16873572766780853 -0.19275739789009094 0.2890568673610687 0.24645133316516876
into -0.02565081976354122 0.1916368305683136 -0.03842109441757202 -0.054865289479494095 0.04965563863515854 0.12623006105422974 0.14635299146175385 0.09397278726100922 -0.14748144149780273 -0.009550629183650017 0.20041035115718842 0.13005656003952026 0.07596228271722794 -0.06130432337522507 -0.08079366385936737 -0.010492258705198765 -0.18277046084403992 0.16208387911319733 0.15714353322982788 0.05602102354168892 -0.11060778051614761 -0.0037923366762697697 -0.11277347803115845 -0.1607532799243927 -0.022000744938850403 0.16328085958957672 0.0012686196714639664 0.1822647750377655 0.17466087639331818 -0.09348685294389725 0.2144949734210968 0.11111730337142944 0.10510394722223282 -0.17919090390205383 -0.1134447231888771 0.24904480576515198 0.06359220296144485 0.09313260763883591 -0.15654805302619934 -0.2973819971084595 -0.08758077025413513 -0.1559075266122818 -0.0721428394317627 -0.20953369140625 0.028525570407509804 0.21021303534507751 -0.20243507623672485 -0.35507839918136597 -0.09197940677404404 0.160704106092453 0.15727505087852478 0.15100756287574768 -0.22223374247550964 -0.006037503946572542 -0.17831766605377197 0.06578278541564941 -0.04832857847213745 0.08173586428165436 -0.25051018595695496 -0.009182857349514961 0.030154863372445107 -0.051199913024902344 -0.19144278764724731 -0.004980398342013359 -0.01029523927718401 0.035918112844228745 -0.2975130081176758 -0.11751601845026016 0.026327725499868393 -0.16304966807365417 0.22692888975143433 -0.08024391531944275 -0.015305169858038425 0.13798202574253082 0.1687445193529129 -0.21514996886253357 -0.21899934113025665 -0.062227435410022736 0.09413539618253708 0.11323558539152145 0.3364763557910919 -0.19738803803920746 0.05317516624927521 -0.035856861621141434 -0.18189263343811035 0.10251732915639877 0.04808030277490616 -0.12240776419639587 -0.03891022503376007 -0.06355774402618408 0.25011324882507324 0.23479875922203064 -0.047830965369939804 0.14077673852443695 0.17646700143814087 0.009763428941369057 -0.2542857527732849 0.004175746813416481 -0.03771068900823593 -0.15917252004146576
see 0.05322334170341492 0.02426018938422203 -0.1117735281586647 -0.1656564623117447 -0.04084199666976929 0.07957455515861511 -0.05341734364628792 0.1950284093618393 0.11268092691898346 -0.2631514072418213 -0.09372547268867493 0.09035667777061462 0.12700533866882324 -0.061296090483665466 -0.04897809773683548 0.3000231683254242 -0.1279049664735794 0.21817511320114136 -0.02247975580394268 0.1352909654378891 -0.05531841889023781 0.09806033968925476 0.03267132490873337 0.1049402579665184 -0.25105059146881104 0.01638992875814438 -0.12392310798168182 -0.041998494416475296 0.30756086111068726 0.011284710839390755 -0.026573488488793373 0.06263632327318192 -0.08874540030956268 -0.28010591864585876 0.12128089368343353 0.06937859207391739 0.0679594874382019 0.01479403581470251 -0.008404784835875034 -0.08235190808773041 -0.019809110090136528 0.24783316254615784 0.025207825005054474 -0.1766827255487442 0.23654113709926605 -0.03529832139611244 -0.045052651315927505 -0.24927707016468048 0.13311488926410675 -0.06337572634220123 -0.07117186486721039 0.09942150115966797 0.046461235731840134 -0.16038359701633453 -0.14139097929000854 0.07525705546140671 0.09286773949861526 -0.03925517573952675 0.035674162209033966 -0.05978257209062576 -0.2741263508796692 0.020699888467788696 -0.21404774487018585 0.05422031506896019 -0.12296784669160843 -0.04298357293009758 -0.23815102875232697 0.03469354286789894 0.049214668571949005 0.13717758655548096 -0.09770745038986206 -0.5153008699417114 0.04052508622407913 0.07955244183540344 0.051588594913482666 -0.29282039403915405 -0.1752944439649582 -0.032951775938272476 0.32317855954170227 -0.17018087208271027 0.17918303608894348 -0.02617238089442253 0.16548016667366028 -0.09320183843374252 0.06552626937627792 -0.276132732629776 0.13035768270492554 0.04693817347288132 0.06666034460067749 -0.31879889965057373 -3.8174260407686234E-4 0.11677030473947525 0.1736185997724533 0.15185625851154327 -0.11318095773458481 -0.09660141170024872 -0.288536936044693 0.027996312826871872 -0.08399467170238495 -0.2550854980945587
found -0.06198843941092491 0.02196316607296467 -0.19930978119373322 -0.12980331480503082 0.11152789741754532 0.03875955566763878 0.13499391078948975 -0.10690280795097351 0.026815850287675858 -0.053358692675828934 -0.04074878990650177 -0.09036140888929367 0.07666484266519547 -0.04409996420145035 -0.06601545959711075 0.07352329045534134 -0.08624684810638428 0.08488573133945465 0.13253292441368103 -0.2572992146015167 -0.22523964941501617 -0.10217690467834473 0.07930111140012741 -0.12141039967536926 -0.21027550101280212 -0.027177227661013603 -0.03370077535510063 -0.006431120447814465 -0.5804093480110168 0.1395004391670227 -0.14845387637615204 -0.13683754205703735 0.2722356915473938 0.0749741867184639 0.2739996910095215 0.03715241700410843 0.22322049736976624 -0.14502675831317902 -0.11766140908002853 0.0340244360268116 -0.21361207962036133 0.2724829912185669 0.06063492223620415 -3.6483199801295996E-4 0.21322286128997803 -0.13930244743824005 0.19865374267101288 0.16851776838302612 0.2087523490190506 0.16687175631523132 0.10103973001241684 -0.21895888447761536 -0.08817338198423386 0.09692009538412094 -0.08145179599523544 0.1685018688440323 -0.15887507796287537 0.37449944019317627 -0.007969651371240616 0.025640275329351425 0.2260635644197464 0.031130094081163406 0.1763455718755722 0.13711659610271454 -0.14726492762565613 -0.08656591922044754 -0.14055755734443665 -0.22416433691978455 0.10740739107131958 0.0635049045085907 0.04654605686664581 -0.17703905701637268 0.08374033868312836 -0.09900160133838654 0.23570938408374786 0.04279608279466629 0.22806327044963837 -0.03176845237612724 0.23489731550216675 0.11831498891115189 0.22840403020381927 0.04980320483446121 -0.13598284125328064 0.10753102600574493 0.15641476213932037 -0.15961681306362152 0.10012050718069077 0.16635169088840485 0.08523993194103241 -0.048717156052589417 -0.042860083281993866 -0.03384053334593773 -0.08815454691648483 -0.13830876350402832 -0.192218616604805 -0.14037781953811646 0.1651434302330017 0.22164316475391388 0.058322686702013016 -0.20249521732330322
same -0.009188605472445488 -0.08925241976976395 -0.04727939888834953 -0.2672053873538971 0.0795142874121666 0.036805007606744766 -0.02902180701494217 -0.20105230808258057 -0.038941092789173126 0.21053287386894226 0.2445773482322693 0.26864007115364075 -0.20691780745983124 0.11156677454710007 -0.11795510351657867 0.05241774022579193 0.36349838972091675 0.023267028853297234 -0.08326214551925659 0.08169399946928024 -0.10503854602575302 -0.2672155499458313 -0.16180717945098877 -0.018662985414266586 0.14502495527267456 0.1353108435869217 -0.16545934975147247 -0.07520490884780884 -0.383634090423584 0.032789792865514755 0.253065824508667 -0.20049667358398438 0.05828329920768738 -0.033577583730220795 0.478324830532074 -0.2202424257993698 -0.3074094355106354 0.09240788221359253 0.05730094388127327 -0.24479259550571442 0.23136328160762787 0.26679614186286926 -0.1335425227880478 0.44480201601982117 -0.30219554901123047 0.2016877382993698 0.12341127544641495 0.06753218173980713 -0.14084704220294952 -0.19964563846588135 0.6806329488754272 -0.12283898144960403 -0.011984756216406822 0.10416773706674576 0.007772087585180998 0.13828381896018982 0.47936102747917175 -0.4666997790336609 0.012688660994172096 -0.1858212649822235 0.38999074697494507 0.10933126509189606 -0.051138412207365036 -0.20637676119804382 -0.22036229074001312 -0.08670702576637268 -0.13214623928070068 -0.3590560555458069 0.3739817440509796 -0.20526538789272308 -0.40187036991119385 0.13456286489963531 -0.4166746437549591 -0.030273383483290672 0.34844884276390076 0.011179731227457523 -0.07872481644153595 -0.010074306279420853 -0.08815524727106094 0.013278628699481487 -0.05492747575044632 0.21634547412395477 -0.3810237944126129 -0.43987661600112915 0.0029053883627057076 -0.2026611864566803 0.4150990843772888 -0.11181680113077164 0.03893979266285896 0.0055709900334477425 -0.06372113525867462 -0.014837673865258694 -0.08994796872138977 -0.5004432201385498 -0.2451074868440628 0.1687183678150177 -0.17480964958667755 0.3770233690738678 -0.12909379601478577 -0.0348394513130188
are 0.04743701592087746 -0.11026915907859802 0.04028806835412979 -0.1573929488658905 -0.4398570954799652 -0.13873769342899323 -0.03325871378183365 -0.04606623202562332 0.15140028297901154 -0.1603630781173706 -0.18430566787719727 0.12709954380989075 -0.07417468726634979 -0.11764711886644363 -0.08271164447069168 0.06659247726202011 -0.4849375784397125 0.005919408053159714 0.34945157170295715 0.003020265605300665 0.22035667300224304 -0.05845734849572182 0.11674979329109192 0.14154820144176483 0.13105836510658264 0.21309718489646912 -0.1351921409368515 -0.23835104703903198 0.4856969714164734 0.30588266253471375 -0.4550936818122864 -0.15438680350780487 -0.15990407764911652 0.3167133629322052 0.26635676622390747 0.18487301468849182 0.1581820398569107 0.47136104106903076 -0.12146201729774475 0.17129191756248474 0.46582117676734924 0.3579615652561188 -0.04207921773195267 0.5781534910202026 -0.06414282321929932 -0.11161715537309647 0.49718695878982544 0.05636456608772278 -0.4087260961532593 -0.2890538275241852 -0.174040287733078 0.31910964846611023 -0.3592185080051422 0.062169525772333145 -0.5034529566764832 0.3096829652786255 -0.014340808615088463 -0.009600058197975159 0.24743491411209106 0.09622755646705627 -0.33017459511756897 0.05290896072983742 -0.11323919147253036 -0.11615799367427826 0.08717245608568192 -0.19957591593265533 0.011785445734858513 0.13394159078598022 -0.06824760138988495 0.047863129526376724 -0.05257455259561539 0.069198377430439 0.1366056203842163 0.4229702651500702 -0.19381436705589294 -0.08085709810256958 -0.04704684764146805 0.29935577511787415 0.04183833301067352 0.16405531764030457 -0.22529557347297668 -0.28687164187431335 0.04673101752996445 0.46557852625846863 -0.4325976073741913 -0.26924213767051697 -0.24921265244483948 0.045771945267915726 0.3554074168205261 0.12620943784713745 0.13879907131195068 0.03240963816642761 0.06351055204868317 0.0015547198709100485 0.03717666119337082 -0.2515288293361664 -0.010409417562186718 0.1517844945192337 -0.17527680099010468 0.32897013425827026
does -0.09117051959037781 0.2126956284046173 0.22808939218521118 -0.3202182650566101 -0.051240455359220505 0.1701820343732834 -0.4862164556980133 -0.08416174352169037 0.20640765130519867 -0.046627968549728394 0.37192806601524353 0.26712241768836975 0.5502398610115051 -0.3370397984981537 -0.16494937241077423 -0.03150105103850365 -0.0016065011732280254 -0.06205621734261513 0.05638753995299339 -0.09819426387548447 -0.06814687699079514 0.15686467289924622 -0.2684504985809326 -0.3505028784275055 0.2001793384552002 -0.055871862918138504 0.15628096461296082 -0.40990766882896423 -0.42481112480163574 -0.6335922479629517 0.1183578297495842 0.3947157561779022 0.2781184911727905 -0.24220030009746552 -0.20733413100242615 0.15435394644737244 -0.0037524565123021603 0.5981589555740356 -0.01110308337956667 0.10326068103313446 -0.28778278827667236 -0.1710824817419052 -0.2143319994211197 -0.13293686509132385 -0.019115688279271126 0.2540697753429413 -0.22020988166332245 0.32805633544921875 0.006356353871524334 -0.36775529384613037 -0.10066323727369308 0.2980521619319916 0.002394614275544882 -0.15294304490089417 0.10966477543115616 -0.5304931402206421 -0.08267545700073242 0.18361137807369232 0.0841020941734314 0.12429061532020569 -0.25025343894958496 -0.21578377485275269 -0.06246861070394516 0.216987743973732 -0.21717029809951782 0.10898537933826447 0.2629128694534302 -0.16209107637405396 -0.4831000566482544 0.06544754654169083 0.19117186963558197 0.027169985696673393 -0.1193390041589737 0.11331381648778915 -0.223488450050354 0.09588221460580826 0.06226835772395134 -0.08499668538570404 0.1208222359418869 0.02863740734755993 0.21180540323257446 0.11571074277162552 -0.42329686880111694 -0.07568730413913727 0.05720648914575577 -0.29366424679756165 0.27029094099998474 -0.1359306275844574 -0.06500674784183502 0.29543498158454895 -0.043261561542749405 0.06970278918743134 0.045770589262247086 0.26640376448631287 0.2199995517730713 -0.27968287467956543 0.11704541742801666 0.24031725525856018 0.07294270396232605 0.058760207146406174
by -0.055746693164110184 0.004739353898912668 -0.1507548689842224 0.03003496304154396 -0.10292404890060425 -0.07806846499443054 0.028218815103173256 -0.2047055959701538 0.012325522489845753 0.024823175743222237 -0.0693230926990509 -0.046884749084711075 0.05203436315059662 -0.12214262783527374 0.0027808554004877806 0.026798885315656662 0.029863646253943443 0.023912910372018814 0.13460862636566162 0.03544218838214874 -0.03353707119822502 -0.0097882691770792 0.11484374850988388 -0.18111968040466309 0.07881802320480347 0.1333361119031906 0.03313755244016647 0.10395916551351547 0.19701626896858215 -0.05219203233718872 0.11476663500070572 0.1288110911846161 -0.13644686341285706 -0.043234895914793015 0.012296661734580994 -0.12495523691177368 -0.09074656665325165 0.0763377696275711 -0.00511923898011446 -0.18030241131782532 -0.21885566413402557 -0.08603689819574356 -0.10169117897748947 0.012548278085887432 0.0713626891374588 0.22183382511138916 -0.02067657932639122 -0.10648687183856964 0.016911722719669342 0.06251107901334763 0.19170743227005005 0.04259616509079933 -0.20924194157123566 0.16572457551956177 -0.22911782562732697 0.3012423813343048 -0.17556340992450714 -0.03220568224787712 -0.3574865162372589 -0.15819445252418518 -0.1219794973731041 0.2579086720943451 -0.22677695751190186 0.1504601240158081 -0.02256813645362854 0.09991872310638428 -0.4374862611293793 -0.19970719516277313 0.21027477085590363 -0.2464996874332428 0.07856512069702148 -0.19863222539424896 -0.06861796975135803 0.050922852009534836 0.10879966616630554 -0.06198207661509514 -0.0013475625310093164 -0.20493727922439575 0.07144182175397873 0.16086526215076447 0.1346084177494049 -0.045531172305345535 -0.10333909839391708 0.11693288385868073 -0.1925111562013626 0.04996027424931526 0.09120040386915207 0.13992717862129211 -0.060381948947906494 0.005858871154487133 0.12296601384878159 -0.17714670300483704 -0.03722677379846573 0.04731625318527222 0.052229687571525574 -0.08857975900173187 -0.02860376425087452 -0.0015484519535675645 0.06643598526716232 -0.2560714781284332
national 0.050741106271743774 -0.04671318084001541 -0.012276054359972477 -0.004991899244487286 0.040760114789009094 -0.06539911031723022 0.024031788110733032 -0.06780274212360382 -0.053064122796058655 -0.024455929175019264 0.027741320431232452 0.006408253218978643 -0.00415789894759655 -0.023105690255761147 0.013601766899228096 -0.13278421759605408 0.05747193470597267 0.05666504427790642 -0.11977021396160126 0.14159102737903595 0.025326156988739967 -0.1950274109840393 0.003893946297466755 0.0134076327085495 0.1066780835390091 -0.006475373171269894 -0.04597896337509155 -7.955812616273761E-4 0.00298046856187284 -0.02141161635518074 0.018228143453598022 -0.08962833136320114 0.07140747457742691 0.02749711647629738 0.02915618196129799 0.023239796981215477 0.022757956758141518 0.011620135977864265 -0.10991422832012177 -0.04236363619565964 -0.013716485351324081 0.02655700594186783 -0.024508871138095856 0.08699603378772736 -0.16590097546577454 -0.0358845479786396 0.020435059443116188 -0.014186276122927666 -0.02988133206963539 -0.024109553545713425 0.09420982748270035 0.04871398210525513 0.015082982368767262 0.0057092043571174145 -0.015771793201565742 0.05195005238056183 0.02262570522725582 -0.034611884504556656 -0.00886844377964735 0.02390790358185768 0.07983866333961487 -0.07534021884202957 -0.06444860249757767 -0.058208756148815155 -0.03395254909992218 -0.10951947420835495 0.05686633661389351 0.011934067122638226 0.058449871838092804 -0.00852423906326294 -1.2049451470375061E-5 0.05837679281830788 -0.037019986659288406 0.009089791215956211 0.1177026703953743 0.1333913803100586 0.007127299904823303 0.09488396346569061 -0.05301368236541748 0.06948596239089966 -0.08126383274793625 0.055042192339897156 -0.006306171417236328 -0.012563426978886127 0.0099268713966012 0.15896013379096985 -0.01942243054509163 -0.050499577075242996 -0.009407349862158298 0.03132468834519386 -0.018121793866157532 -0.027300937101244926 0.0777793750166893 -0.08138000220060349 0.04804915934801102 0.11115497350692749 -0.03268406167626381 0.10952912271022797 -0.13025912642478943 0.013466635718941689
where 0.0102239353582263 -0.02594156563282013 0.6121358871459961 0.07779337465763092 0.15085628628730774 0.5080534219741821 0.19273461401462555 0.3258282244205475 0.08792320638895035 -0.15935379266738892 0.31601980328559875 -0.14552754163742065 0.2262854278087616 -0.272429496049881 0.04817197099328041 0.10143174231052399 0.10417639464139938 0.021029261872172356 -9.515687124803662E-4 -0.008154506795108318 0.21622756123542786 -0.04648615047335625 0.04653052240610123 0.37868282198905945 0.47317782044410706 0.07540914416313171 -0.2219010293483734 0.02279680222272873 -0.08443472534418106 0.14119988679885864 0.276275634765625 0.207180455327034 -0.2716537117958069 -0.024403568357229233 0.31569716334342957 -0.3926181197166443 0.10416070371866226 0.18555490672588348 -0.14363902807235718 -0.2481759488582611 0.2490711808204651 -0.058489520102739334 2.2300053387880325E-4 -0.055520303547382355 -0.02755521610379219 -0.014657645486295223 -0.07396378368139267 -0.2809535264968872 0.0030225785449147224 -0.13832058012485504 -0.22604291141033173 -0.26332685351371765 0.38728687167167664 0.07500405609607697 0.03637043386697769 0.25383374094963074 0.417253702878952 -0.5131632685661316 -0.3613181710243225 0.14959299564361572 0.4510749578475952 -0.13270466029644012 0.030263002961874008 -0.1578332632780075 0.05610109493136406 0.05243035778403282 -0.08737381547689438 0.005530216731131077 0.23685750365257263 0.026519009843468666 -0.012942292727530003 -0.14437490701675415 0.07175746560096741 0.1662236899137497 0.22366710007190704 -0.3861624598503113 -0.13941772282123566 0.15953429043293 0.07106664031744003 0.1252359300851822 -0.0913219004869461 -0.22880913317203522 -0.09883859753608704 0.2109411507844925 -0.0091268764808774 0.03165874630212784 -0.3995742201805115 -0.04423044994473457 0.05848768725991249 0.3059113025665283 0.22475995123386383 0.3731907606124878 -0.04579157382249832 0.16045260429382324 0.2526894509792328 0.2170279324054718 -0.10917988419532776 -0.056084852665662766 0.04560432955622673 -0.17679773271083832
after -0.11027594655752182 0.059189554303884506 -0.08189447224140167 0.08475471287965775 0.015694698318839073 0.4597005248069763 -0.011982467956840992 -0.13428738713264465 0.04330742359161377 0.02519763633608818 0.07362685352563858 0.15119077265262604 0.27086377143859863 -0.13714008033275604 -0.12382983416318893 0.001460033468902111 -0.10389484465122223 0.030577782541513443 0.016911739483475685 0.2572355270385742 -0.08737829327583313 -0.033913902938365936 0.008862338960170746 -0.06343606859445572 0.06450477987527847 -0.14905019104480743 -0.022904399782419205 0.10044178366661072 0.3687627911567688 -0.19580252468585968 0.05434153601527214 0.20911085605621338 0.20465593039989471 0.058377474546432495 0.04937514290213585 0.022213421761989594 0.062323927879333496 -0.10289183259010315 0.031208425760269165 -0.21070519089698792 0.03822796791791916 -0.03133942931890488 -0.3842602074146271 0.1262539178133011 0.10493683815002441 0.12675850093364716 -0.04421909898519516 -0.29927170276641846 0.44051840901374817 0.23018662631511688 0.002093729330226779 -0.33221402764320374 -0.15260112285614014 0.17560480535030365 -0.2665172517299652 0.22693032026290894 -0.16022759675979614 -0.11546298861503601 -0.38020777702331543 -0.3552544116973877 0.21964551508426666 0.08657055348157883 -0.11327585577964783 -0.03736678883433342 0.16292640566825867 -0.03856886178255081 -0.47794294357299805 -0.16265654563903809 0.19285032153129578 -0.39090070128440857 0.137899249792099 0.024415677413344383 -0.21250799298286438 0.2952362298965454 0.3753553628921509 -0.20075809955596924 0.015513482503592968 -0.11901368945837021 0.21978195011615753 0.08918771892786026 -0.1192961260676384 -0.05669494718313217 -0.10042217373847961 0.018453292548656464 -0.08813811093568802 0.05828316882252693 -0.12276821583509445 0.2571411728858948 0.11336531490087509 0.10315067321062088 -0.20956724882125854 -0.06791415810585022 -0.23528240621089935 -0.09986182302236557 0.3356131315231323 0.13913322985172272 -0.07320164144039154 0.05416318401694298 -0.06358956545591354 -0.12958241999149323
so 0.264731228351593 -0.017201853916049004 -0.028843140229582787 0.0991692766547203 -0.07446891814470291 0.21416129171848297 0.1147262454032898 0.04686291143298149 0.19486850500106812 -0.11862131953239441 -0.009902368299663067 0.08329785615205765 0.08476921916007996 0.30326950550079346 -0.23170553147792816 0.25236618518829346 -0.10220897942781448 -0.16643477976322174 0.08335600048303604 0.03667747229337692 0.05076191574335098 -0.04976702481508255 0.1935655176639557 0.0071106357499957085 -0.055489011108875275 -0.1414724439382553 0.21377184987068176 0.2291186898946762 0.04090919718146324 0.07556894421577454 -0.05786989629268646 0.0012898043496534228 -0.22863993048667908 -0.27567780017852783 -0.2119331806898117 -0.07817665487527847 -0.4003921449184418 -0.11922753602266312 0.08320965617895126 0.0930730402469635 -0.08670490980148315 0.07806509733200073 -0.33087971806526184 -0.01314817275851965 0.0710015520453453 0.06490755826234818 -0.03204348310828209 -0.026256775483489037 0.27299097180366516 -0.10856551676988602 -0.20395034551620483 0.11427538096904755 0.0736101046204567 -0.03175833448767662 -0.3091603219509125 0.10077067464590073 0.13481299579143524 -0.021259749308228493 0.1277683675289154 0.09334248304367065 -0.16335982084274292 0.14010195434093475 0.18711291253566742 0.13172154128551483 -0.026006242260336876 0.31880247592926025 0.049147699028253555 0.18552960455417633 -0.1757739782333374 0.08310183882713318 0.21902532875537872 -0.07565039396286011 0.007169928401708603 0.09148065745830536 0.02205056883394718 0.25703108310699463 0.011586901731789112 0.021250450983643532 0.07743732631206512 0.13063284754753113 -0.02462426945567131 -0.09005279093980789 0.26000139117240906 0.16832593083381653 0.4027264714241028 -0.2139410674571991 -0.021970234811306 0.030592523515224457 -0.17780934274196625 -0.04626709967851639 0.09950532764196396 -0.14733004570007324 0.12345971167087555 -0.03685795143246651 -0.25475507974624634 0.04257051274180412 -0.15222260355949402 -0.0923793837428093 0.19326424598693848 -0.11074306070804596
a -0.43155038356781006 0.016087915748357773 -0.18973419070243835 -0.1237202137708664 0.580043613910675 0.24599389731884003 -0.1536460965871811 -0.4838755428791046 -0.06964502483606339 -0.1725839376449585 0.3032165765762329 0.013666960410773754 -0.29502177238464355 0.19755803048610687 -0.2810834050178528 -0.041601672768592834 -0.1257360875606537 -0.24846969544887543 -0.11525768041610718 -0.30890554189682007 0.2544248402118683 -0.09550710767507553 0.10693477839231491 0.09122331440448761 -0.23104487359523773 0.04607443884015083 0.14096009731292725 0.42697378993034363 0.36620214581489563 0.4037872850894928 -0.06490831077098846 -0.07062765955924988 0.2419128715991974 0.1047525629401207 -0.1419191062450409 -0.2116372436285019 -0.6146878600120544 -0.1773754209280014 -0.29893118143081665 -0.15947189927101135 -0.18269477784633636 0.05701347813010216 -0.45007458329200745 0.42457690834999084 -0.01931958645582199 0.19847217202186584 0.014693338423967361 -0.027957063168287277 -0.031465835869312286 0.12785525619983673 -0.003117470070719719 -0.14182977378368378 -0.22557193040847778 0.09656058251857758 0.24619337916374207 -0.03398548811674118 0.20924285054206848 0.17823421955108643 -0.38745051622390747 -0.04624396935105324 -0.23344193398952484 0.01750795915722847 -0.38499948382377625 0.32914435863494873 0.003834925591945648 -0.20068097114562988 0.06980545818805695 -0.014002113603055477 0.03656378015875816 -0.04920174553990364 0.019178472459316254 -0.1669393926858902 0.1212325468659401 -0.0882510095834732 -0.2767569124698639 0.24142694473266602 0.16838958859443665 -0.23068858683109283 -0.08523304015398026 0.14270661771297455 -0.2834431231021881 0.05190449580550194 0.11584198474884033 0.15220415592193604 -0.09501229971647263 0.13660316169261932 0.26925957202911377 0.11939574778079987 -0.013382020406425 0.07601290196180344 0.2971327006816864 -0.043372128158807755 -0.17248542606830597 -0.18093980848789215 0.06021418794989586 0.11686528474092484 0.11815481632947922 0.025086449459195137 -0.05563368275761604 -0.3009849786758423
think 0.07469756156206131 0.13949690759181976 -0.16859464347362518 -0.16876159608364105 -0.020036613568663597 0.058694884181022644 0.13522814214229584 0.19131618738174438 -0.06167528033256531 0.11022814363241196 0.066243015229702 -0.03844195604324341 -0.016079960390925407 0.27728334069252014 0.02888176031410694 0.4226788282394409 -0.07356197386980057 0.290268212556839 0.003798503428697586 0.02306637167930603 0.014239341951906681 -0.2090875208377838 0.09698675572872162 0.174442857503891 -0.0516384020447731 -0.10554447770118713 -0.022947054356336594 -0.14194133877754211 0.22031262516975403 -0.14349591732025146 0.2392185628414154 0.011670926585793495 -0.057781390845775604 0.1722130924463272 -0.05048356205224991 -0.2932123839855194 -0.0018810428446158767 -0.06857214123010635 0.04958057776093483 0.2979305684566498 0.295218825340271 0.01680643856525421 0.20804424583911896 -0.2800714373588562 -0.04736099764704704 -0.3301868438720703 -0.16683748364448547 0.013669850304722786 0.04641055315732956 0.364407479763031 0.3183498978614807 -0.20728814601898193 -0.16413483023643494 -0.353857159614563 0.06455405056476593 -0.11718828231096268 0.24255475401878357 0.08821839094161987 0.1250266432762146 -0.24893070757389069 -0.06066368147730827 0.012365590780973434 0.16104623675346375 0.24107927083969116 -0.1703544408082962 -0.10742726922035217 -0.07319340109825134 0.06276485323905945 0.03275659680366516 0.007168506737798452 -0.36790746450424194 0.03735985979437828 0.323555052280426 0.054991040378808975 -0.11163194477558136 0.02032763697206974 -0.09976349771022797 -0.03988884016871452 0.2032804638147354 -0.28161442279815674 0.24247655272483826 -0.032532621175050735 0.14334002137184143 0.004349938128143549 0.17442482709884644 -0.316732794046402 0.17727643251419067 0.18267884850502014 0.13054011762142181 -0.16856613755226135 0.11075876653194427 0.08103593438863754 0.18912537395954132 0.05770742520689964 -0.1488853394985199 0.29153820872306824 -0.08500486612319946 0.012700623832643032 -0.03845818340778351 -0.03704777732491493
set -0.1695958375930786 0.09577255696058273 -0.0028397436253726482 -0.22130757570266724 0.2014901041984558 -0.06352882832288742 0.15427005290985107 0.02385598048567772 0.12560755014419556 -0.07984047383069992 -0.07458683848381042 0.1681542843580246 0.10545425117015839 -0.1421801894903183 0.12880799174308777 0.12101944535970688 0.11317530274391174 0.09815663844347 -0.057368963956832886 0.15805232524871826 -0.14930063486099243 -0.09063248336315155 0.023510176688432693 0.03550324589014053 -0.13814260065555573 -0.03254201263189316 -0.062266573309898376 -0.041181255131959915 -0.14438556134700775 -0.19519677758216858 0.08729182183742523 -0.02763594314455986 0.040786076337099075 -0.05007980018854141 0.15395304560661316 0.02222353219985962 0.39002707600593567 -0.3307952582836151 -0.09695753455162048 -0.1549978107213974 -0.23125547170639038 -0.03941457346081734 -0.11683514714241028 0.008515794761478901 -0.05846903473138809 -0.15321007370948792 0.05391450226306915 0.02835661545395851 -0.17432570457458496 0.05185522139072418 0.008173760026693344 0.12932910025119781 0.021384570747613907 0.20797179639339447 -0.18773692846298218 0.12250807881355286 -0.16803324222564697 0.10595496743917465 -0.031095346435904503 -0.15302245318889618 0.05392022430896759 -0.018669163808226585 -0.011438758112490177 0.061577536165714264 -0.015008009970188141 -0.08849120885133743 -0.13335849344730377 -0.0372203104197979 0.2109462171792984 0.10204337537288666 -0.0015353469643741846 -0.10545256733894348 -0.07990185916423798 0.08132965862751007 0.06675241887569427 0.08546195179224014 0.11081913113594055 0.04958251491189003 0.15648852288722992 0.1858515441417694 0.4057152271270752 -0.01541677676141262 -0.07778821885585785 -0.06416649371385574 0.04362236708402634 0.07615912705659866 -0.05108928307890892 0.2670363187789917 -0.010512820445001125 -0.06477860361337662 -0.13618209958076477 0.08609603345394135 -0.1409614384174347 -0.10541900992393494 0.05910240486264229 -0.11596816778182983 0.035937100648880005 0.14403973519802094 -0.0704062357544899 -0.044457606971263885
