been 0.5660229921340942 -0.2858928143978119 0.3830343186855316 -0.021735720336437225 0.18605682253837585 -0.2730427384376526 -0.07381302118301392 -0.26502612233161926 0.23210902512073517 0.3062620162963867 0.16726090013980865 0.11269747465848923 -0.3169444501399994 -0.12931275367736816 -0.5513192415237427 0.5183080434799194 -0.11884528398513794 0.12288368493318558 -0.09889790415763855 -0.17081621289253235 -0.07517392188310623 -0.05884715914726257 0.011257974430918694 0.10739331692457199 -0.29237157106399536 0.5888197422027588 0.06114469841122627 0.223900705575943 -0.13660839200019836 -0.01976015232503414 -0.6915878057479858 0.15509241819381714 0.2869607210159302 0.0550343282520771 -0.01501373015344143 0.007226517423987389 0.19361072778701782 0.35701316595077515 0.1338617205619812 -0.016029298305511475 0.23107045888900757 -0.26513147354125977 0.12790794670581818 -0.16370539367198944 -0.4844495356082916 0.11182795464992523 0.008127166889607906 -0.24604089558124542 -0.4325665533542633 -0.2782607078552246 -0.2745402157306671 0.04459860548377037 0.2716974914073944 -0.11032175272703171 -0.15852762758731842 0.07145442813634872 0.05152129381895065 -0.07623470574617386 0.13744154572486877 -0.33550652861595154 -0.20496252179145813 0.11949707567691803 0.158605694770813 -0.06665513664484024 0.13983100652694702 -0.5080740451812744 0.4424040615558624 -0.06163089722394943 0.602643609046936 -0.5800965428352356 -0.12746767699718475 0.38012251257896423 -0.26501214504241943 -0.2019474357366562 0.009230270981788635 0.03482573479413986 0.011945637874305248 0.22024022042751312 -0.06031717360019684 -0.6866075396537781 -0.16929803788661957 -0.029703857377171516 -0.12281965464353561 0.12159551680088043 -0.35786452889442444 0.3569653034210205 -0.16505904495716095 0.22296148538589478 0.2014210820198059 -0.3667081594467163 0.18939140439033508 0.2625983655452728 0.2533641457557678 0.08024750649929047 -0.15407325327396393 0.3530060946941376 -0.01919376477599144 0.45257410407066345 -0.10964128375053406 -0.407370924949646
year 0.21703864634037018 0.025545289739966393 0.19334949553012848 0.21641497313976288 -0.10988718271255493 0.1942000389099121 -0.19275672733783722 0.10514170676469803 -0.5234566330909729 -0.24393899738788605 -0.07769867032766342 0.2830529808998108 0.23502826690673828 -0.2340994030237198 -0.13671064376831055 0.09066712111234665 0.41128119826316833 -0.008230186067521572 -0.044600341469049454 0.04336800426244736 0.07770159840583801 -0.04999377951025963 0.16831941902637482 -0.10126256197690964 -0.4021511673927307 0.14131242036819458 -0.12151578068733215 0.0889868289232254 0.02934618480503559 0.20187613368034363 -0.36156147718429565 -0.31443989276885986 0.0961572453379631 0.13908162713050842 -0.5538651347160339 -0.1708439141511917 -0.2991233766078949 -0.04024829342961311 -0.058749228715896606 -0.010421205312013626 0.06376767158508301 -0.20966829359531403 -0.06141921505331993 -0.3318825960159302 -0.1688704937696457 0.03863242268562317 0.11438997089862823 -0.11276011914014816 -0.20729771256446838 0.10537394881248474 0.3903352618217468 -0.08363856375217438 -0.519148588180542 0.371560662984848 -0.07206200063228607 -0.10003003478050232 0.18469485640525818 -0.4190295934677124 0.6783401370048523 -0.4016294777393341 0.07884293794631958 0.2702709138393402 -0.1047392413020134 0.5581477880477905 0.007740034721791744 -0.21326227486133575 0.13290292024612427 -0.3419716954231262 -0.24980998039245605 -0.19023367762565613 -0.18373216688632965 -0.3335939049720764 0.07261963933706284 0.1802760511636734 -0.19033963978290558 0.1574396938085556 -0.07828201353549957 -0.08707854151725769 0.20768427848815918 0.08712460100650787 0.006697478704154491 0.25292491912841797 0.16525068879127502 -0.17526128888130188 0.10882158577442169 0.47679147124290466 0.20680499076843262 0.02775239571928978 -0.13275037705898285 -0.5255290865898132 -0.06762029230594635 -0.20259536802768707 -0.06470649689435959 0.05346689373254776 -0.004239995032548904 0.2697876989841461 -0.061181385070085526 0.2565106153488159 -0.2003381997346878 -0.09533598273992538
about 0.11839152127504349 -0.16223402321338654 0.3360794186592102 0.05627771094441414 -0.12202323228120804 0.22959749400615692 -0.09776785969734192 0.2502804100513458 0.06250417232513428 -0.2772316336631775 -0.01686030626296997 -0.29200616478919983 0.08788321912288666 0.5028071403503418 -0.03014039807021618 0.03663792461156845 0.31889981031417847 0.3001740574836731 0.1470346599817276 0.2538418471813202 0.11099821329116821 0.23495976626873016 0.1660018116235733 0.11331421881914139 -0.19648076593875885 -0.06494191288948059 0.11039876192808151 -0.27195215225219727 0.04316150024533272 -0.01679263263940811 0.0695171058177948 0.16897869110107422 -0.06741330772638321 0.04128922149538994 -0.2690487504005432 -0.09273248165845871 -0.08069150894880295 0.0826200619339943 0.4964735209941864 -0.07923965156078339 0.021527651697397232 -0.10783946514129639 -0.10613006353378296 -0.1542854905128479 0.30605533719062805 0.009005841799080372 0.1364957094192505 0.18563705682754517 -0.22682514786720276 0.28898945450782776 0.1298539638519287 -0.024755259975790977 0.06488487124443054 0.2976320683956146 -0.08946125954389572 -0.21332816779613495 0.08114089071750641 0.1308048516511917 -0.0654207393527031 -0.10596468299627304 -0.1664261370897293 -0.13034948706626892 0.11438006907701492 0.055967770516872406 -0.37946420907974243 0.08590107411146164 -0.08417997509241104 -0.0019514880841597915 0.0557238906621933 -0.24089591205120087 -0.4228367507457733 0.15257053077220917 -0.11182169616222382 -0.01207030564546585 -0.4771854281425476 -0.35073229670524597 0.24414798617362976 -0.20070584118366241 -0.11172603070735931 -0.5721483826637268 -0.08302293717861176 -0.13950075209140778 -0.09057456254959106 -0.21991044282913208 0.012640099972486496 0.34546518325805664 -0.18862441182136536 0.08808904886245728 -0.2494564950466156 0.0021256753243505955 0.17373165488243103 0.3588917851448059 -0.08904372900724411 0.14627251029014587 0.13656669855117798 -0.3373008370399475 -0.3233191967010498 -0.27981528639793396 -0.24790358543395996 0.12968724966049194
your -0.07199026644229889 -0.16896124184131622 -0.13046462833881378 0.1343604028224945 -0.13789720833301544 0.24151752889156342 -0.28006458282470703 -0.30505266785621643 -0.04501480609178543 0.14163270592689514 -0.2583732008934021 -0.08494573831558228 0.3447439670562744 0.656926155090332 0.21963036060333252 -0.062071844935417175 0.34721142053604126 0.08705271780490875 0.1887708157300949 -0.03944069892168045 -0.2601736783981323 0.001650168327614665 0.019655562937259674 -0.28134024143218994 0.08634023368358612 0.01910296268761158 0.1777193397283554 0.03428615629673004 0.2966182231903076 0.5111034512519836 -0.06901047378778458 0.419623464345932 0.030502988025546074 0.5060093402862549 0.14831019937992096 0.17069493234157562 0.11855383962392807 -0.15985527634620667 -0.06753253191709518 -0.2394839972257614 0.026948232203722 0.11888053268194199 -0.04371717572212219 0.027214597910642624 0.0029534101486206055 -0.1650627851486206 -0.16867713630199432 0.09453791379928589 -0.22484782338142395 -0.3042389750480652 -0.023493045940995216 -0.041666679084300995 -0.3336973786354065 0.22871902585029602 -0.15254658460617065 -0.009129432961344719 -0.010646812617778778 0.36169618368148804 -0.007670682854950428 0.3529475927352905 0.31717631220817566 -0.21825693547725677 -0.251484751701355 0.17258256673812866 0.3510197699069977 -0.06041867285966873 -0.3143637180328369 -0.03095385804772377 -0.07330748438835144 0.06287705898284912 0.1719135195016861 0.14991235733032227 0.10312431305646896 0.10832686722278595 -0.07632529735565186 -0.08008275926113129 -0.30813097953796387 0.063013456761837 -0.28033363819122314 -0.3318442404270172 -0.35308972001075745 0.3872776925563812 -0.11071540415287018 -0.26751410961151123 0.07010257244110107 0.028916165232658386 -0.21053147315979004 -0.05534958094358444 0.15747904777526855 -0.09531036019325256 -0.06251825392246246 0.27955710887908936 -0.0818646028637886 -0.21936291456222534 -0.08334185183048248 -0.20767171680927277 -0.007247056812047958 -0.05482183024287224 0.23179024457931519 -0.07933375239372253
without -0.10577632486820221 -0.2323983758687973 -0.025220997631549835 0.061191216111183167 -0.12358889728784561 0.13642452657222748 0.32307931780815125 -0.17133264243602753 0.08191405236721039 0.1651397943496704 -0.3677547574043274 -0.1397893875837326 -0.060394659638404846 0.15610192716121674 0.0541495718061924 -0.05990613251924515 0.10000781714916229 0.18589118123054504 0.27573108673095703 0.16688144207000732 -0.15751950442790985 0.027320554479956627 -0.1714155375957489 0.2966504991054535 0.07333608716726303 0.060187406837940216 0.148492693901062 0.20024874806404114 0.01378730870783329 0.3333356976509094 0.015428721904754639 0.012307909317314625 0.07186197489500046 0.10053876042366028 -0.09436532855033875 0.07637431472539902 -0.15109911561012268 0.01688375510275364 -0.1529519259929657 0.15313604474067688 0.15867802500724792 -0.026104433462023735 -0.02622332237660885 -0.36575740575790405 0.09862211346626282 0.0596541203558445 -0.12254069000482559 -0.1578420102596283 -0.11187388002872467 0.2631043493747711 0.20464405417442322 0.07146618515253067 -0.014011552557349205 -0.08822847902774811 0.13303717970848083 -0.10347708314657211 0.21253034472465515 -0.00858386792242527 -0.20830684900283813 -0.0802336111664772 0.028829019516706467 0.3476337790489197 0.09187094867229462 -0.26805970072746277 -0.09530159831047058 -0.2699035108089447 0.24075953662395477 -0.3134564161300659 -0.15221905708312988 -0.021975990384817123 0.13456997275352478 -0.0774659514427185 -0.04502326250076294 0.06378377974033356 0.31700000166893005 -0.17046985030174255 -0.3673761487007141 -0.043742772191762924 -0.04273705184459686 -0.502145528793335 0.10639649629592896 0.23723414540290833 0.04338449984788895 -0.15183883905410767 -0.1486094743013382 0.39676401019096375 -0.25688618421554565 -0.1796204149723053 -0.11530514806509018 -0.08802580833435059 -0.07954543083906174 -0.12576468288898468 0.09764581173658371 0.10071885585784912 -0.10404825955629349 0.011988413520157337 0.1260214000940323 0.2207423448562622 -0.31663593649864197 -0.15317495167255402
these 0.030751124024391174 0.04918210953474045 -0.251415878534317 0.10016597807407379 -0.37659120559692383 -0.08421750366687775 -0.12854696810245514 0.08621048927307129 0.14280825853347778 0.1504741907119751 -0.05579441413283348 -0.050371550023555756 -0.09547647833824158 -0.07430390268564224 0.2439706027507782 0.13444146513938904 -0.14599445462226868 -0.14762292802333832 0.050762832164764404 -0.14423009753227234 0.03881734237074852 -0.08309616148471832 0.2929074764251709 0.5041416883468628 0.1903066188097 0.06708454340696335 -0.04348992183804512 -0.046413544565439224 -0.054270610213279724 0.36074748635292053 0.11274214833974838 0.02554851770401001 -0.09225048124790192 0.17446862161159515 -0.5104683637619019 -0.024742893874645233 -0.37987014651298523 -0.005415010266005993 0.4614070653915405 0.20952223241329193 0.29973074793815613 0.2908705770969391 -0.08281099796295166 -0.13671274483203888 0.1529107391834259 0.10090045630931854 0.2201598584651947 -0.1134122684597969 -0.0032373855356127024 -0.14771915972232819 -0.38493719696998596 0.09111403673887253 0.12566591799259186 -0.46939367055892944 -0.06135105341672897 0.4247683584690094 -0.3979845643043518 -0.11558999121189117 0.09975863993167877 0.5124446153640747 -0.2313222885131836 -0.017420854419469833 0.07826964557170868 -0.15545938909053802 -0.2240728735923767 -0.15246398746967316 -0.2632698118686676 0.10188496857881546 -0.327183336019516 -0.014975558035075665 -0.03516077250242233 0.32545021176338196 0.18094554543495178 0.11946264654397964 0.3114966154098511 0.09492170065641403 -0.1515188366174698 -0.17741794884204865 -0.49437424540519714 0.20348672568798065 0.1884513944387436 0.28943654894828796 0.07128269970417023 -0.0734248161315918 0.34252482652664185 -0.026556694880127907 -0.41963669657707214 0.1574968844652176 0.18318313360214233 -0.03813428059220314 0.23717276751995087 0.14911380410194397 -0.38248410820961 0.15639883279800415 -0.469944030046463 -0.10543224215507507 -0.05767405405640602 -0.28858837485313416 -0.030782300978899002 -0.2366611212491989
companies -0.048949696123600006 0.08749862760305405 -0.0678960382938385 0.09679539501667023 -0.16739070415496826 -0.2576069235801697 0.09513526409864426 -0.10632433742284775 0.017005138099193573 0.15019632875919342 -0.07176505029201508 0.20018543303012848 -0.043130021542310715 -0.11546826362609863 0.027222972363233566 0.19580744206905365 0.13277176022529602 0.21051563322544098 -0.17406940460205078 -0.1276579648256302 -3.5225896863266826E-4 0.07182174921035767 0.21953359246253967 0.28706690669059753 -0.04817445948719978 -0.05439063906669617 0.19214099645614624 -0.03843766823410988 -0.022304639220237732 -0.028907347470521927 -0.04901392012834549 -0.03830428048968315 0.039483003318309784 -0.06465627998113632 -0.17595995962619781 0.02652202732861042 -0.013682125136256218 0.046794965863227844 0.03412190452218056 0.02460033819079399 0.1305854767560959 0.10136004537343979 0.05526221543550491 -0.13471077382564545 0.12984342873096466 0.010130207985639572 0.13624584674835205 0.010663159191608429 0.030749330297112465 0.062439095228910446 0.18622078001499176 0.006297508254647255 0.21345125138759613 -0.05291173607110977 -0.02629282884299755 0.22479906678199768 -0.3460211455821991 -0.23921914398670197 -0.08156561851501465 0.3310229778289795 0.20754680037498474 -0.10172192007303238 0.02450011856853962 -0.23601286113262177 0.038410723209381104 0.10277774930000305 -0.09551054239273071 -0.011540363542735577 -0.13848169147968292 0.006708299741148949 0.05879974365234375 -0.03619224578142166 -0.01692172884941101 -0.014855981804430485 0.13474109768867493 0.17360882461071014 -0.060809988528490067 -0.1523216962814331 -0.14177945256233215 0.1264832615852356 -0.059026554226875305 0.26015451550483704 0.24465210735797882 -0.14876557886600494 0.09458082914352417 0.028400670737028122 -0.03235669806599617 -0.07696060836315155 0.05788200721144676 0.05543328821659088 0.11953767389059067 0.17563700675964355 -0.10004466772079468 -0.19169749319553375 -0.14190876483917236 0.24455952644348145 -0.1383875161409378 0.12118223309516907 0.17001335322856903 -0.1042250543832779
music -0.10909316688776016 0.10713312029838562 0.07657429575920105 -0.14074310660362244 0.1689939796924591 -0.14983737468719482 0.06593740731477737 0.31996893882751465 -0.1508762091398239 0.011416657827794552 -0.08936415612697601 0.15313196182250977 0.14726485311985016 0.22623281180858612 -0.07812386006116867 0.22171472012996674 0.14341852068901062 -0.02066648192703724 -0.09880974143743515 0.014848478138446808 0.033050041645765305 -0.14065420627593994 0.010254298336803913 -0.3260691165924072 -0.119588203728199 4.647874739021063E-4 -0.27844497561454773 -0.24549145996570587 0.028516573831439018 -0.23937836289405823 -0.20880118012428284 -0.3493531346321106 -0.07014693319797516 -0.17792455852031708 0.07564548403024673 -0.030187861993908882 -0.15616615116596222 0.10264736413955688 0.1630018651485443 0.009071891196072102 -0.024038787931203842 0.22511401772499084 0.16949759423732758 0.041111163794994354 0.16906487941741943 -0.02408708445727825 -0.12228699028491974 -0.08892323821783066 0.05442828685045242 0.17313601076602936 0.1434379667043686 0.2301228940486908 0.049394071102142334 -0.005080605857074261 -0.12551149725914001 -0.023197202011942863 0.02224539965391159 -0.10320694744586945 -0.17458057403564453 0.1375437080860138 0.14795544743537903 -0.15696607530117035 -0.22225721180438995 0.15805299580097198 0.06233258917927742 0.06352177262306213 -0.0017566736787557602 -0.1201140508055687 -0.22027720510959625 -0.10240399837493896 0.17200374603271484 -0.06944947689771652 -0.05887586995959282 -0.1591728925704956 -0.24829450249671936 0.03379140421748161 -0.14064010977745056 0.055461347103118896 0.023951716721057892 0.022877924144268036 -0.186717689037323 0.2520860433578491 0.014693042263388634 -0.017939448356628418 0.002780449576675892 -0.05561200529336929 0.04514909163117409 0.21332783997058868 0.1331125944852829 0.0867379829287529 0.3349148631095886 -0.002143321093171835 0.11256644129753113 -0.06464806199073792 0.10773221403360367 -0.16304367780685425 0.07885314524173737 0.07305076718330383 0.019753940403461456 0.12573769688606262
would -0.1953257918357849 -0.12243103981018066 0.10028804838657379 -0.28961366415023804 0.15848100185394287 0.08517332375049591 -0.3269822299480438 0.13920442759990692 -0.08191575109958649 0.3500458896160126 0.09744004160165787 0.01899074763059616 0.1576712280511856 -0.3055092692375183 -0.3057537078857422 -0.2975965738296509 0.21291954815387726 0.010021275840699673 0.08399436622858047 -0.35616281628608704 0.007711923681199551 0.19927269220352173 -0.40470370650291443 0.10047576576471329 1.788788940757513E-4 -0.08560379594564438 0.01827067695558071 -0.25058814883232117 -0.287206768989563 0.2298540323972702 0.10045118629932404 -0.12577319145202637 0.2362169474363327 0.18216776847839355 -0.1293126940727234 0.36161133646965027 0.2665618360042572 0.25871631503105164 0.10777894407510757 0.01020013727247715 0.06439467519521713 0.14984573423862457 -0.06519756466150284 0.06606218218803406 0.07804431766271591 0.31708285212516785 0.2101619839668274 0.1873890906572342 0.034021224826574326 -0.036694034934043884 0.20906396210193634 -0.24639800190925598 0.21289396286010742 -0.3284558951854706 0.3549756109714508 -0.013168653473258018 0.23729081451892853 -0.021018341183662415 -0.09937901049852371 0.05244757980108261 -0.013592185452580452 0.11498736590147018 -0.14124341309070587 -0.18320000171661377 0.24419963359832764 -0.10896489769220352 0.25418224930763245 0.019792310893535614 0.03146395832300186 -0.027441319078207016 0.18108007311820984 -0.14988626539707184 0.10838614404201508 0.1072683185338974 0.052961915731430054 -0.2045736312866211 0.04466499760746956 0.09301605820655823 -0.07599835842847824 -0.1985664814710617 -0.08221577852964401 0.24405866861343384 -0.039498455822467804 0.20443972945213318 0.17296156287193298 0.13771992921829224 0.16996833682060242 -0.1328960508108139 -0.18468788266181946 0.02879715897142887 -0.2651594579219818 -0.1707838922739029 -0.11086258292198181 0.04913029447197914 -0.005543088540434837 -0.02856248989701271 0.28317251801490784 -0.042006101459264755 0.005236299242824316 -0.05875372886657715
because -0.26193034648895264 0.051547788083553314 -0.2895166873931885 -0.1161029264330864 -0.0861060842871666 0.026663076132535934 -0.014807619154453278 0.005223184358328581 0.2174990475177765 0.08644317835569382 0.0018696346087381244 0.16361799836158752 -0.020564354956150055 -0.03663055971264839 -0.12490244954824448 -0.14921791851520538 0.00997831765562296 0.03216683119535446 0.2848984897136688 -0.14339473843574524 0.056611787527799606 -0.08284923434257507 0.011155575513839722 -0.05284249410033226 0.053764183074235916 0.1040390208363533 -0.051417045295238495 0.396544486284256 0.017930977046489716 -0.1295262575149536 -0.06325474381446838 0.07031446695327759 -0.05708008632063866 -0.09066692739725113 -0.15620559453964233 0.10356829315423965 -0.27663731575012207 0.05945008993148804 0.08626777678728104 0.023809537291526794 0.05957354977726936 -0.1288335770368576 -0.005010552704334259 -0.004566132556647062 -0.07003211975097656 0.15590150654315948 0.18993891775608063 -0.07936215400695801 -0.10882168263196945 0.1658134013414383 0.17004933953285217 0.25611627101898193 0.2860099971294403 -0.18931856751441956 -0.23511040210723877 -0.04667426645755768 0.18258492648601532 -0.021731285378336906 -0.23851090669631958 -0.044480614364147186 0.2537447512149811 0.2162970006465912 0.11719642579555511 -0.08149798959493637 -0.17868849635124207 -0.06475506722927094 -0.004380408674478531 -4.8351939767599106E-4 -0.10881457477807999 0.1270025074481964 -0.022772040218114853 0.27203547954559326 0.08526816219091415 0.041935503482818604 -0.09755216538906097 0.13200877606868744 -0.1382685750722885 0.09080293029546738 0.22578012943267822 -0.18815268576145172 0.008980102837085724 -0.014211926609277725 0.0389217846095562 0.0864233672618866 0.06830768287181854 -0.08890566974878311 -0.10938072949647903 0.11857791990041733 -0.051811814308166504 -0.07840403914451599 0.11519847810268402 0.09039025753736496 0.13817353546619415 0.013682173565030098 -0.024288080632686615 0.018363121896982193 0.11405353993177414 -0.06762277334928513 -0.05167408287525177 0.17912712693214417
state -0.18796855211257935 0.049446746706962585 0.06614364683628082 0.14152246713638306 -0.019872445613145828 -0.037229035049676895 0.12144523859024048 0.04193589836359024 -0.07558222860097885 -0.32532739639282227 -0.0849376767873764 0.16860342025756836 -0.14706642925739288 -0.11005181074142456 -0.017542166635394096 0.3222652077674866 0.24147596955299377 0.327178418636322 0.10083113610744476 0.06190238147974014 -0.1245546042919159 -0.011580334044992924 0.08952364325523376 -0.012501734308898449 -0.08152280747890472 0.05143039673566818 -0.16777096688747406 -0.08220615983009338 -0.17992885410785675 -0.020874522626399994 0.026949193328619003 -0.21980595588684082 0.029807884246110916 -0.017066510394215584 0.16402557492256165 0.19108007848262787 -0.26060572266578674 0.04137848690152168 0.011277316138148308 0.24752868711948395 -0.11746733635663986 0.2508082389831543 0.08218687027692795 -0.08182895928621292 0.19207248091697693 -0.12112417072057724 0.026710525155067444 -0.1324186623096466 -0.019568342715501785 0.039630234241485596 0.3175601065158844 0.08853725343942642 -0.09114882349967957 -0.13139931857585907 -0.11050178110599518 -0.06850714981555939 -0.1596318930387497 -0.016593623906373978 0.08902471512556076 0.24838528037071228 0.12455930560827255 -0.004548715427517891 -0.09551487863063812 0.3152807056903839 -0.12479522079229355 0.060142211616039276 -0.03306654840707779 -0.34229356050491333 -0.13133548200130463 -0.19715330004692078 0.05204647406935692 -0.1049351841211319 0.12576411664485931 -0.13479021191596985 0.1273294985294342 0.2580163776874542 -0.10356508195400238 -0.19332286715507507 -0.21088002622127533 -0.05729696527123451 -0.22177328169345856 0.11714418977499008 0.1488664448261261 -0.14254091680049896 -0.12939386069774628 0.3882167339324951 -0.049569111317396164 0.06006431207060814 -0.03004622831940651 0.012557808309793472 0.25693386793136597 -0.13733462989330292 0.15569736063480377 0.010402468964457512 -0.21006380021572113 0.08024366945028305 -0.04944048076868057 0.05284837260842323 0.0435006208717823 -0.22822235524654388
they 0.03732270747423172 0.026495587080717087 -0.07180862873792648 -0.20847705006599426 -0.02109193056821823 -0.1928970366716385 -0.036324042826890945 -0.12921977043151855 0.01570185460150242 0.1461295187473297 -0.14243851602077484 -0.18015709519386292 -0.3241567611694336 -0.06106867268681526 -0.19015105068683624 -0.2572546899318695 -0.0016417906153947115 0.04603395238518715 0.035335950553417206 -0.3568110764026642 0.04912947118282318 0.0015868938062340021 0.10465747863054276 0.13499683141708374 -0.03372104465961456 -0.19959676265716553 0.1752457171678543 -0.2290319949388504 0.2088632434606552 0.34561118483543396 -0.03469972312450409 -0.223271906375885 -0.022905340418219566 0.007101565599441528 -0.056174200028181076 -0.19706663489341736 -0.009331705048680305 -0.20135264098644257 0.012316743843257427 0.21592146158218384 -0.024614447727799416 -0.06328736245632172 -0.14009051024913788 -0.20605182647705078 -0.06125742942094803 -0.2898441553115845 0.22266951203346252 -0.006872755941003561 0.22184312343597412 0.07168693095445633 0.09948334842920303 -0.0975668728351593 0.09287828952074051 -0.1229887381196022 -0.09822528064250946 0.09518519788980484 0.03229258209466934 0.3330658972263336 0.028268972411751747 0.3358599841594696 -0.17212264239788055 0.18487495183944702 -0.1775575578212738 0.0037942815106362104 0.07407581806182861 -0.10025594383478165 -0.038538601249456406 0.2228158563375473 0.18742692470550537 -0.06471949070692062 -0.09845224767923355 -0.03217979893088341 -0.040928371250629425 -0.035347823053598404 0.2111739218235016 0.07003089040517807 0.2211580127477646 -0.09499067813158035 -0.06918853521347046 0.29100170731544495 0.10474961996078491 0.13456866145133972 -0.02284861169755459 -0.4279744029045105 0.08622746169567108 0.15541841089725494 -0.18248578906059265 -0.15535366535186768 0.18658007681369781 0.08009424060583115 -8.421303937211633E-4 0.13428924977779388 -0.5692508220672607 -0.050372414290905 0.06324788928031921 -0.2204185575246811 0.0067909895442426205 -0.04468536376953125 0.007102610543370247 0.1535552740097046
you -0.2326781302690506 0.23762443661689758 0.12458100914955139 -0.05030433461070061 -0.041518621146678925 -0.1856994926929474 -0.03457440808415413 -0.1388133466243744 0.09745953977108002 0.02366991527378559 -0.04098709672689438 -0.19534778594970703 -0.15035943686962128 -0.21999496221542358 0.0016878093592822552 -0.15018732845783234 -0.07353705167770386 -0.04335976764559746 -0.06484896689653397 -0.1761055290699005 0.29803749918937683 0.2043553739786148 -0.19249612092971802 -0.05826659873127937 0.17776422202587128 -0.04030299559235573 0.009436354041099548 -0.18704825639724731 0.2577531337738037 0.21545402705669403 -0.19958524405956268 -0.011004415340721607 0.14957650005817413 0.2129105180501938 0.052179038524627686 -0.08264733105897903 0.2741108238697052 -0.028360649943351746 -0.018881836906075478 -0.013731032609939575 -0.18050749599933624 -0.194935142993927 -0.08699055761098862 -0.32160186767578125 -0.17659032344818115 -0.19897882640361786 0.06114187836647034 0.019747864454984665 -0.08989260345697403 0.049582406878471375 0.19551114737987518 -0.2060658037662506 -0.06855687499046326 -0.4445095658302307 0.18304863572120667 0.19309987127780914 -0.030357269570231438 0.41081663966178894 0.10006535053253174 0.125152587890625 0.3617227375507355 -0.14024348556995392 -0.01900339312851429 0.08554816991090775 -0.28402411937713623 0.41780799627304077 -0.2354658842086792 0.29268795251846313 0.14242887496948242 0.05447124317288399 0.011494319885969162 -0.12615197896957397 -0.23144187033176422 0.09109612554311752 -0.10972431302070618 0.2625615894794464 0.271691232919693 -0.005381281953305006 -0.051878731697797775 0.14744625985622406 0.07294811308383942 0.2842662036418915 -0.20565290749073029 -0.004662798717617989 0.11345592141151428 -0.07121076434850693 0.09384948015213013 -0.2324868142604828 -0.07635652273893356 0.12100622802972794 -0.24626994132995605 0.4285035729408264 -0.19876065850257874 -0.14670123159885406 -0.14327575266361237 -0.37192702293395996 0.027462832629680634 0.10590555518865585 0.08112648874521255 -0.019310520961880684
$ -0.01306526642292738 -0.0051804883405566216 -0.022566432133316994 0.009907645173370838 0.026306357234716415 0.01203433983027935 0.014009666629135609 -0.003835750510916114 -0.014804309234023094 -0.0069122775457799435 -0.03580528497695923 0.027314964681863785 0.02320357970893383 0.0024590103421360254 0.00446543050929904 1.2284261174499989E-4 0.03563453257083893 -0.008273337036371231 0.010221672244369984 -0.019292855635285378 -0.004379409831017256 3.416716353967786E-4 -0.020461831241846085 -9.444961324334145E-5 -0.0031635211780667305 0.01959698647260666 -0.01701359823346138 0.030026288703083992 -0.0018826371524482965 0.01011697854846716 -0.011094953864812851 0.0010288292542099953 0.02086770534515381 -0.008894350379705429 -0.01653452403843403 0.005995707120746374 0.018386732786893845 0.005557425320148468 -0.03121219575405121 -0.026646364480257034 0.01231421623378992 0.0066467407159507275 0.02035330794751644 -0.0017723473720252514 -0.013621202670037746 0.03681807592511177 -0.029822800308465958 -0.017329610884189606 -0.006300279404968023 -0.022213902324438095 -0.013198038563132286 0.013977747410535812 -0.015000184997916222 0.005008194595575333 -0.005879312753677368 0.015212898142635822 -0.002730504609644413 -0.015411479398608208 -0.018929727375507355 0.030779186636209488 0.037136051803827286 -0.004371702671051025 -0.023515362292528152 -0.006172677502036095 0.03552110120654106 0.01763121224939823 -0.015965232625603676 -0.012836755253374577 -0.030268769711256027 0.036717984825372696 0.022238418459892273 -0.030222784727811813 0.0286787748336792 0.004920754116028547 0.0030497077386826277 0.013988041318953037 -0.049632057547569275 0.0042579337023198605 -0.01772627793252468 -0.011638803407549858 0.008793598040938377 0.03056795336306095 -0.006323101930320263 -0.01235969178378582 0.027448974549770355 0.012447526678442955 0.02237730845808983 -0.014087129384279251 -0.01388191245496273 0.0010013299761340022 0.00790434516966343 0.009831507690250874 0.01818642020225525 -0.0014387108385562897 0.007150649093091488 0.01762465387582779 3.207928966730833E-4 0.016232360154390335 0.030672194436192513 0.0017880680970847607
going -0.13627326488494873 -0.11477378755807877 -0.23155079782009125 -0.03344528004527092 -0.03805315122008324 0.0832013264298439 -0.4586141109466553 -0.0029353038407862186 0.10934901982545853 0.17735116183757782 0.31004124879837036 -0.28408122062683105 0.41450920701026917 -0.15343989431858063 0.026475979015231133 -0.18504698574543 -0.10901081562042236 -0.03948502987623215 0.2647605836391449 -0.2961317002773285 0.14163139462471008 0.12234662473201752 -0.22859108448028564 -0.41490253806114197 0.04246325418353081 -0.32299935817718506 -0.4544035494327545 0.07972320914268494 0.39382198452949524 0.33341801166534424 -0.392619252204895 0.2912306785583496 -0.057860881090164185 0.040888749063014984 -0.21304914355278015 0.29033544659614563 -0.09801970422267914 -0.13997390866279602 -0.14371857047080994 -0.22756683826446533 0.2800036072731018 0.10767175257205963 -0.24204732477664948 0.021934762597084045 0.005543360952287912 0.3320036232471466 -0.2960696518421173 -0.2381000816822052 -0.2130959928035736 -0.21155890822410583 0.09366358071565628 0.05576075240969658 0.29127252101898193 0.09935586154460907 0.09640572965145111 -0.15077637135982513 0.32569068670272827 0.28434446454048157 0.16201898455619812 0.027294732630252838 0.08343879878520966 0.12027935683727264 0.21956199407577515 -0.06216610595583916 0.3809894621372223 0.36802390217781067 -0.43308961391448975 0.046600524336099625 -0.049414895474910736 0.22338922321796417 -0.17763257026672363 -0.18329863250255585 0.03087879903614521 -0.002408422064036131 -0.2748892307281494 0.14206865429878235 -0.029928233474493027 0.08283469080924988 0.1357584297657013 -0.1204729899764061 -0.07151427119970322 0.07261131703853607 -0.050324492156505585 -0.31993091106414795 0.5246366858482361 -0.2720009386539459 0.18653731048107147 -0.15538138151168823 -0.07886611670255661 0.12470557540655136 -0.1366061419248581 0.09920017421245575 -0.4413599371910095 0.1206570565700531 0.06099740043282509 0.17476750910282135 -0.3674020767211914 -0.2082253098487854 -0.012340347282588482 -0.2709331512451172
old -0.05036860331892967 -0.13101503252983093 -0.049215465784072876 -0.18741638958454132 -0.26982414722442627 -0.13428309559822083 0.07207333296537399 -0.006140196230262518 -0.15590837597846985 0.04548444598913193 0.01692502573132515 -0.012861814349889755 0.25126615166664124 -0.35874292254447937 0.09330888092517853 0.0623556524515152 -0.14679402112960815 -0.23140470683574677 0.2755042314529419 0.239505335688591 0.12241365760564804 0.04554228112101555 0.2622504234313965 0.043464627116918564 -0.18813475966453552 -0.20041003823280334 -0.16595765948295593 -0.04588066786527634 -0.1182827278971672 0.16425436735153198 -0.22316977381706238 0.21320891380310059 -0.15697738528251648 -0.18786200881004333 -0.15161409974098206 0.18766456842422485 0.09997771680355072 0.020843839272856712 0.33594098687171936 -0.01461025420576334 0.23849758505821228 0.16815494000911713 0.26495710015296936 0.14965535700321198 0.21777918934822083 -0.24386417865753174 -0.09143301844596863 -0.20911872386932373 0.14081916213035583 -0.14476704597473145 -0.22107234597206116 0.18540365993976593 0.08775948733091354 -0.032827217131853104 0.22619622945785522 -0.07174678146839142 -0.2678568959236145 -0.19826765358448029 -0.19437722861766815 0.5893180966377258 0.12799818813800812 -0.10957179963588715 -0.19287310540676117 -0.10774825513362885 -0.37334370613098145 0.29189908504486084 0.2293509542942047 -0.137984961271286 -0.07962007075548172 -0.003956131171435118 0.1415315717458725 -0.010219572111964226 -0.1111711636185646 0.27431178092956543 0.06786966323852539 0.010571827180683613 -0.3017597496509552 0.08118834346532822 -0.1861013025045395 -0.10977314412593842 -0.15592946112155914 0.03453124687075615 0.01773121953010559 -0.14198771119117737 0.11237466335296631 -0.0810433030128479 -0.021145712584257126 -0.02745545655488968 0.18991002440452576 -0.023843232542276382 0.45727232098579407 -0.2559356987476349 -0.16973450779914856 -0.09661322832107544 -0.4514290392398834 0.2679910361766815 -0.08168073743581772 -0.11173489689826965 0.06973332166671753 0.1533956080675125
want -0.36520102620124817 -0.28720465302467346 -0.02510167844593525 0.08553796261548996 -0.16728775203227997 0.38153496384620667 0.057920683175325394 0.36205652356147766 0.15036365389823914 0.027031220495700836 -0.1212015450000763 -0.33531883358955383 0.056744009256362915 0.29133638739585876 0.1003706306219101 -0.17392908036708832 0.2119724154472351 0.012368318624794483 -0.06460757553577423 -0.2474290132522583 -0.2163010984659195 0.17803560197353363 -0.5770050287246704 -0.011136901564896107 0.045581188052892685 -0.13671264052391052 0.08878356963396072 -0.2822815179824829 0.10426832735538483 -0.14522181451320648 0.3413395881652832 -0.27212053537368774 0.14619135856628418 0.0861392468214035 0.02641901932656765 0.1851562112569809 -0.14540424942970276 0.5042730569839478 -0.2671619653701782 -0.021096138283610344 -0.15924766659736633 0.048778846859931946 -0.18250979483127594 -0.054212458431720734 0.3000945746898651 0.2667628526687622 -0.12235533446073532 -0.17565403878688812 -0.08664359897375107 -0.01064969226717949 -0.040757954120635986 0.14006543159484863 -0.04648846015334129 -0.26638296246528625 0.23015186190605164 0.23277641832828522 0.019312407821416855 0.35038623213768005 -0.4050101339817047 -0.008592866361141205 -0.054918073117733 0.013731391169130802 -0.17774541676044464 -0.009798860177397728 0.4083324372768402 0.2551286518573761 -0.10762688517570496 -0.034077588468790054 -0.31015047430992126 0.33923929929733276 0.10017714649438858 0.023791933432221413 -0.028766106814146042 0.30807986855506897 -0.1905183494091034 -0.19713769853115082 -0.007403843104839325 -0.03060726635158062 -0.23763562738895416 -0.33384156227111816 0.3361035883426666 0.20773690938949585 0.12290525436401367 0.22346040606498718 0.04543963074684143 -0.42214643955230713 -0.1496015191078186 -0.2994656562805176 -0.21379628777503967 0.25728240609169006 -0.3628246784210205 -0.04362683743238449 -0.07850486040115356 0.14953215420246124 0.24738353490829468 0.08018714934587479 -0.2067859023809433 -0.021084269508719444 0.05045054852962494 -0.31737521290779114
night 0.4340819716453552 0.25850948691368103 -0.029259324073791504 -0.027435915544629097 -0.014603294432163239 0.20896615087985992 -0.36113256216049194 0.19044806063175201 0.15010835230350494 -0.3918905258178711 -0.4179750680923462 0.16143281757831573 0.39321261644363403 0.08991602808237076 -0.24182792007923126 0.10168483108282089 -0.004653730895370245 -0.1759970635175705 0.014520643278956413 -0.0490088053047657 -0.18491792678833008 0.2102677971124649 0.055083852261304855 -0.1471526324748993 -0.4522539973258972 -0.04624301940202713 -0.20802846550941467 -0.1937987059354782 0.011955291964113712 0.13663579523563385 -0.3909703195095062 -0.3974992632865906 0.16241618990898132 -0.0030936580151319504 -0.011253356002271175 -0.051294367760419846 -0.21465130150318146 0.006387234665453434 0.17995479702949524 -0.2305663675069809 0.15242999792099 0.25509005784988403 0.09630286693572998 -0.07313308864831924 -0.2958596348762512 -0.0012220009230077267 0.19278700649738312 -0.027347315102815628 0.2316616326570511 -0.01974312588572502 -0.12249171733856201 0.20821577310562134 -0.5449471473693848 0.201649010181427 0.024034524336457253 -0.2706407606601715 0.04435557872056961 -0.30386626720428467 0.39690688252449036 -0.07090817391872406 0.06513752788305283 0.07697117328643799 0.12302615493535995 0.22958014905452728 -0.01356056984513998 0.02749614231288433 0.06032790616154671 -0.3378137946128845 -0.08083423227071762 0.2695634365081787 -0.018075844272971153 -0.2620118260383606 -0.054043542593717575 0.13711144030094147 -0.18224355578422546 -0.06226000934839249 -0.2633480727672577 0.1976609230041504 0.25844675302505493 0.11943071335554123 0.027561219409108162 0.04818820208311081 0.004149877466261387 0.04722420871257782 0.12713070213794708 0.2849820554256439 0.06585653126239777 -0.12591174244880676 -0.24468037486076355 -0.31930801272392273 0.08267920464277267 -0.3256557285785675 0.05800995975732803 0.31528592109680176 0.18104082345962524 0.3508228659629822 -0.026400068774819374 0.2587989270687103 -0.12625153362751007 0.08095691353082657
them 0.025097565725445747 0.17255768179893494 0.1936182677745819 0.15326887369155884 -0.08274073153734207 -0.22499720752239227 -0.10486521571874619 0.24511465430259705 -0.09696411341428757 0.10974722355604172 -0.09941009432077408 0.010227237828075886 -0.0680319219827652 0.1160225048661232 0.2607656419277191 0.10606135427951813 0.010342681780457497 -0.05556429922580719 0.008612132631242275 -0.45273056626319885 -0.09459520876407623 0.08398854732513428 -0.08624298125505447 0.22429846227169037 -0.1944403052330017 0.2887941598892212 -0.056599635630846024 0.18873022496700287 -0.11952849477529526 -0.03179202601313591 -0.1043456643819809 -0.014816677197813988 0.15526024997234344 0.09149579703807831 -0.19609172642230988 -0.0122769670560956 -0.20851655304431915 0.13330256938934326 -0.22256220877170563 -0.09078550338745117 0.35303086042404175 0.007784552406519651 0.124720498919487 -0.34709450602531433 -0.08971116691827774 0.140692338347435 0.1922629326581955 -0.18846827745437622 -2.1841702982783318E-4 0.13595017790794373 -0.14805364608764648 0.3363563120365143 0.3629976511001587 -0.28140905499458313 -0.2734997570514679 0.3153532147407532 -0.11278721690177917 -0.12251972407102585 0.22419147193431854 0.2506827712059021 0.16475175321102142 -0.05396926775574684 -0.2877701222896576 0.14953483641147614 0.22452524304389954 -0.11716253310441971 -0.2562396228313446 0.046093061566352844 -0.19785016775131226 0.16723814606666565 0.09053624421358109 0.1267789602279663 0.22887754440307617 0.12543848156929016 -0.12191887199878693 0.3506839871406555 -0.03808944672346115 0.10957062244415283 -0.04060489311814308 0.17555029690265656 0.3610209822654724 0.2439417988061905 -0.06387650966644287 0.0630437508225441 0.4906141459941864 -0.02721637673676014 -0.07103311270475388 -0.013717692345380783 0.09020409733057022 -0.18480968475341797 -0.1735340803861618 0.13820478320121765 0.11302699893712997 -0.14152993261814117 -0.09953553974628448 0.18719324469566345 0.04630805552005768 -0.0984250158071518 0.3788139820098877 0.18555451929569244
then -0.14823593199253082 0.10365040600299835 -0.0037304447032511234 0.1704433560371399 -0.013994680717587471 0.05714893713593483 -0.18498313426971436 0.17866188287734985 0.3365061283111572 4.42110700532794E-4 0.06015142798423767 -0.2391921579837799 0.13874517381191254 0.09996482729911804 0.01805906556546688 -0.015272406861186028 0.01420862227678299 -0.2537633180618286 -0.12936419248580933 -0.07858038693666458 -0.2750759720802307 -0.005175182595849037 0.2396199256181717 0.14767371118068695 -0.1988002061843872 -0.21118909120559692 -0.1448613852262497 0.025234514847397804 -0.10697779804468155 0.1365990787744522 0.05421792343258858 -0.0025480780750513077 0.1351301223039627 0.1476307511329651 -0.08101409673690796 -0.30497926473617554 -0.06221500411629677 -0.42406681180000305 -0.13188306987285614 -0.044435497373342514 0.10327712446451187 -0.10580933839082718 0.09567800909280777 -0.11013533174991608 -0.08616810292005539 0.16473503410816193 0.0853976309299469 0.25003582239151 0.02748918905854225 0.03113608807325363 0.14414404332637787 0.11915569007396698 -0.058164648711681366 0.04115993529558182 -0.11470324546098709 -0.14161552488803864 0.2130052000284195 0.14788205921649933 -0.1711057722568512 0.13459272682666779 -0.030428877100348473 -0.040770143270492554 -0.011431550607085228 0.06511326879262924 0.1088130921125412 -0.03120056353509426 -0.19833171367645264 -0.005731876939535141 -0.22949433326721191 0.11301465332508087 0.13173243403434753 -0.14660219848155975 -0.06874215602874756 -0.22099338471889496 0.05728494003415108 0.24135909974575043 -0.24439793825149536 -0.14735950529575348 0.027556147426366806 0.06895146518945694 -0.3639964759349823 0.051831312477588654 0.30091381072998047 -0.052434515208005905 -0.03497551754117012 0.12035956233739853 -0.07901165634393692 -0.11072173714637756 0.15775302052497864 -0.15292277932167053 -0.28348618745803833 -0.31047406792640686 -0.11439760029315948 0.18822607398033142 0.01539827324450016 0.13600409030914307 0.1356685608625412 5.007416475564241E-4 -0.23834241926670074 -0.16063734889030457
court -0.1497040092945099 0.06526248157024384 -0.05411063879728317 0.12635114789009094 0.2049315720796585 0.0865655243396759 0.0369730070233345 -0.03045528382062912 0.07623709738254547 -0.33449092507362366 -0.1573668122291565 -0.015477882698178291 -0.0641578882932663 0.005294932052493095 -0.0779348686337471 0.16637463867664337 -0.01623958721756935 -0.11541607230901718 0.18656037747859955 -0.09527356177568436 -0.08503952622413635 0.07469625771045685 -0.06385993212461472 -0.2304408699274063 -0.14322136342525482 0.028517022728919983 -0.2048788070678711 0.18795713782310486 0.09987615793943405 0.029606357216835022 -0.06752082705497742 -0.12366783618927002 -0.014198137447237968 -0.11471252888441086 0.38461655378341675 0.15917707979679108 -0.02243400365114212 -0.05138999968767166 -0.10299712419509888 0.08126568794250488 -0.03192351758480072 0.11299756914377213 0.12398798018693924 0.14537343382835388 -0.10330937802791595 0.0351385734975338 -0.22878265380859375 -0.07737501710653305 -0.08577895909547806 -0.06504961103200912 0.27019941806793213 0.27197182178497314 -0.11886468529701233 -0.08116181194782257 -0.0944611057639122 -0.11156123876571655 -0.1183338463306427 -0.0457611083984375 0.08367954939603806 0.07027958333492279 0.23985442519187927 0.1430327594280243 0.06856553256511688 0.0947437658905983 0.13669459521770477 0.2403952032327652 -0.09174153208732605 -0.16314895451068878 -0.03660547733306885 0.021159563213586807 0.23505844175815582 -0.1683247834444046 -0.0156669020652771 -0.03919845074415207 0.02238776907324791 0.007532382849603891 -0.21312178671360016 -0.07786376774311066 -0.03410729393362999 0.05222196504473686 -0.1590314656496048 0.08744615316390991 -0.05594634264707565 -0.08098121732473373 -0.10602129995822906 0.112693190574646 -0.02745813876390457 -0.07152072340250015 -0.008692596107721329 -0.10863053798675537 0.2805890142917633 -0.10233600437641144 -0.07103675603866577 0.07373715937137604 0.09842544049024582 0.005167766008526087 -0.11027241498231888 0.23727542161941528 0.0145682068541646 -0.1964513510465622
an -0.1615075021982193 -0.06717214733362198 0.13113048672676086 -0.03329543024301529 -0.32446181774139404 -0.010179691947996616 0.15219011902809143 -0.10762559622526169 -0.05759039521217346 -0.15785041451454163 0.03238050639629364 -0.10965301096439362 0.1635918915271759 0.024974146857857704 0.06786584854125977 0.11014798283576965 -0.15458381175994873 0.2639618217945099 0.055703386664390564 0.15684551000595093 -0.3225022554397583 0.30409619212150574 0.007146582473069429 -0.034839946776628494 -0.1886436492204666 -0.06980448961257935 -8.937681559473276E-4 0.18133516609668732 0.09248913079500198 0.2923676371574402 -0.07473890483379364 -0.058126337826251984 0.22791630029678345 0.10715281218290329 -0.05424156039953232 0.1502903550863266 0.12532401084899902 -0.05918160453438759 -0.21421483159065247 0.08492237329483032 0.007745901122689247 0.07467629015445709 0.13446281850337982 0.0664619728922844 0.06698834151029587 -0.1383601874113083 -0.21875354647636414 -0.33366847038269043 0.017611563205718994 0.09906536340713501 -6.181256612762809E-4 0.02384234592318535 -0.10890290141105652 0.15169592201709747 0.030262954533100128 -0.10658150911331177 -0.20518700778484344 0.12839733064174652 0.10483533143997192 0.314293771982193 0.15116362273693085 -0.036493029445409775 0.0152359027415514 0.013973846100270748 0.11751999706029892 0.16260874271392822 0.03154323995113373 -0.3086179196834564 0.03525502234697342 0.15204349160194397 -0.16283412277698517 -0.2220080941915512 -0.0575554296374321 0.18729397654533386 -0.12260618060827255 0.23425644636154175 -0.14420731365680695 0.1810612827539444 0.3775685727596283 -0.30665433406829834 -0.11319921910762787 0.2877211272716522 0.29977068305015564 0.021801674738526344 0.11620023846626282 0.11715880781412125 -0.1185557022690773 -0.042925167828798294 -0.025194866582751274 0.042003899812698364 0.03549012541770935 -0.09366220980882645 0.22339336574077606 -0.06048044189810753 -0.0022626626305282116 0.4424474537372589 -0.020169738680124283 0.20015664398670197 -0.024254897609353065 0.04127780720591545
- 0.11973056197166443 -0.04036994278430939 0.10703840106725693 -0.09355553984642029 -0.06893351674079895 -0.028513234108686447 0.0157746821641922 7.460638880729675E-4 -0.11582601070404053 -0.17339089512825012 0.011811936274170876 0.04471033066511154 -0.010653708130121231 0.10163822025060654 0.11279579997062683 0.019670872017741203 0.04684872552752495 -0.05582677572965622 -0.04065997526049614 0.046823546290397644 -0.01038178987801075 -0.02457953244447708 0.07323678582906723 0.06408501416444778 -0.10003028064966202 -0.04936341196298599 -0.07539434731006622 -0.015427696518599987 -0.03881242126226425 -0.06964824348688126 0.0518520325422287 -0.05268725007772446 -0.07486888766288757 0.031432248651981354 -0.1555396169424057 -0.10868668556213379 -0.04557522013783455 -0.15699101984500885 -0.060900960117578506 -0.007198326755315065 0.10755398124456406 -0.054184239357709885 -0.06815358996391296 0.004736132919788361 -0.07372644543647766 0.07654207944869995 0.04308384284377098 -0.03610352799296379 -0.006660851184278727 0.0510326512157917 0.1507413387298584 0.0387168750166893 -0.023287558928132057 0.0924549400806427 -0.14639818668365479 -0.062221355736255646 -0.10886511206626892 -0.04712254926562309 0.036715421825647354 0.09636307507753372 -0.010503949597477913 -0.010236717760562897 -0.11498807370662689 0.11870910227298737 -0.005021523684263229 0.018632501363754272 -0.02733643725514412 -0.06328924745321274 -0.12215254455804825 0.04246760532259941 -0.1287727802991867 -0.05385945737361908 0.04451543465256691 -0.014810345135629177 -0.054488904774188995 0.03754500299692154 -0.04012037068605423 0.030463648959994316 -0.024482980370521545 -0.04310811311006546 -0.13389356434345245 0.10724977403879166 0.04353770986199379 -9.773904457688332E-5 0.06803785264492035 0.12940362095832825 -0.05727057904005051 0.016173528507351875 -0.07608958333730698 0.07153618335723877 0.058993469923734665 -0.004607987590134144 -0.03163696825504303 -0.009129736572504044 0.004551175516098738 0.12824927270412445 -0.0044090296141803265 0.09597348421812057 -0.027090013027191162 0.0019355590920895338
each 0.13167612254619598 0.1875585913658142 0.13324016332626343 0.3224716782569885 -0.0021963552571833134 -0.0857904702425003 -0.048083171248435974 0.08919376134872437 0.18127435445785522 0.2244175672531128 -0.5062559843063354 0.40678462386131287 0.09422219544649124 -0.05343157425522804 0.14265574514865875 0.3313160836696625 -0.17049868404865265 -0.2663252651691437 -0.06589163094758987 -0.3167100250720978 -0.18038320541381836 0.16461537778377533 -0.10743507742881775 0.2674194574356079 0.2380201518535614 -0.0428927019238472 -0.01614397019147873 0.13681091368198395 -0.017480961978435516 -0.11427610367536545 0.22376176714897156 -0.2822198271751404 0.125931978225708 0.06942576915025711 -0.047475896775722504 0.2910461127758026 -0.09092036634683609 -0.11078259348869324 -0.44912105798721313 -0.17653711140155792 0.07508622854948044 0.32190796732902527 -0.130118727684021 0.1886933296918869 -0.06540016829967499 0.4542273283004761 0.4432224631309509 -0.0674731582403183 0.13367025554180145 -0.1099487915635109 0.08427068591117859 0.08611862361431122 0.20007997751235962 0.03108588606119156 -0.2783433198928833 0.25998455286026 -0.23650945723056793 -0.09084481745958328 0.12216012179851532 0.3972505033016205 0.34803664684295654 -0.09342637658119202 0.03276912495493889 -0.11535575240850449 0.23191197216510773 0.12844416499137878 -0.24347922205924988 0.05806620046496391 0.3787401616573334 0.09648648649454117 0.07100535184144974 -0.051105108112096786 0.279416561126709 0.24383071064949036 0.09844113886356354 0.23906418681144714 -0.23074135184288025 -0.05679655075073242 -0.36566537618637085 0.07684380561113358 0.2680174708366394 0.11281031370162964 0.37978196144104004 0.09012661874294281 0.4079217314720154 -0.3040284812450409 0.1935911923646927 -0.34322401881217957 -0.34819406270980835 -0.15454581379890442 0.11607297509908676 0.39436739683151245 -0.08512674272060394 -0.1174582839012146 0.38683852553367615 0.6513012051582336 -0.04439014941453934 0.43444475531578064 0.3268545866012573 0.2736625075340271
former 0.007086462341248989 -0.026382090523838997 0.017016861587762833 0.029237357899546623 0.03842032700777054 -0.03553078696131706 -0.002289809053763747 0.013130166567862034 -0.1076274961233139 -0.11510669440031052 -0.0022117351181805134 0.06086304038763046 0.038758210837841034 -0.029816750437021255 0.030553873628377914 0.07047496736049652 -8.772207656875253E-4 0.0462801419198513 -0.009546153247356415 0.0682654082775116 -0.0531957745552063 -0.0216459259390831 0.07256481051445007 -0.004701368976384401 -0.061588265001773834 0.03512965887784958 -0.06739086657762527 -0.02195211872458458 -0.042499881237745285 0.02045748196542263 0.022020462900400162 -0.0463457889854908 -0.057087790220975876 0.01137815322726965 -0.009046697057783604 0.05144159495830536 -0.04737032204866409 0.01047930121421814 0.06625920534133911 0.0605512335896492 0.023508433252573013 0.053529269993305206 0.06281375885009766 0.03014158457517624 0.024675767868757248 -0.019039830192923546 -0.03367198258638382 -0.072205550968647 -0.030601484701037407 -4.246189200785011E-5 0.04864244908094406 0.06760565936565399 -0.01301802322268486 5.773997399955988E-4 -0.009098834358155727 -0.029971372336149216 -0.08498113602399826 -0.08610866963863373 0.04355978965759277 0.06965839117765427 -0.008904093876481056 -0.06032119691371918 -0.009462525136768818 0.05576290935277939 -0.05293547362089157 -0.015776479616761208 0.034780729562044144 -0.07729615271091461 -0.005019208882004023 -0.07411477714776993 0.03932996466755867 0.011717560701072216 -0.028367510065436363 -0.00519239716231823 0.06271836161613464 0.03365238383412361 -0.008984616957604885 -0.025080345571041107 -0.03780392184853554 0.010455253534018993 -0.10711994022130966 0.023900384083390236 0.015637777745723724 0.04661762714385986 -0.022400999441742897 0.03604084253311157 0.007595258764922619 0.008206091821193695 -0.025642286986112595 -0.05699606239795685 0.1234566867351532 -0.03106795996427536 0.019701171666383743 -0.0415121391415596 0.04144025221467018 0.06221584230661392 -0.029873725026845932 0.03669092059135437 -0.06911901384592056 -0.03062009997665882
as 0.1229342669248581 -0.21587982773780823 -0.2494066208600998 -0.3068399727344513 -0.041504811495542526 0.0018838776741176844 -0.023366618901491165 0.09433131664991379 0.1321161538362503 -0.11649207025766373 -0.11913665384054184 0.5694552659988403 0.03639842942357063 0.06986451894044876 -0.09623339027166367 -0.17070195078849792 -0.24840189516544342 0.08878621459007263 0.05143804848194122 0.1506493240594864 0.12015422433614731 0.07557100802659988 -0.086378313601017 -0.12490561604499817 0.22882770001888275 0.207304447889328 0.10411746799945831 -0.4677828252315521 -0.12559522688388824 0.16992440819740295 -0.23711314797401428 0.09585698693990707 -0.5019473433494568 0.05829218402504921 -0.12987804412841797 -0.21516744792461395 -0.2070777267217636 -0.28441041707992554 0.10846398025751114 -0.2299635112285614 0.0708324983716011 -0.44023001194000244 -0.0639449879527092 -0.4576292037963867 -0.15717171132564545 0.18861724436283112 0.19452954828739166 -0.26818111538887024 0.18506114184856415 -0.17496249079704285 0.023085899651050568 0.13338539004325867 -0.02097753994166851 -0.04701009765267372 -0.18051780760288239 0.5071399807929993 0.08112044632434845 0.20511996746063232 0.06361913681030273 -0.019568078219890594 0.2986901104450226 0.4600715637207031 -0.12258727103471756 -0.2005821168422699 0.004781750030815601 -0.288851261138916 0.2535461485385895 -0.001434152014553547 0.09896054118871689 -0.1544398069381714 0.30462679266929626 -0.025602221488952637 0.05141807720065117 0.1704387068748474 -0.30843764543533325 0.27551788091659546 -0.11370779573917389 0.29482585191726685 -0.07562820613384247 0.022844398394227028 0.2194150984287262 0.14352278411388397 0.03736700117588043 0.21540150046348572 -0.051173508167266846 -0.13146363198757172 0.12940934300422668 -0.6151494979858398 -0.2448645383119583 0.09533379226922989 0.05127525329589844 0.02383219078183174 0.4912703335285187 -0.08483154326677322 -0.46493786573410034 0.016703464090824127 -0.20178140699863434 0.12022536247968674 -0.15744386613368988 0.07903581112623215
at 0.012874087318778038 -0.2750380039215088 -0.16813813149929047 0.16354705393314362 -0.014832043088972569 -0.11097259074449539 -0.41149675846099854 -0.20484893023967743 -0.2341667115688324 -0.5780130624771118 -0.6736754179000854 -0.2613675594329834 0.013499150052666664 -0.12307243049144745 0.055990178138017654 0.2674906253814697 -0.479485422372818 0.12423115968704224 0.541587769985199 -0.14625535905361176 -0.02620365470647812 0.12055986374616623 0.22474665939807892 0.15449891984462738 -0.11313221603631973 -0.13546554744243622 -0.42045360803604126 0.11093771457672119 -0.17044611275196075 0.05303117632865906 0.04693002253770828 0.05246780067682266 -0.3819343149662018 0.40534064173698425 -0.06934549659490585 -0.25430038571357727 -0.2356393188238144 0.10945673286914825 0.2761601507663727 -0.0046585421077907085 -0.14376115798950195 0.17062130570411682 0.035299405455589294 0.03351205214858055 -0.10099833458662033 0.2509476840496063 0.0028004171326756477 -0.164790540933609 0.059667594730854034 -0.012976642698049545 0.0879598930478096 0.05254065617918968 -0.14704683423042297 -0.2337075024843216 -0.1860576570034027 0.09696205705404282 0.0334843210875988 -0.32290759682655334 0.027407478541135788 -0.07268916815519333 -0.009040704928338528 0.004572123289108276 -0.2464921921491623 -0.03007156401872635 0.10109571367502213 -0.2380114495754242 0.04847714677453041 -0.1165948361158371 -0.1817459613084793 0.2971927225589752 -0.26883840560913086 0.1819763481616974 -0.23558387160301208 -0.15368272364139557 0.029523460194468498 0.04948103427886963 0.1446988880634308 0.046727247536182404 0.09389600902795792 -0.24879270792007446 0.009183148853480816 -0.19664452970027924 0.10241073369979858 0.04622820019721985 0.34207236766815186 0.023720230907201767 -0.1593531370162964 -0.07468874752521515 -0.053180139511823654 -0.2849425971508026 0.26567575335502625 -0.11323599517345428 0.12418462336063385 0.04335450008511543 0.25748133659362793 0.10344363003969193 0.0010076960315927863 0.03550391271710396 0.3006170392036438 0.29570651054382324
left 0.1561601459980011 -0.022258561104536057 0.0034843492321670055 -0.012229403480887413 0.050389133393764496 -0.21636737883090973 -0.003646575380116701 -0.14170385897159576 0.1844233274459839 -0.11159063875675201 -0.03378007933497429 0.017193008214235306 0.01831139624118805 -0.18921154737472534 -0.09452413767576218 0.35939228534698486 -0.11371337622404099 0.038769397884607315 0.005730226635932922 -0.08785965293645859 -0.058924026787281036 0.06156269460916519 0.144932821393013 0.10055680572986603 -0.26072508096694946 0.2934016287326813 -0.04547855630517006 0.08399128168821335 -0.08047042787075043 -0.09257370978593826 -0.16414588689804077 0.176478773355484 1.0921957436949015E-4 -0.13317787647247314 9.590197587385774E-4 -0.25384554266929626 0.27756938338279724 -0.0369190089404583 0.2610306739807129 0.2528638541698456 0.3049388825893402 -0.16680045425891876 0.15293852984905243 -0.02926492691040039 -0.08639821410179138 0.1703978180885315 -0.16286560893058777 -0.1477700024843216 -0.2593359351158142 -0.2178637534379959 0.0169070977717638 0.17548412084579468 0.4778692424297333 -0.09445860981941223 0.03221357613801956 -0.12393447011709213 -0.14007769525051117 -0.2779722511768341 -0.1308412402868271 0.03892476484179497 -0.18098339438438416 -0.103307344019413 0.08056175708770752 -0.09440170973539352 -0.048312392085790634 -0.024908561259508133 0.022306233644485474 0.02668573148548603 -0.16299976408481598 0.05660693719983101 0.09560320526361465 -0.041343804448843 -0.07056558132171631 -0.15059062838554382 0.17991021275520325 0.2658093571662903 -0.36231696605682373 0.08499181270599365 -0.12428750842809677 -0.46431049704551697 -0.28709328174591064 0.00606410950422287 -0.10487180203199387 -0.0052075739949941635 0.1508241593837738 0.26493918895721436 -0.1579052358865738 -0.06376152485609055 0.08210426568984985 -0.17314058542251587 0.12539148330688477 -0.1005491390824318 -0.1684066206216812 -0.052285291254520416 -0.11371586471796036 0.3771454989910126 0.06022746115922928 0.3022708296775818 -0.013072418048977852 -0.06566715240478516
much -0.2117697149515152 0.5008623003959656 0.4405391812324524 -0.08042426407337189 0.09148772805929184 -0.1259085088968277 0.04163124039769173 -0.035272084176540375 -0.3437342047691345 0.6280652284622192 -0.032852984964847565 -0.2165168821811676 -0.42548665404319763 0.027160221710801125 -0.07651545107364655 -0.15884579718112946 0.30622735619544983 -0.32890310883522034 0.2746615707874298 0.05982087180018425 -0.02767414227128029 -0.11502411216497421 0.055667467415332794 -0.16682550311088562 -0.0874704048037529 -0.14535968005657196 0.3559219241142273 0.2417503148317337 0.29571154713630676 -0.2258874922990799 -0.2644481956958771 0.10275157541036606 0.24452102184295654 -0.21134337782859802 -0.15309438109397888 -0.034063972532749176 0.40850964188575745 -0.07510659843683243 0.13838841021060944 -0.2516828775405884 -0.05909457057714462 -0.41132426261901855 0.0390201136469841 0.15543726086616516 0.003990992903709412 -0.06424868106842041 0.08701121062040329 -0.16825643181800842 -0.08288266509771347 -0.03834977746009827 -0.0044252523221075535 0.4614407420158386 0.15499627590179443 0.046415749937295914 -0.09059443324804306 0.2416946142911911 0.1877487599849701 -0.13122782111167908 -0.5079249739646912 0.02585303969681263 -0.06968638300895691 -0.092986561357975 -0.2674812972545624 -0.0649896189570427 -0.38297539949417114 0.1698082685470581 0.461051881313324 -0.1068992093205452 0.015870120376348495 0.2979661822319031 0.1862480640411377 -0.16584311425685883 0.20408423244953156 0.5812645554542542 -0.5206398367881775 -0.2867186963558197 -0.36385756731033325 0.1412832885980606 0.0918741524219513 -0.2896004617214203 0.09672442078590393 0.08220528811216354 0.18089061975479126 -0.27054476737976074 0.1022695004940033 -0.07072886824607849 -0.02835843898355961 0.15634208917617798 0.2106892168521881 -0.009732749313116074 -0.24407845735549927 0.052682552486658096 -0.08343364298343658 -0.47040989995002747 0.11066574603319168 -0.022433804348111153 0.32031625509262085 0.018441010266542435 0.4215017855167389 0.36540770530700684
be -0.18174315989017487 -0.13938896358013153 0.25613150000572205 0.1481637954711914 -0.053352538496255875 -0.26182711124420166 0.39059528708457947 -0.20845989882946014 -0.1446794867515564 0.22938796877861023 -0.06441362202167511 0.2193320095539093 0.044932980090379715 -0.20841774344444275 -0.31408315896987915 -0.037269387394189835 -0.07175546884536743 0.09783734381198883 0.2876553535461426 -0.5143902897834778 -0.16044946014881134 0.00998726487159729 0.03129395842552185 -0.08953271061182022 -0.06537729501724243 0.03880291432142258 0.150338277220726 0.308862566947937 0.1410665065050125 0.12126871943473816 -0.22197848558425903 0.251187801361084 0.23731817305088043 0.13599750399589539 0.2157616913318634 0.02015693113207817 -0.16649594902992249 0.4077911078929901 -0.12575621902942657 0.011991461738944054 -0.19087666273117065 -0.41245707869529724 0.15557855367660522 -0.1585468202829361 -0.04149368032813072 0.2145146280527115 -0.04972086474299431 -0.13416539132595062 0.033570703119039536 0.10728665441274643 0.029738157987594604 -0.17472998797893524 -0.021040722727775574 -0.1662040799856186 -0.32236599922180176 0.24685801565647125 -0.05611918866634369 -0.11336951702833176 0.424957275390625 -0.4244241714477539 0.05815349519252777 0.2768687307834625 0.3382949233055115 0.06769560277462006 0.035967662930488586 -0.21508271992206573 0.09253980219364166 -0.06978832930326462 0.2009471356868744 -0.38580790162086487 -0.2824844419956207 -0.04154592007398605 -0.23032423853874207 0.15410327911376953 0.11869264394044876 -0.21430297195911407 0.19126039743423462 0.05543519929051399 0.24154064059257507 -0.2568954825401306 -0.16071943938732147 0.053233932703733444 0.10137169063091278 -0.04208530858159065 -0.13496869802474976 0.34935620427131653 -0.12095963209867477 0.09937247633934021 0.09891949594020844 0.14548979699611664 0.0645744577050209 -0.12062399834394455 0.07869017869234085 0.06522463262081146 -0.21058781445026398 -0.0679570734500885 -0.10342880338430405 0.20114721357822418 -0.02916043810546398 0.01258720364421606
another 0.10252024233341217 -0.23325619101524353 -0.12908822298049927 -0.10763638466596603 -0.0773315504193306 -0.04896073788404465 0.20554690062999725 -0.3489304482936859 -0.23385953903198242 -0.05623422563076019 -0.010179893113672733 0.4463268220424652 0.13661335408687592 -0.1066659539937973 -0.03432130068540573 0.0791332870721817 -0.00801115483045578 -0.11710190773010254 -0.18212692439556122 0.21734853088855743 -0.10469359159469604 0.005178587511181831 -0.10304189473390579 -0.04604850709438324 -0.32228562235832214 0.2237178385257721 0.039629820734262466 0.2062806934118271 0.06445876508951187 0.1571468859910965 0.3619295358657837 0.1487613469362259 0.5166196227073669 0.07561227679252625 0.007956521585583687 -0.1469792276620865 0.13711775839328766 0.08373530954122543 -0.4756576120853424 0.07364832609891891 -0.06325587630271912 0.036089375615119934 0.1550571471452713 0.1816118061542511 -0.5001381039619446 -0.02566825971007347 -0.2486620843410492 0.12204653769731522 0.1005881056189537 0.16902600228786469 -0.05676930770277977 0.2297011911869049 -0.1776464283466339 0.044662006199359894 -0.14460408687591553 -0.33767545223236084 -0.1560218632221222 0.3830341696739197 0.19234545528888702 0.033373795449733734 0.22801131010055542 0.015270416624844074 -0.3179118037223816 0.12124466150999069 -0.08175279200077057 -0.18721312284469604 -0.4198724031448364 -0.15188661217689514 0.01267748698592186 0.061979006975889206 -0.02038387954235077 -0.23749621212482452 -0.44866031408309937 0.20456869900226593 -0.1044926643371582 -0.048133451491594315 -0.09901148080825806 0.33583182096481323 -0.118809774518013 0.06226154416799545 -0.1325361728668213 0.2785283327102661 0.12255888432264328 0.18685008585453033 0.17138831317424774 0.09771398454904556 0.030781015753746033 0.06350935995578766 -0.1296541541814804 -0.12199941277503967 -0.1393958479166031 -0.13542106747627258 -0.15362057089805603 -0.08544325828552246 -0.0867495983839035 0.2820388376712799 0.24014481902122498 -0.07698973268270493 -0.034714315086603165 0.1778377890586853
two 0.26792609691619873 -0.04030654579401016 0.10424768924713135 0.08156079798936844 -0.019662711769342422 -0.11458751559257507 -0.15107299387454987 -0.2565253973007202 -0.17644210159778595 -0.03087555058300495 -0.02643645368516445 0.20783889293670654 0.06095024570822716 -0.10134443640708923 0.0549616739153862 0.03415941074490547 0.12469961494207382 -0.4617977440357208 0.0381825789809227 -0.1130928322672844 0.2754407823085785 0.27377188205718994 0.5437593460083008 0.2941666841506958 -0.2792253792285919 0.2604846954345703 0.13839682936668396 0.16491957008838654 -0.030986489728093147 -0.1485651582479477 -0.09900889545679092 0.05720345303416252 -0.15125946700572968 0.16812942922115326 -0.2695724070072174 -0.5282140970230103 -0.05706442520022392 -0.14053568243980408 -0.08203694224357605 0.011065509170293808 0.36626243591308594 -0.10667558759450912 0.03666037321090698 -0.008238720707595348 -0.4317048192024231 0.024266602471470833 0.06881029903888702 0.3028533160686493 -0.31694260239601135 -0.047422345727682114 0.39448851346969604 -0.10028976202011108 0.19411207735538483 0.051200129091739655 0.0995870903134346 0.06530852615833282 -0.30585870146751404 -0.3020232021808624 0.5036091208457947 0.20414063334465027 -0.08996082097291946 -0.008378706872463226 -0.06937822699546814 -0.03126494586467743 -0.1697065234184265 -0.1567850112915039 -0.16471907496452332 -0.05081990361213684 -0.1828913390636444 0.19134177267551422 -0.08070448786020279 -0.4118879437446594 -0.1161319687962532 0.2144431322813034 0.26131200790405273 0.30174705386161804 -0.5192497372627258 0.04089833423495293 -0.7103449702262878 -0.05803830549120903 -0.24989131093025208 0.34265029430389404 -0.03840300440788269 0.42531818151474 0.456662118434906 0.39814266562461853 -0.09809591621160507 -0.29622337222099304 -0.14428278803825378 -0.545161247253418 0.5077321529388428 -0.06765858829021454 -0.3362160623073578 -0.046183712780475616 0.01771220751106739 0.49290692806243896 -0.07760009169578552 0.28712546825408936 -0.18674461543560028 -0.09114671498537064
long 0.28462091088294983 0.1106434091925621 0.353193998336792 -0.3227487802505493 -0.31663385033607483 0.0840592011809349 -0.14607906341552734 -0.6391283869743347 -0.3764234483242035 -0.03125111013650894 0.2589547336101532 -0.303474098443985 -0.058816976845264435 -0.24903102219104767 -0.2837679088115692 -0.2651081681251526 -0.015478684566915035 -0.2882727086544037 0.42494407296180725 0.6005112528800964 -0.16506163775920868 -0.019615324214100838 0.06644267588853836 -0.03777330368757248 -0.19699905812740326 -0.07336350530385971 -0.05808080732822418 0.46016186475753784 0.20265543460845947 0.16878248751163483 -0.43538200855255127 0.19299525022506714 0.4208207428455353 0.14182816445827484 -0.2674182653427124 0.4144621789455414 0.2705862820148468 0.29181668162345886 -0.38202738761901855 -0.3202124536037445 0.10745960474014282 -0.3851277828216553 0.09709833562374115 -0.25996288657188416 0.0322503000497818 -0.4476567506790161 0.18098017573356628 0.2374352514743805 0.2949800491333008 -0.20517003536224365 -0.02137528732419014 -0.19793647527694702 -0.027885477989912033 0.5636411309242249 0.18238650262355804 0.03532301262021065 0.11726396530866623 -0.3623277544975281 0.10231764614582062 -0.22884954512119293 0.3933987617492676 0.13199585676193237 -0.48912981152534485 -0.2522202432155609 0.014153001829981804 -0.04882917180657387 0.40720516443252563 -0.23151904344558716 0.42292320728302 -0.13392236828804016 -0.14922718703746796 0.005867059342563152 -0.2708636522293091 0.24208009243011475 -0.18836477398872375 -0.5507380366325378 -0.16802796721458435 0.6507647037506104 0.292656809091568 -0.08479585498571396 0.13782384991645813 0.08697988092899323 -0.04426497220993042 -0.3549734652042389 0.0037977388128638268 0.25027069449424744 0.11503929644823074 0.003751180600374937 0.27855098247528076 -0.4148949086666107 0.08767116069793701 -0.544605016708374 -0.3341827690601349 0.05934569984674454 -0.03315967321395874 0.5953696370124817 -0.2640285789966583 0.17175304889678955 0.2996428906917572 -0.10065867006778717
how 0.17799252271652222 -0.0603572353720665 0.08745760470628738 -0.020109059289097786 -0.3264557719230652 0.01599867455661297 -0.03824281319975853 -0.09830427914857864 0.42790067195892334 0.23305800557136536 0.07531863451004028 0.06425566226243973 -0.006348756141960621 -0.08584073930978775 0.34862208366394043 0.08455871790647507 -0.06506364792585373 0.20785674452781677 -0.02882690168917179 -0.06696277856826782 -0.05932866781949997 -0.03109697438776493 0.1351567804813385 0.008855259045958519 0.37950897216796875 -0.07904403656721115 0.0785348117351532 -0.29208317399024963 -0.053183987736701965 -0.10800528526306152 -0.031859468668699265 -0.14411233365535736 -0.06933175027370453 -0.043834276497364044 -0.16616705060005188 -0.093088798224926 -0.09634332358837128 -0.5873618721961975 -0.3196538984775543 -0.28220632672309875 -0.021884113550186157 -0.10785982012748718 -0.27541181445121765 -0.40201282501220703 -0.1714753806591034 0.28188130259513855 0.28894731402397156 -0.33281388878822327 0.06917598843574524 0.18182367086410522 0.21037431061267853 -0.02644837275147438 -0.22395971417427063 0.19045321643352509 -0.2666213810443878 0.30313098430633545 0.2232564091682434 0.3217703104019165 -0.08598952740430832 0.26404234766960144 0.3026682436466217 0.12209483236074448 0.02998230792582035 0.18777482211589813 -0.1285347044467926 -0.07637958228588104 -0.1374509483575821 0.08450107276439667 0.0026905760169029236 0.11822525411844254 0.05175773799419403 0.17013917863368988 0.1292567104101181 0.05662425234913826 -0.41814061999320984 0.1422799825668335 -0.16364836692810059 0.24606767296791077 0.05252358689904213 -0.18213197588920593 0.29470524191856384 -0.11494001746177673 0.08551668375730515 -0.020043551921844482 -0.4345239996910095 -0.31306663155555725 0.10923076421022415 -0.33920636773109436 -0.242306649684906 0.2511591613292694 -0.05605132877826691 -0.13775818049907684 0.5943503379821777 -0.2858787178993225 0.10318850725889206 0.12803810834884644 0.10898368060588837 -0.11841177195310593 -0.2327343076467514 -0.44050896167755127
into 0.09508197754621506 -0.18348637223243713 -0.34115973114967346 0.10442693531513214 -0.28002801537513733 0.1828131228685379 0.04997079819440842 -0.1812300682067871 0.07951319962739944 -0.21139957010746002 -0.31091582775115967 -0.06327410042285919 0.2309676557779312 0.07909543812274933 -0.07932935655117035 -0.001032073050737381 0.07983536273241043 0.032631535083055496 0.21086648106575012 0.07111115753650665 -0.0015374482609331608 0.2854154407978058 -0.16681230068206787 0.15418577194213867 -0.12112833559513092 0.043958231806755066 0.1097550019621849 -0.012331178411841393 0.01073230430483818 0.04656381532549858 -0.07252676784992218 -0.061719924211502075 0.2542001008987427 -0.09602189064025879 0.05514976754784584 0.05263492837548256 0.095423623919487 -0.13345545530319214 -0.21539296209812164 -0.07542615383863449 0.03231315314769745 0.18823064863681793 0.07706932723522186 -0.19799105823040009 -0.2481176108121872 -0.003624380100518465 -0.032295480370521545 0.15852108597755432 -0.03759794682264328 0.1487332284450531 -0.17177538573741913 0.005782957188785076 -0.2873918116092682 0.06544580310583115 0.027396928519010544 0.05271308869123459 -0.012821282260119915 -0.13763341307640076 -0.1667800098657608 0.1314571648836136 0.2949546277523041 0.07974085211753845 -0.008863076567649841 -0.25668200850486755 0.11668604612350464 0.18942616879940033 -0.25669628381729126 -0.07483558356761932 -0.09388622641563416 0.21174265444278717 -0.044225990772247314 -0.17836523056030273 -0.23089313507080078 -0.03905924782156944 -0.005525213200598955 0.15602518618106842 0.02849126048386097 -0.1247270330786705 0.008105802349746227 0.1963443160057068 0.23022423684597015 0.1515626758337021 -0.08790763467550278 0.023358117789030075 -0.15627500414848328 0.10556760430335999 0.04179947078227997 -0.019244100898504257 0.19235219061374664 -0.07393824309110641 -0.011304419487714767 -0.1145024225115776 0.36228013038635254 0.05934716388583183 0.02456810139119625 -0.07949124276638031 -0.030033208429813385 -0.14327365159988403 0.15020626783370972 -0.019556637853384018
see -0.22490400075912476 -0.055159032344818115 -0.0850692093372345 0.14915134012699127 -0.2307305485010147 0.15865734219551086 0.28541478514671326 -0.09388568997383118 0.3092627227306366 0.10880269855260849 -0.2778033912181854 0.04516061022877693 0.31026461720466614 0.37949374318122864 -0.05420336872339249 -0.17295804619789124 0.2022690325975418 -0.005543846171349287 0.25594362616539 -0.0647798478603363 0.064188651740551 0.14851412177085876 -0.09032516926527023 0.2731495201587677 0.076625756919384 0.15806914865970612 0.27792298793792725 -0.032278504222631454 0.09345398843288422 -0.21045784652233124 0.104637511074543 0.021973835304379463 0.17973491549491882 0.010461268946528435 -0.21396809816360474 0.03718565031886101 -0.09733112901449203 0.18548578023910522 0.019285861402750015 0.09995216876268387 0.11278505623340607 -0.006359773688018322 -0.14941641688346863 0.10943282395601273 0.011477511376142502 0.11282408237457275 -0.007651325780898333 0.3543652296066284 0.1793532371520996 0.24427631497383118 -0.15272316336631775 -0.12419543415307999 -0.26751989126205444 0.06684461236000061 -0.10500378906726837 -0.11554785817861557 -0.014736677519977093 0.18411767482757568 -0.2370748370885849 -0.15615248680114746 -0.0018725356785580516 0.4035133719444275 0.12978680431842804 0.03304259479045868 0.03514883294701576 0.006693760398775339 -0.020315654575824738 0.10888028144836426 -0.09032686054706573 0.019263925030827522 -0.04476204887032509 -0.19734160602092743 0.08932018280029297 -0.11533530801534653 0.029000433161854744 -0.21937018632888794 -0.05490488559007645 -0.1498749703168869 -0.11501961946487427 -0.14317715167999268 -0.019113708287477493 0.10669033229351044 0.062106240540742874 -0.0719534307718277 0.04670159891247749 0.23162347078323364 -0.02608529105782509 -0.019588619470596313 0.15046970546245575 0.03136349469423294 -0.23734092712402344 -0.15210223197937012 0.001908208942040801 0.07921233773231506 -0.06532327830791473 -0.1075233519077301 0.028981583192944527 -0.1164461150765419 -0.0247498769313097 0.0010521630756556988
found 0.022320883348584175 -0.07151256501674652 -0.10526803135871887 -0.1414346992969513 0.08339330554008484 0.16337497532367706 0.03159563988447189 -0.31765076518058777 0.36713463068008423 -0.13466235995292664 0.13866019248962402 0.15554948151111603 0.12227414548397064 -0.15299689769744873 -0.15536348521709442 0.1952221691608429 -0.08207103610038757 -0.1538754403591156 -0.022276226431131363 -0.1165609061717987 -0.23728393018245697 0.10350700467824936 -2.599708968773484E-4 0.013812092132866383 0.06614631414413452 0.3090861737728119 -0.1867690235376358 0.11862257122993469 -0.016238585114479065 -0.06787770241498947 0.005645539611577988 -0.049028415232896805 0.18678018450737 0.1016545370221138 -0.10329806059598923 0.0339113213121891 0.21569684147834778 0.09454701095819473 0.15766090154647827 0.07317673414945602 0.12514479458332062 -0.17969436943531036 -0.04353877902030945 0.12283362448215485 -0.03642953559756279 0.35179173946380615 -0.16961504518985748 -0.06412890553474426 -0.1435277909040451 0.17404428124427795 -0.16040538251399994 0.11554040759801865 0.12843526899814606 -0.14673198759555817 0.24085542559623718 -0.02517908252775669 0.05998140573501587 -0.1703115999698639 -0.090156689286232 -0.23533500730991364 -0.26521825790405273 -0.05902485549449921 0.1081419289112091 -0.021643221378326416 -0.1812463253736496 -0.16869254410266876 0.2887994050979614 -0.09323044866323471 0.06304261833429337 0.06835327297449112 0.13079795241355896 0.022252120077610016 -0.03688618168234825 -0.11797638237476349 0.03437201306223869 -0.00883663259446621 -0.14167365431785583 -0.07006878405809402 0.08119122684001923 -0.30876702070236206 -0.10412541776895523 -0.09350971132516861 -0.03071756847202778 0.02844417840242386 0.126583993434906 0.4384526014328003 0.2080284208059311 -0.05368223413825035 -0.008377495221793652 -0.3277994394302368 -0.15192805230617523 -0.0605882853269577 -0.13083313405513763 -0.0730464980006218 0.03354320675134659 0.20621496438980103 0.20467492938041687 0.311257928609848 0.1102839857339859 0.041987329721450806
same -0.09785476326942444 -0.7292112112045288 0.07821319997310638 -0.08896377682685852 -0.13355283439159393 -0.02551458030939102 0.406954824924469 0.051479045301675797 0.11626990884542465 -0.299447625875473 -0.5382679104804993 0.08663623780012131 -0.31191298365592957 -0.025553159415721893 0.13179424405097961 0.5179625749588013 0.02713952213525772 -0.04169429466128349 0.10019075125455856 0.15722188353538513 0.06749217212200165 -0.12269537895917892 0.19781550765037537 -0.15333357453346252 0.04005534574389458 -0.33117446303367615 -0.3710549473762512 0.48053881525993347 -0.15516279637813568 0.2816758155822754 0.04635240137577057 0.07862522453069687 -0.08878673613071442 -0.07902459055185318 -0.10652332007884979 0.19077923893928528 -0.04217151552438736 -0.01079619862139225 -0.42317813634872437 0.37277141213417053 0.41431519389152527 0.07800808548927307 0.30019140243530273 0.056371014565229416 -0.10591857135295868 -0.014043298549950123 -0.1377566009759903 -0.18915167450904846 0.014546559192240238 0.16717077791690826 0.1891545057296753 0.1773310899734497 0.06309890002012253 -0.0698077455163002 -0.19741453230381012 0.03629468381404877 -0.10372891277074814 -0.2736220061779022 -0.214479461312294 -0.06924258917570114 -0.12628503143787384 0.22310318052768707 -0.2457239031791687 0.347613662481308 -0.45758187770843506 -0.1358649879693985 0.35544639825820923 -0.3614267408847809 0.030746573582291603 0.03198975324630737 0.19979196786880493 -0.053006675094366074 -0.2544393539428711 -0.32980281114578247 0.3751550316810608 -0.38929131627082825 -0.005611937493085861 0.3556213080883026 0.0066343508660793304 -0.19935710728168488 -0.042285267263650894 0.20200330018997192 -0.15424787998199463 -0.09231790900230408 -0.13792183995246887 5.107551114633679E-4 -0.19644217193126678 0.05547560006380081 -0.2369118481874466 -0.13473719358444214 0.5293906331062317 -0.0490017868578434 -0.10378190129995346 -0.17725957930088043 -0.027366166934370995 0.045366737991571426 -0.06872687488794327 0.2247118055820465 -0.10683076828718185 -0.044832583516836166
are -0.33569225668907166 0.3436155617237091 -0.19020725786685944 0.059550970792770386 -0.01939230225980282 -0.09420779347419739 0.12657761573791504 0.570798933506012 0.31318947672843933 0.4329352378845215 -0.3080294132232666 0.24881431460380554 -0.4760032594203949 -0.3557678163051605 0.19694799184799194 0.010871097445487976 0.12364999204874039 -0.1635865867137909 -0.16317303478717804 -0.08472422510385513 -0.33044135570526123 -0.24591219425201416 -0.1538567692041397 -0.018658898770809174 -0.06458453834056854 -0.07425671815872192 0.08946355432271957 -0.0069163404405117035 -0.17608575522899628 0.02327827364206314 -0.15637362003326416 0.2874194085597992 0.112172432243824 0.09391862154006958 -0.14813704788684845 0.0871560201048851 0.06522024422883987 0.09933390468358994 0.18459579348564148 -0.12447094917297363 0.07110608369112015 -0.0471201129257679 0.36843037605285645 0.24632295966148376 0.5857424139976501 0.06020986661314964 0.1383717656135559 0.10561661422252655 0.17269524931907654 -0.3576952815055847 -0.2795664072036743 -0.08382715284824371 -0.12522253394126892 -0.011477040126919746 -0.45249447226524353 0.6775553822517395 -0.012907717376947403 -0.02564387582242489 -0.1555824875831604 -0.13294446468353271 0.03141859918832779 -0.10530245304107666 0.19722692668437958 0.10394112765789032 0.36855101585388184 0.0848664790391922 -0.576745867729187 0.1392848938703537 -0.1198783665895462 0.09107328951358795 0.14579442143440247 0.11528918147087097 -0.11014954000711441 0.1404900848865509 0.20921428501605988 9.97326336801052E-4 -0.16100654006004333 -0.1491897851228714 -0.37073859572410583 -0.1817905604839325 0.16197438538074493 -0.09833623468875885 0.047208234667778015 -0.5293441414833069 0.10481607913970947 -0.22386863827705383 0.23548902571201324 -0.4610484838485718 -0.3011593222618103 0.25268492102622986 0.056350115686655045 0.13923794031143188 -0.12471985816955566 0.364886075258255 -0.2589883506298065 0.173384889960289 0.05228397250175476 -0.008525622077286243 -0.10219993442296982 0.05701093003153801
does -0.0591188408434391 -0.14035694301128387 -0.1553732454776764 -0.23176369071006775 -0.11675122380256653 -0.17454971373081207 -0.3328089416027069 0.1679663509130478 -0.3040286898612976 0.09318413585424423 0.10093560069799423 -0.40573737025260925 0.020447688177227974 0.26170459389686584 0.01406693272292614 -0.34854814410209656 -0.07787568867206573 -0.0028322534635663033 -0.19206483662128448 -0.1341930776834488 -0.1638321727514267 0.3165879249572754 -0.047072455286979675 0.48451492190361023 0.07599764317274094 -0.4279147684574127 -0.3389985263347626 -0.1143994852900505 0.028913073241710663 0.0568353533744812 -0.09476810693740845 -0.17196565866470337 0.2595979869365692 0.1996789574623108 -0.2928735017776489 0.0028519786428660154 0.4139987826347351 -0.11108839511871338 0.09224899113178253 -0.018637068569660187 -0.1325954794883728 0.26116809248924255 0.04046674817800522 0.250419557094574 -0.46168285608291626 0.19916988909244537 -0.11148529499769211 -0.47627925872802734 -0.07400017231702805 -0.06965478509664536 -0.25868621468544006 -0.14321470260620117 0.007685988210141659 -0.1345423310995102 0.042974017560482025 0.04254334047436714 -0.1743294596672058 0.1390608251094818 -0.26353371143341064 0.233234703540802 -0.2476818859577179 -0.02200179547071457 -0.3853897154331207 -0.10631153732538223 0.24913670122623444 0.2514021098613739 0.4993104338645935 0.09569165110588074 0.2572775185108185 -0.8390950560569763 -0.07877685129642487 0.014059444889426231 -0.21652325987815857 0.03228270635008812 -0.20295651257038116 0.5040969252586365 0.21279041469097137 -2.0185729954391718E-4 -0.11679551750421524 -0.11537131667137146 0.12935255467891693 0.5559169054031372 0.16249163448810577 0.09542848914861679 -0.30751508474349976 0.025426508858799934 0.0933581069111824 -0.04893739894032478 0.09260822087526321 -0.16857698559761047 -0.2578781247138977 -0.14169622957706451 0.016611771658062935 0.27341049909591675 -0.027593515813350677 -0.2924421429634094 0.07422751188278198 -0.31957384943962097 0.03334369137883186 -0.0192410945892334
by 0.24903078377246857 -0.0983685776591301 0.02687004581093788 0.33879905939102173 0.18985655903816223 -0.06442359834909439 0.15698927640914917 -0.12361202389001846 0.021030550822615623 -0.2858109474182129 -0.32925495505332947 0.03770884871482849 0.14808642864227295 -0.05505155026912689 -0.03704841062426567 0.07072432339191437 0.12480867654085159 -0.1246718019247055 0.15935271978378296 0.16870641708374023 0.12883011996746063 0.20546004176139832 -0.0441543348133564 0.214697003364563 -0.22776836156845093 0.1486971229314804 0.027553681284189224 0.07000450789928436 -0.07438384741544724 0.13504253327846527 -0.007674923166632652 0.06741822510957718 0.0679648369550705 0.017198791727423668 -0.11709471791982651 -0.18458667397499084 0.14538706839084625 0.0052262842655181885 -0.1348492056131363 -0.04180194437503815 -0.010790923610329628 -0.10840592533349991 0.11734219640493393 -0.18908746540546417 -0.27909713983535767 0.11765692383050919 -0.3059106171131134 0.1589527130126953 0.04380582273006439 -0.029871966689825058 -0.13288383185863495 -0.18252886831760406 -0.16893412172794342 0.11263696104288101 0.03938770294189453 0.0026008954737335443 -0.03733029216527939 0.1293131560087204 0.058660946786403656 0.031098725274205208 0.2569863498210907 0.07780235260725021 -0.08846693485975266 -0.07568433880805969 0.05822397768497467 -0.10465554147958755 -0.2691500782966614 0.0987444519996643 -0.14671683311462402 0.061338406056165695 -0.08883830159902573 -0.25510910153388977 -0.18123434484004974 -0.028770187869668007 0.006056397687643766 -0.06387794762849808 -0.10515983402729034 0.09545548260211945 -0.2456103414297104 -0.08638522773981094 0.11344096064567566 0.040713004767894745 -0.252669095993042 0.10172012448310852 0.051264408975839615 0.22475576400756836 0.07099391520023346 -0.19275403022766113 -0.1062258780002594 -0.10155653208494186 0.054745689034461975 -0.11014820635318756 0.08533313125371933 0.15231217443943024 0.00900506041944027 0.09622831642627716 0.03240295499563217 0.057575348764657974 -0.06447423994541168 0.008387766778469086
national -0.008513086475431919 0.022912973538041115 0.0026901978999376297 0.028637424111366272 0.04896635562181473 0.023154962807893753 0.06042862683534622 -0.029468096792697906 -0.06890882551670074 -0.15044835209846497 -0.09623997658491135 -0.003421891015022993 -0.02897745743393898 0.04563923925161362 -0.038667622953653336 0.05399489030241966 0.07261010259389877 0.07197418063879013 0.06889007240533829 0.10773073136806488 -0.05112643539905548 -0.1170666366815567 0.021735385060310364 -0.12893888354301453 -0.002511593047529459 0.021915867924690247 -0.1703409105539322 -0.005963057745248079 0.02814762480556965 0.023024313151836395 -0.07014095038175583 -0.08812905102968216 -0.05882531777024269 -0.049013324081897736 0.056333646178245544 0.07716385275125504 -0.03919294849038124 -0.021097157150506973 -0.09122073650360107 0.03840504214167595 -0.01135027315467596 0.0349813774228096 0.09128312021493912 -0.036503151059150696 0.09620797634124756 -0.0958440974354744 -0.07716051489114761 -0.0382373183965683 -0.012292115949094296 -0.06774277240037918 0.11682422459125519 0.06596289575099945 -0.12120937556028366 0.09584765881299973 -0.14648959040641785 0.024875905364751816 0.021787263453006744 -0.09678644686937332 0.03855820372700691 -8.975616656243801E-4 0.05900713428854942 -0.0408431813120842 -0.035066016018390656 0.06390480697154999 9.91856213659048E-4 0.005531989969313145 -0.02229088731110096 -0.06632445752620697 -0.029437033459544182 -0.05256131291389465 0.042017754167318344 -0.010859045200049877 -0.06135087460279465 -0.06400390714406967 0.07587753236293793 0.02173599600791931 -0.008420896716415882 0.008254937827587128 0.045418739318847656 0.08612382411956787 -0.06709085404872894 0.09471262991428375 0.03050300106406212 -0.07050434499979019 -0.044035378843545914 -0.023095637559890747 0.014502906240522861 0.002977434080094099 0.05054864287376404 -0.012386715039610863 0.17639485001564026 0.013209101743996143 -4.0161877404898405E-4 -0.03650616854429245 0.008193815127015114 0.01883852854371071 -0.09844397008419037 0.08627632260322571 -0.02101621963083744 -0.05030851066112518
where -0.13018043339252472 0.10169120132923126 -0.10662634670734406 0.05259036645293236 -0.33877062797546387 0.5414394736289978 0.09125532954931259 0.0742710754275322 0.18195678293704987 -0.18675464391708374 -0.013202132657170296 -0.21603260934352875 -0.27242612838745117 -0.2083754986524582 0.039557114243507385 -0.1875012367963791 0.038495201617479324 -0.23175610601902008 0.334617555141449 0.44356465339660645 -0.1909293681383133 -0.1663660705089569 0.09945235401391983 -0.2789844870567322 0.17478600144386292 -0.15283440053462982 -0.058288708329200745 0.28822386264801025 -0.4550061821937561 0.3887608051300049 0.1456591933965683 -0.21314778923988342 -0.01916304975748062 0.06287205964326859 -0.24499693512916565 0.1925281584262848 -0.10971487313508987 -0.46890294551849365 -0.29570987820625305 0.0870329961180687 -0.16229267418384552 0.07307730615139008 0.0105716148391366 0.04478481784462929 0.09227799624204636 0.22303029894828796 0.18212756514549255 0.19470085203647614 -0.043883662670850754 0.15294569730758667 0.3756260871887207 -0.10161988437175751 0.018438946455717087 0.17432290315628052 -0.17552949488162994 0.09622561931610107 0.05415411666035652 0.3988116681575775 -0.055530354380607605 0.498542457818985 0.3719618022441864 0.19562403857707977 0.04838873818516731 0.08169762790203094 0.16306734085083008 -0.05405407026410103 -0.2295953333377838 0.06339743733406067 -0.11546999216079712 0.10483269393444061 -0.057934727519750595 -0.15686672925949097 0.19133757054805756 -0.10617218911647797 -0.06742748618125916 -0.10190139710903168 -0.08094992488622665 0.011085440404713154 0.18616904318332672 0.3436221182346344 0.283768892288208 -0.15689124166965485 0.07518033683300018 0.09628570824861526 -0.21748167276382446 0.19447064399719238 -0.27984288334846497 0.1359318494796753 -0.0974130928516388 -0.06392049044370651 0.21179072558879852 -0.16924908757209778 0.0978238508105278 -0.024483537301421165 0.06910166889429092 -0.1740419715642929 0.11939306557178497 -0.1304585486650467 -0.4434996545314789 0.20881035923957825
after 0.1857532560825348 -0.029552755877375603 0.006974861025810242 0.38744133710861206 -0.07115008682012558 0.17597311735153198 -0.08569461107254028 -0.015663400292396545 0.01745723746716976 -0.5442799925804138 -0.30111920833587646 -0.28480783104896545 -0.05262056365609169 -0.12555435299873352 0.05076718330383301 0.10451016575098038 0.1244465634226799 0.04704740270972252 0.33218148350715637 0.23280201852321625 -0.0037061451002955437 0.16720393300056458 0.017824603244662285 0.1586202085018158 -0.04495348781347275 0.09424659609794617 -0.2813514769077301 -0.0629224181175232 -0.1579749882221222 0.06845796853303909 -0.03849636763334274 0.06385470181703568 0.12268363684415817 0.11124448478221893 -0.15534429252147675 -0.14834736287593842 -0.12167384475469589 -0.058658793568611145 0.15670394897460938 0.007875647395849228 0.08361522853374481 0.050295256078243256 -0.030871734023094177 -0.002937705721706152 -0.3202531635761261 0.379052996635437 0.12209339439868927 0.23616552352905273 -0.09966903179883957 -0.036212436854839325 -0.1865992695093155 -0.11173270642757416 -0.16530174016952515 0.15843358635902405 -0.13379426300525665 0.07680045068264008 -0.11413387209177017 -0.02679918333888054 0.03587153181433678 0.09311364591121674 0.11853563040494919 0.04965677484869957 0.09973077476024628 -0.13557353615760803 -0.12634477019309998 -0.002784993499517441 -0.3277297019958496 -0.04565228149294853 -0.3507755398750305 0.2591893970966339 -0.4467914402484894 -0.14153510332107544 -0.3657356798648834 -0.19515222311019897 -0.12525905668735504 -0.017487255856394768 -0.023140612989664078 -0.0598599836230278 -0.22273868322372437 -0.11376749724149704 -0.057764437049627304 0.022298350930213928 0.18771399557590485 0.15617108345031738 0.06895340234041214 0.24561843276023865 -0.1551160365343094 0.1619194597005844 -0.1384318768978119 -0.11235089600086212 0.26486632227897644 -0.11111004650592804 0.23160022497177124 0.12164173275232315 0.3020666837692261 0.2053728699684143 0.04857761040329933 -0.02981303445994854 -0.21118521690368652 0.06464358419179916
so -0.13246820867061615 -0.090251125395298 0.1471097618341446 -0.202784925699234 0.031397584825754166 -0.02969389408826828 -0.02815801091492176 0.2839438021183014 0.09981745481491089 0.12769785523414612 0.3373388350009918 0.013415114022791386 0.1974838227033615 0.2591915428638458 -0.013450654223561287 -0.023701295256614685 0.1107831820845604 -0.027557795867323875 -0.17091089487075806 -0.1386297047138214 0.03537629544734955 0.11314620822668076 0.19712293148040771 0.002960637677460909 -0.08401300758123398 0.039726871997117996 -0.01642473228275776 -0.1380377858877182 0.02716221660375595 -0.03502951189875603 -0.008059399202466011 0.050260093063116074 -0.146015003323555 -0.09635577350854874 -0.04288366436958313 -0.3079482614994049 -0.07407648861408234 -0.1322244107723236 0.03194240853190422 0.09523623436689377 0.08909711986780167 -0.3227631151676178 -0.21119217574596405 -0.31419050693511963 0.05166660249233246 0.1665446162223816 0.21927963197231293 0.275048166513443 0.15227916836738586 0.0344415158033371 0.21862299740314484 0.025454159826040268 0.3454682230949402 0.1788036823272705 0.07044964283704758 0.07255972176790237 0.0035296501591801643 0.34338095784187317 -0.06557461619377136 -0.04643455147743225 0.14861319959163666 0.09895089268684387 -0.05355822667479515 -0.0660005435347557 0.07827426493167877 0.19671942293643951 -0.08415405452251434 0.31928834319114685 -0.09252670407295227 -0.1262073665857315 -0.09700231999158859 -0.18612626194953918 0.04876614734530449 -0.2874813675880432 -0.32566991448402405 0.1922696828842163 -0.21700313687324524 0.035610996186733246 0.05405889451503754 -0.22039318084716797 -0.2484748363494873 -0.052846428006887436 0.27336955070495605 -0.14030590653419495 0.1904505342245102 0.0798761397600174 -0.0409582182765007 -0.24811489880084991 0.004755907226353884 -0.05066174641251564 -0.07714830338954926 0.16087664663791656 0.20390693843364716 0.08439329266548157 -0.16424724459648132 0.1545974463224411 -0.20098517835140228 -0.0067020319402217865 -0.21532785892486572 -0.04602473974227905
a 0.3392212986946106 -0.5962854623794556 -0.04675917327404022 0.007143261842429638 0.17093874514102936 0.030152998864650726 -0.30475765466690063 -0.5403850078582764 -0.13534978032112122 -0.07236607372760773 -0.13187988102436066 0.4372863173484802 0.13212774693965912 -0.14397692680358887 0.16956831514835358 -0.2424117773771286 -0.11940453201532364 0.3504806458950043 -0.32359984517097473 0.18999670445919037 0.11169636994600296 -0.34361401200294495 0.12497861683368683 -0.3998834788799286 -0.2294083833694458 0.48602819442749023 0.06492064148187637 0.32067522406578064 -0.10075336694717407 0.08455484360456467 -0.026035334914922714 0.39152997732162476 0.27177894115448 0.09185580909252167 -0.007552117109298706 -0.16641998291015625 0.1210874691605568 0.12359391152858734 -0.10663919895887375 -0.11270181834697723 0.10723330825567245 -0.12271686643362045 0.07290789484977722 -0.16867008805274963 -0.27325835824012756 0.16494978964328766 0.13683836162090302 -0.12412939965724945 -0.0179644413292408 -0.2816263437271118 -0.007403479889035225 0.2312602698802948 0.07489412277936935 0.29658010601997375 -0.12985564768314362 -0.30151650309562683 -0.10582521557807922 -0.14412568509578705 -0.2763057053089142 0.05268682539463043 0.42888426780700684 0.06681092083454132 -0.2859836220741272 0.013092542998492718 0.32411396503448486 0.018261339515447617 0.005182988476008177 0.44324377179145813 -0.01720762997865677 -0.12063506245613098 -0.1441984325647354 0.0026196041144430637 -0.4484856426715851 0.1059238389134407 -0.17639212310314178 -0.37949153780937195 -0.06701502948999405 -0.08222665637731552 0.11899025738239288 -0.15019355714321136 -0.1684168428182602 0.14130927622318268 0.11362029612064362 -0.15019921958446503 0.10705717653036118 -0.010144677013158798 -0.0964575931429863 0.07800333946943283 -0.3093729317188263 0.17647190392017365 -0.07034004479646683 0.0975521132349968 -0.11429991573095322 -0.02055264264345169 -0.22032712399959564 0.2936192750930786 -0.03389019891619682 0.17046011984348297 -0.1386125683784485 0.16739892959594727
think 0.002903576008975506 0.025150783360004425 -0.2123643010854721 -0.08662638813257217 -0.3400256335735321 0.0485164113342762 0.21579912304878235 0.13144990801811218 0.07794063538312912 0.16010251641273499 -0.060515694320201874 -0.018224423751235008 -0.1246204748749733 0.13892000913619995 0.008452336303889751 -0.1440076380968094 0.17075122892856598 -0.2622872292995453 0.004444299265742302 -0.04721800982952118 0.20166216790676117 -0.32937610149383545 -0.07601990550756454 -0.07810597121715546 0.1715138852596283 -0.06992741674184799 0.07646781206130981 0.03751962259411812 0.08292047679424286 -0.2842423915863037 0.12552084028720856 0.05550249665975571 -0.19891874492168427 0.051926784217357635 -0.1760585755109787 -0.06418123096227646 -0.27737730741500854 0.2795897126197815 -0.07124973833560944 -0.12767136096954346 0.0814182385802269 -0.3427414298057556 -0.31395524740219116 -0.23720614612102509 -0.02977735921740532 0.21343308687210083 0.1656380295753479 -0.015681829303503036 -0.004429972264915705 0.2622734606266022 -0.04276733845472336 0.0058108726516366005 0.012498890981078148 -0.0591842383146286 -0.13940227031707764 0.014988169074058533 0.053336262702941895 -0.20592567324638367 -0.25263381004333496 -0.38219836354255676 -0.08524902164936066 0.23713448643684387 -0.24714960157871246 0.062224164605140686 0.056474313139915466 -0.11715879291296005 0.2874106168746948 -0.20805591344833374 -0.20388910174369812 0.26500457525253296 -0.15962107479572296 0.14253833889961243 0.18688037991523743 -0.20578816533088684 -0.16882111132144928 -0.216580331325531 -0.07602857053279877 0.12190495431423187 0.14531037211418152 0.009049057960510254 -0.09703615307807922 -0.035224877297878265 0.02067963220179081 0.30553287267684937 -0.12116023898124695 -0.14287538826465607 -0.12004364281892776 0.028805701062083244 0.43267643451690674 0.3005427420139313 -0.35479363799095154 -0.105824314057827 0.020133228972554207 0.01594783179461956 -0.10441316664218903 -0.19089116156101227 0.144231379032135 0.2619388997554779 0.17906224727630615 0.03913009539246559
set 0.004779762588441372 0.17734508216381073 0.02170531451702118 -0.1184273511171341 0.07149725407361984 0.2336457520723343 0.04992622137069702 -0.22362132370471954 0.14573492109775543 -0.2277379035949707 -0.11806360632181168 -0.1677514761686325 0.12324563413858414 0.13069814443588257 -0.0356166698038578 -0.2392255812883377 0.034785836935043335 -0.16749101877212524 0.309940367937088 -0.2110535353422165 -0.29060086607933044 0.07086029648780823 0.0271181408315897 -0.014806220307946205 -0.06429523229598999 -0.09072414040565491 -0.17098909616470337 0.0959119200706482 0.07085245847702026 0.004387413151562214 -0.3539503216743469 -0.0180285032838583 0.15208271145820618 -0.17451860010623932 0.028023583814501762 0.08549287915229797 0.051414959132671356 0.09974075108766556 0.10464800894260406 -0.030754737555980682 0.20344574749469757 0.003928232938051224 0.04385143518447876 0.0897248312830925 -0.1347751021385193 -0.04498928412795067 -0.1601596623659134 -0.10966313630342484 -0.07590360939502716 0.01931512914597988 -0.08517757803201675 0.11942381411790848 -0.06217378377914429 0.017392344772815704 0.029970578849315643 0.016537481918931007 0.07189120352268219 -0.08631159365177155 -0.03497576713562012 -0.10492844879627228 -0.12954097986221313 -0.10361934453248978 0.16866111755371094 0.0147865554317832 -0.025628292933106422 0.06709597259759903 0.016568323597311974 -0.19556565582752228 -0.23558339476585388 0.21049976348876953 0.059903185814619064 -0.06613699346780777 0.024806812405586243 -0.03520344942808151 0.08999224752187729 -0.04083815962076187 -0.07787024974822998 0.0962969958782196 0.0942821279168129 -0.18298807740211487 -0.03399353101849556 0.018389930948615074 -0.09469415247440338 -0.0056501589715480804 0.1201770156621933 0.3367350101470947 -5.652420222759247E-4 0.053948238492012024 -0.09804028272628784 -0.08200396597385406 0.0030460467096418142 -0.12137601524591446 -0.043575040996074677 0.10869648307561874 0.1335579752922058 0.11225764453411102 0.08308926969766617 0.024413779377937317 0.04520706459879875 -0.056010957807302475
